tree
version=v3
num_class=8
num_tree_per_iteration=8
label_index=0
max_feature_idx=15
objective=multiclass num_class:8
feature_names=Column_0 Column_1 Column_2 Column_3 Column_4 Column_5 Column_6 Column_7 Column_8 Column_9 Column_10 Column_11 Column_12 Column_13 Column_14 Column_15
feature_infos=[0.00016971463628578931:99.819091796875] [0.00029635304235853255:99.987052917480469] [6.7218745243735611e-05:99.887580871582031] [0.00047030061250552535:99.940345764160156] [0.00067499495344236493:99.888771057128906] [0.00027245230739936233:99.970611572265625] [0.00044168229214847088:99.979240417480469] [0.0010273022344335914:99.756095886230469] [3.4984391270780003e-06:84.219426982103755] [8.2598727703929063e-09:98.854293542819391] [0.0034471975718728914:97.524624158527558] [0.00018121493259324828:97.699029577980752] [0.0016382887674298771:99.927142691797286] [7.6412187471767561e-05:98.779006355580705] [0.00066489704943384863:98.804422688951533] [0.00038874793588553367:99.920213099522485]
tree_sizes=1421 1419 1520 1533 1220 1214 1323 827 1451 1448 1551 1461 1247 1242 1354 851 1451 1554 1558 1573 1245 1341 1354 946 1446 1557 1555 1674 1244 1351 1351 947 1432 1554 1558 1670 1248 1452 1354 947 1447 1554 1548 1667 1141 1351 1351 1244 1452 1557 1553 1677 1149 1451 1356 1248 1451 1558 1461 1674 1146 1454 1357 1254 1456 1558 1453 1672 1141 1356 1352 1349 1451 1557 1454 1470 1351 1350 1456 1352 1446 1554 1456 1674 1661 1451 1354 1349 1353 1453 1458 1472 1662 1352 1258 1354 1354 1453 1453 1672 1665 1461 1259 1356 1451 1664 1461 1470 1663 1360 1252 1354 1534 1668 1461 1570 1664 1358 1252 1358 1458 1565 1460 1473 1655 1362 1257 1254 1347 1568 1458 1571 1666 1466 1256 1354 1357 1563 1459 1572 1354 1364 1259 1359 1560 1558 1459 1677 1555 1462 1458 1252 1248 1461 1457 1673 1567 1463 1257 1354 1351 1462 1459 1672 1562 1362 1356 1349 1451 1458 1258 1680 1563 1458 1558 1360 1246 1460 1256 1669 1472 1466 1257 1147 1533 1454 1261 1672 1561 1460 1560 1351 1534 1668 1455 1666 1563 1364 1259 1355 1427 1570 1566 1674 1466 1564 1659 1361 1426 1572 1358 1666 1469 1466 1248 1362 1254 1566 1571 1677 1464 1462 1357 1365 1431 1566 1464 1669 1468 1366 1256 1161 1435 1568 1571 1671 1469 1556 1259 1156 1357 1358 1570 1671 1466 1364 1456 1158 1351 1365 1365 1677 1256 1668 1260 1358 1256 1356 1568 1671 1252 1671 1460 1157 1435 1364 1365 1676 1252 1569 1461 1161 1252 1352 1462 1574 1352 1571 1465 1160 1468 1362 1365 1580 1356 1564 1455 1259 1463 1360 1262 1678 1463 1574 1465 1266 1459 1362 1262 1568 1358 1678 1464 1470 1458 1364 1264 1568 1356 1675 1569 1261 1461 1358 1262 1576 1355 1572 1571 1262 1459 1359 1463 1579 1357 1675 1567 1262 1572 1363 1260 1572 1667 1569 1564 1262 1562 1360 1367 1476 1671 1566 1568 1261 1472 1368 1264 1478 1668 1566 1566 1467 1570 1362 1259 1573 1665 1462 1568 1266 1565 1361 1267 1362 1560 1470 1669 1474 1470 1359 1245 1379 1465 1568 1567 1265 1569 1356 1362 1478 1359 1575 1562 1470 1573 1261 1565 1582 1568 1566 1576 1473 1460 1363 1262 1577 1573 1676 1669 1165 1565 1359 1365 1380 1572 1670 1673 1471 1464 1262 1366 1268 1568 1666 1676 1157 1568 1364 1565 1375 1477 1780 1675 1363 1565 1361 1472 1466 1473 1672 1670 1166 1467 1256 1471 1578 1571 1568 1571 1369 1357 1361 1573 1464 1469 1777 1673 1265 1564 1362 1466 1570 1467 1575 1674 1366 1247 1364 1469 1572 1366 1778 1472 1580 1461 1364 1468 1568 1466 1466 1667 1366 1477 1364 1466 1571 1360 1672 1669 1371 1469 1362 1366 1572 1577 1678 1671 1369 1479 1361 1575 1573 1561 1672 1571 1366 1473 1359 1467 1469 1579 1674 1672 1373 1478 1363 1469 1475 1470 1467 1469 1267 1472 1366 1373 1472 1577 1774 1671 1268 1477 1360 1369 1474 1368 1572 1568 1262 1368 1365 1578 1474 1364 1675 1466 1375 1464 1466 1573 1473 1474 1672 1661 1266 1464 1366 1470 1471 1364 1564 1675 1368 1368 1365 1475 1470 1471 1575 1563 1163 1473 1469 1467 1473 1472 1771 1571 1270 1462 1371 1463 1366 1369 1569 1672 1262 1366 1464 1471 1465 1475 1370 1456 1263 1474 1369 1453 1466 1477 1263 1666 1266 1364 1470 1369 1466 1473 1367 1565 1370 1462 1361 1366 1475 1474 1469 1667 1369 1362 1469 1467 1471 1578 1368 1468 1266 1360 1368 1367 1367 1575 1476 1467 1267 1363 1366 1578 1379 1572 1579 1666 1364 1362 1469 1473 1471 1571 1371 1467 1374 1262 1363 1465 1164 1470 1579 1465 1382 1059 1359 1375 1381 1575 1480 1466 1374 1358 1460 1572 1471 1479 1476 1465 1163 1058 1365 1474 1064 1574 1580 1372 1379 950 1361 1359 1377 1582 1577 1469 1366 1153 1356 1472 1371 1466 1372 1469 1250 1360 1364 1465 1065 1578 1455 1470 1144 952 1469 1360 1478 1472 1467 1371 1346 954 1368 1470 1372 1474 1473 1680 1369 951 1456 1572 1382 1574 1477 1462 1167 1157 1260 1371 1380 1363 1576 1374 1164 1256 1462 1582 1379 1476 1470 1680 1370 934 1156 1470 1382 1576 1475 1685 1168 953 1161 1262 1679 1259 1470 1474 1169 1150 1155 1154 1376 1581 1470 1681 1371 954 1160 1261 1378 1476 1479 1472 1158 1052 1158 1156 1682 1472 1469 1682 1057 947 1159 1155 1377 1368 1475 1678 1371 1152 1268 1054 1379 1265 1472 1474 1159 950 1157 1158 1373 1266 1471 1682 1272 1256 1155 1052 1379 1469 1471 1479 1164 1056 1258 1158 1383 1367 1482 1573 1376 1149 1156 1055 1381 1161 1470 1475 1163 1051 1162 1158 1579 1473 1678 1676 1057 1255 1262 1260 1384 1161 1472 1573 1055 957 1159 1053 1371 1367 1576 1475 1264 1159 1262 1055 1382 1587 1472 1453 1058 947 1158 1050 1386 1589 1679 1453 1376 1053 1164 1156 1482 1468 1374 1478 1265 1256 1262 1263 1369 1367 1683 1451 1169 1159 1163 1052 1378 1566 1366 1473 1165 955 1263 953 1372 1378 1676 1475 1164 953 1163 954 1378 1589 1466 1474 1268 1155 1162 953 1263 1474 1582 1472 1167 1255 1266 1159 1455 1376 1586 1467 1163 1055 1163 1157 1478 1471 1476 1472 1172 1156 1154 953 1250 1373 1466 1473 1164 1162 1160 1058 1378 1361 1465 1378 1164 955 1156 951 1380 1466 1468 1475 1375 955 1158 958 1270 1374 1471 1476 1172 1258 1145 955 1366 1583 1475 1475 1167 952 1155 1260 1581 1477 1261 1476 1164 1258 1266 955 1468 1472 1476 1479 1269 1160 1055 1058 1358 1473 1466 1378 1170 957 1163 955 1371 1377 1272 1469 1169 957 1157 1160 1374 1262 1375 1479 1365 1459 1160 954 1373 1474 1470 1379 969 1365 1173 1364 1163 1357 1373 1482 967 856 1160 950 1263 1473 1573 1582 967 1253 1268 953 864 1484 1362 1482 861 1358 1140 1160 860 1260 1677 1579 966 852 1158 1260 1161 1585 1366 1480 965 1364 1142 958 969 1473 1371 1063 860 848 1264 1255 1165 1581 1464 1371 967 853 1160 955 968 1479 1365 1063 965 1154 1054 955 1476 1058 1360 1476 857 753 1158 1364 969 1479 1262 1055 968 751 1169 1363 970 1584 1366 1472 857 754 1166 1058 1062 1058 1467 1062 943 756 1150 1267 966 1260 1372 1476 859 752 1059 955 1274 1480 1466 1063 854 755 1161 954 968 1483 1464 1061 953 1162 1172 1368 967 1062 1567 1377 1064 753 1159 956 1273 1585 1675 1063 853 752 1270 1264 966 1588 1468 1477 854 749 1161 957 1060 1484 1057 1062 857 1161 1172 955 964 1061 1057 1165 960 752 1155 955 968 1375 1060 1374 753 752 1165 1366 1169 1477 1684 1276 1167 752 1167 1063 968 1380 1161 1164 753 1163 1160 1258 1171 1064 1158 1377 1165 754 1168 955 1277 1379 1676 1166 754 754 1270 958 1171 1377 1163 1277 1164 1160 1269 1254 1067 1380 1677 1157 754 650 1173 957 1167 1062 1155 1272 939 750 1267 1263 1168 1378 1162 1170 1171 652 1173 958 1372 1376 1372 1475 753 1160 1265 960 1169 1063 1684 1165 1066 651 1163 1259 1167 1382 1159 1273 760 754 1267 854 865 1374 1366 1166 748 652 1170 1057 1166 1377 1165 1271 965 749 1269 1261 1168 1381 1681 1165 1162 756 1258 959 862 1365 859 1374 754 1159 1170 957 1166 760 1471 1164 755 750 1159 1260 760 1376 1371 1373 752 751 1272 960 1170 1378 1476 1169 759 1164 1172 952 1071 1381 861 1273 762 649 1162 1057 759 1364 1471 1167 756 757 1171 955 1167 757 1787 1273 960 1061 1270 1254 763 1379 861 1144 1168 653 1164 1263 1169 1374 1165 1373 754 755 1066 1255 763 1265 1363 1065 1066 1265 1271 856 1170 760 1784 1273 654 750 1068 1061 1266 1377 863 1372 752 654 1169 1258 1175 1281 966 1062 657 1165 1161 1256 966 759 1465 1376 754 756 1267 854 1167 1363 965 1060 957 961 1069 1258 763 1379 861 1378 963 654 1473 1371 1169 1360 1470 1268 656 1058 1066 959 1269 1372 862 1064 754 755 1583 850 1578 1053 964 1381 654 656 1068 1155 1066 1367 860 1166 755 1264 1270 1057 763 1380 1472 1369 1478 956 1062 1163 1172 754 1585 1056 652 754 1482 1261 1059 1375 967 1373 958 960 1173 957 1067 1272 861 1065 654 653 1465 1054 1164 947 1063 1378 753 1064 1064 856 1062 1364 1664 1274 655 1062 1258 1055 1171 758 1062 1166 1059 1158 1066 1057 1060 1268 860 1275 758 754 1168 856 1067 1267 1060 1376 1565 653 1063 1262 1061 1263 1060 1275 748 751 1369 960 1054 1175 962 1373 1058 856 1170 956 1062 956 1062 1274 759 755 1067 1056 1068 756 862 1373 758 1162 1063 1263 1056 964 954 1279 1059 657 1356 1265 861 1262 1064 1059 1475 761 1163 960 1170 1265 1688 1282 758 1167 1160 1254 1060 960 962 1276 759 864 1272 1054 1060 852 1057 1684 654 1057 1274 1053 1063 760 863 1166 751 860 965 958 1063 1268 1064 1276 656 1276 1272 1064 1382 1469 1469 1278 763 852 1167 1052 1060 867 1063 1677 755 958 1173 1059 1162 955 862 1064 1564 855 861 1056 862 761 1053 1279 652 864 960 1065 1065 1267 965 1274 756 1479 1166 1260 861 1376 1058 1281 1060 755 1170 1057 1060 1056 1069 1065 757 867 864 1051 1068 762 1070 1679 755 1274 1165 961 1580 654 860 1273 1060 1063 1166 1056 1060 1267 1063 1679 1476 754 1171 1061 860 958 1067 1059 658

Tree=0
num_leaves=13
num_cat=0
split_feature=0 8 0 8 6 14 8 4 6 6 7 2
split_gain=82.5632 70.3145 36.1864 10.5405 12.5871 9.24698 11.6958 8.72878 0.698497 1.75029 0.439551 0.408591
threshold=57.531780242919929 7.440590876872812 85.299045562744155 13.114750445860393 3.2117090225219731 8.3654565967951999 1.2668875091404044 1.5687800049781802 7.5696680545806894 10.165580749511721 10.559062480926515 4.5704307556152353
decision_type=2 2 2 2 2 2 2 2 2 2 2 2
left_child=3 5 -3 8 10 11 -7 -6 -1 -10 -5 -2
right_child=1 2 -4 4 7 6 -8 -9 9 -11 -12 -13
leaf_value=-3.1516036694160401 -3.1515678775485942 -3.0651260142433583 -2.9332439916304121 -3.1515761589657187 -3.1295257763292521 -3.1380938015664799 -3.047073545181306 -3.0619911852160207 -3.1217977561291788 -3.1485160102454253 -3.1367425983187531 -3.1367425983187531
leaf_weight=62.52583147585392 3.5657967552542669 3.1511692255735388 2.1560631543397903 4.5609028264880163 2.2389886602759361 1.8243611305952074 1.6585101187229154 2.4877651780843735 1.6585101187229181 16.087548151612282 1.6585101187229154 1.6585101187229154
leaf_count=754 43 38 26 55 27 22 20 30 20 194 20 20
internal_value=0 2.25981 5.12898 -0.347189 0.573123 0.51035 1.77274 1.80337 -0.472754 -0.296942 -0.360988 -0.330194
internal_weight=0 14.0144 5.30723 91.2181 10.9462 8.70718 3.48287 4.72675 80.2719 17.7461 6.21941 5.22431
internal_count=1269 169 64 1100 132 105 42 57 968 214 75 63
shrinkage=1


Tree=1
num_leaves=13
num_cat=0
split_feature=9 1 12 9 9 1 5 0 15 1 9 0
split_gain=140.608 79.9542 21.4574 16.1329 15.9672 25.4195 19.2765 13.9307 5.11474 2.56576 6.97078 1.26746
threshold=18.768663787879806 9.4751319885253924 1.470047877928603 61.231565855277545 5.5224131263336504 1.1600657701492312 3.1881418228149419 73.079990386962905 1.9562471991201353 13.139066696166994 1.8910341160639923 3.4995191097259526
decision_type=2 2 2 2 2 2 2 2 2 2 2 2
left_child=4 3 11 7 9 -6 -7 -2 -4 -1 -11 -3
right_child=1 2 8 -5 5 6 -8 -9 -10 10 -12 -13
leaf_value=-2.0787729519903513 -2.0737949330924415 -1.9837099029528253 -2.0009737418833038 -2.0188622159257239 -2.0787686769965119 -2.0267838720982039 -2.0711321934802629 -2.0333434398779509 -2.034043937816397 -2.0772477104396674 -2.0533615012815929 -1.9669149218808781
leaf_weight=130.49314467608929 19.939529746770862 4.4310066103935259 5.095657601952551 6.2034092545509329 25.478288009762764 15.730073466897013 9.7482145428657514 7.0896105766296378 6.6465099155902863 32.567898586392403 9.7482145428657514 7.9758118987083435
leaf_count=589 90 20 23 28 115 71 44 32 30 147 44 36
internal_value=0 1.39653 2.7813 0.390094 -0.358119 0.133723 0.8401 0.0560954 1.81145 -0.503181 -0.288944 3.69875
internal_weight=0 57.3815 24.149 33.2325 223.766 50.9566 25.4783 27.0291 11.7422 172.809 42.3161 12.4068
internal_count=1269 259 109 150 1010 230 115 122 53 780 191 56
shrinkage=1


Tree=2
num_leaves=14
num_cat=0
split_feature=1 10 1 1 9 10 0 6 9 2 1 7 2
split_gain=254.15 50.357 24.3691 16.1828 14.1556 12.1166 11.4378 9.09233 4.81254 2.77754 0.86298 2.33158 0.746029
threshold=72.882961273193374 4.1388944489001736 13.139066696166994 97.963794708251967 2.367245376429493 23.866993859663179 0.59276509284973156 1.7777842283248904 3.0608790818094751 0.72403955459594738 4.3359587192535409 1.8633623123168948 0.020998585969209674
decision_type=2 2 2 2 2 2 2 2 2 2 2 2 2
left_child=2 6 10 7 5 -4 -2 -3 -5 -6 12 -12 -1
right_child=1 3 4 8 9 -7 -8 -9 -10 -11 11 -13 -14
leaf_value=-2.0004517053438025 -1.9544403903003575 -1.9575212938244473 -1.9825016378932927 -1.9037105554259919 -2.0070252626052545 -1.9318868193150203 -2.0011786571014811 -1.9193529453852238 -1.9289676918700251 -1.9881076174076759 -1.986019743849416 -2.0056310929766679 -2.0070414225330353
leaf_weight=11.303284406661986 5.1806720197200766 12.009739682078363 7.0645527541637438 12.951680049300196 8.0064931213855761 4.9451869279146194 8.4774633049964887 5.6516422033309928 7.3000378459691992 11.774254590272902 4.709701836109164 17.661381885409355 181.79449087381363
leaf_count=48 22 51 30 55 34 21 36 24 31 50 20 75 772
internal_value=0 2.01932 -0.421172 2.61244 0.396039 1.25247 0.372491 1.91208 3.22295 -0.123659 -0.54177 -0.355176 -0.563359
internal_weight=0 51.5712 247.259 37.9131 31.7905 12.0097 13.6581 17.6614 20.2517 19.7807 215.469 22.3711 193.098
internal_count=1269 219 1050 161 135 51 58 75 86 84 915 95 820
shrinkage=1


Tree=3
num_leaves=14
num_cat=0
split_feature=2 11 5 7 9 11 2 1 4 5 1 12 11
split_gain=85.4923 37.4994 15.2844 9.56517 13.3041 8.99806 6.86558 7.16716 3.06295 2.87374 2.95223 2.1238 0.802534
threshold=5.4565470218658456 4.6234953234450717 10.542988300323488 77.504405975341811 2.0954764123199405 26.823231983311199 0.69597330689430248 0.15230333805084231 4.1001043319702157 1.7257472872734072 0.44959476590156561 3.8477153933514061 5.5886706474836956
decision_type=2 2 2 2 2 2 2 2 2 2 2 2 2
left_child=3 9 5 6 -5 -3 12 -8 -4 10 -2 -11 -1
right_child=1 2 8 4 -6 -7 7 -9 -10 11 -12 -13 -14
leaf_value=-2.0012894163273947 -1.9648828844145474 -1.9489242959065041 -1.9809400879042323 -2.0012695677754824 -1.9522095387227711 -1.9201273613419068 -1.9614153908742962 -1.9920306312131408 -1.9564274643321833 -1.9813670970427473 -1.9912884768789465 -2.0012776161212273 -1.9973066367660903
leaf_weight=62.943625628948212 5.4424939453601855 22.716496467590332 8.5186861753463727 6.1523844599723798 7.5721654891967773 9.4652068614959699 4.9692336022853842 85.660122096538544 4.9692336022853842 4.9692336022853842 4.9692336022853851 9.7018370330333692 62.233735114336014
leaf_count=266 23 96 36 26 32 40 21 362 21 21 21 41 263
internal_value=0 0.961054 1.50059 -0.296242 0.513082 1.87519 -0.347738 -0.138034 0.60639 -0.0210829 0.380479 -0.306434 -0.499522
internal_weight=0 70.7524 45.6696 229.531 13.7245 32.1817 215.807 90.6294 13.4879 25.0828 10.4117 14.6711 125.177
internal_count=1269 299 193 970 58 136 912 383 57 106 44 62 529
shrinkage=1


Tree=4
num_leaves=11
num_cat=0
split_feature=3 12 12 6 3 2 0 0 1 12
split_gain=122.823 45.8136 45.4526 19.3291 22.1138 9.22072 12.3248 7.73434 3.82878 1.12558
threshold=19.404797554016117 9.1506204984761492 77.37794713471682 51.193193435668952 2.8967636823654179 0.50609758496284496 3.4995191097259526 57.531780242919929 0.8626239299774171 42.990767437610536
decision_type=2 2 2 2 2 2 2 2 2 2
left_child=2 8 3 7 -5 9 -7 -1 -2 -3
right_child=1 5 -4 4 -6 6 -8 -9 -10 -11
leaf_value=-1.9046527166407479 -1.8760157031452056 -1.8257509827551042 -1.8259373406216324 -1.8925021589561966 -1.8396644394242805 -1.8760157031452056 -1.8240374655083247 -1.8930295905618917 -1.9044016302373354 -1.8113912343080056
leaf_weight=210.71044731140137 5.3700478076934797 6.9043471813201922 5.1143312454223624 23.525923728942875 6.137197494506835 5.3700478076934797 5.8814809322357178 42.193232774734497 6.3929140567779541 6.9043471813201904
leaf_count=824 21 27 20 92 24 21 23 165 25 27
internal_value=0 1.71959 -0.220108 -0.273601 0.490006 2.48379 1.8106 -0.363186 0.0910466 3.03192
internal_weight=0 36.8232 287.681 282.567 29.6631 25.0602 11.2515 252.904 11.763 13.8087
internal_count=1269 144 1125 1105 116 98 44 989 46 54
shrinkage=1


Tree=5
num_leaves=11
num_cat=0
split_feature=13 4 13 1 7 15 4 7 7 7
split_gain=101.898 28.4837 19.6203 18.1944 14.5759 13.1832 16.3469 5.36963 4.58032 2.86
threshold=40.430722019853498 1.7271841168403628 5.8641425642494189 10.93465566635132 9.942477226257326 0.44905319273271299 3.577184915542603 92.55271148681642 30.11170864105225 3.826868057250977
decision_type=2 2 2 2 2 2 2 2 2 2
left_child=1 7 8 5 -4 -2 -7 9 -3 -1
right_child=3 2 4 -5 -6 6 -8 -9 -10 -11
leaf_value=-2.0652771415370674 -1.9654033123861241 -2.0600780668541363 -2.0429063889885053 -2.0494458159400266 -2.0091361971427637 -2.0303181890568553 -1.9854662582191192 -2.0376010196437973 -2.0332730995715425 -2.0583741717783934
leaf_weight=126.50215588510036 5.1496452838182512 31.121769323945045 21.046376377344131 5.8213381469249716 12.538266777992247 10.970983430743219 9.1798024624586088 5.149645283818244 4.4779524207115164 52.168145701289177
leaf_count=565 23 139 94 26 56 49 41 23 20 233
internal_value=0 -0.210037 0.336842 1.7075 0.885149 2.07427 1.70883 -0.415896 -0.180274 -0.44493
internal_weight=0 253.004 69.1844 31.1218 33.5846 25.3004 20.1508 183.82 35.5997 178.67
internal_count=1269 1130 309 139 150 113 90 821 159 798
shrinkage=1


Tree=6
num_leaves=12
num_cat=0
split_feature=5 2 14 1 12 14 5 14 12 14 0
split_gain=206.716 35.2577 26.3525 23.2346 16.6623 16.3647 10.9415 9.95689 5.48461 2.7476 0.458087
threshold=43.651910781860359 39.617166519165046 33.799049768730619 0.95417419075965892 33.602378946281299 25.926425843527369 5.4092400074005136 21.034379655201793 5.548821105515116 20.121796093251866 0.47035524249076849
decision_type=2 2 2 2 2 2 2 2 2 2 2
left_child=1 6 3 4 -2 8 9 -8 -3 -1 -4
right_child=2 5 10 -5 -6 -7 7 -9 -10 -11 -12
leaf_value=-1.8178057051047247 -1.7441391083531674 -1.8105237361660131 -1.7284142404109299 -1.8026040305004138 -1.7927718117095703 -1.7541582687432 -1.8092442457720739 -1.7819793553542465 -1.7847174171129456 -1.810355212826168 -1.7374352983336923
leaf_weight=182.14484190940857 17.334025740623478 9.3548710346221977 11.280873894691469 9.3548710346221906 5.7780085802078238 7.7040114402770987 42.922349452972412 10.180300831794737 11.005730628967283 36.594054341316223 5.5028653144836417
leaf_count=662 63 34 41 34 21 28 156 37 40 133 20
internal_value=0 -0.31181 1.89873 1.37248 1.91069 0.755239 -0.421991 -0.0147071 0.285207 -0.520842 2.9164
internal_weight=0 299.906 49.2506 32.4669 23.112 28.0646 271.842 53.1027 20.3606 218.739 16.7837
internal_count=1269 1090 179 118 84 102 988 193 74 795 61
shrinkage=1


Tree=7
num_leaves=7
num_cat=0
split_feature=15 6 15 0 7 15
split_gain=141.21 53.1985 34.5201 18.3565 4.38203 2.89086
threshold=69.962057242086544 96.20652008056642 17.765861469898617 0.45421811938285833 2.2295206785202031 1.1923335957015928
decision_type=2 2 2 2 2 2
left_child=1 2 5 -4 -2 -1
right_child=4 -3 3 -5 -6 -7
leaf_value=-2.1965005642713624 -2.1065578141194665 -2.1099114811428215 -2.1903979592810554 -2.1561006557488644 -2.0731914576942994 -2.1904000779198696
leaf_weight=81.990782022476196 5.199415445327757 5.3993929624557486 14.798336267471312 27.196942329406738 4.5994828939437866 114.58711731433868
leaf_count=410 26 27 74 136 23 573
internal_value=0 -0.149496 -0.219766 0.603169 3.72214 -0.395599
internal_weight=0 243.973 238.573 41.9953 9.7989 196.578
internal_count=1269 1220 1193 210 49 983
shrinkage=1


Tree=8
num_leaves=13
num_cat=0
split_feature=0 8 0 8 6 14 2 1 6 6 2 11
split_gain=76.6309 56.9567 23.7206 10.3311 11.6774 8.57776 10.6684 7.90425 0.700483 1.71202 0.447224 0.410391
threshold=57.531780242919929 7.440590876872812 85.299045562744155 13.114750445860393 3.2117090225219731 8.3654565967951999 1.8457683920860293 6.2198650836944589 7.5696680545806894 10.165580749511721 0.17033061385154727 14.798862129474555
decision_type=2 2 2 2 2 2 2 2 2 2 2 2
left_child=3 5 -3 8 10 11 -7 -6 -1 -10 -5 -2
right_child=1 2 -4 4 7 6 -8 -9 9 -11 -12 -13
leaf_value=-0.012944431479114275 -0.012912935738735644 0.067858629871266354 0.1675336752195363 0.0021412045536231585 0.066009662864522964 0.085149143563874347 0.00018031187615837657 0.00073959527043657646 0.016433063889829441 -0.0098350520608197836 -0.012920082428831718 0.0019833342321923511
leaf_weight=61.717079401016235 3.5456045642495138 3.3703338131308547 2.6065970212221146 1.6339461654424647 3.1359333172440529 1.7664478197693827 1.8742220774292944 1.7974112108349798 1.68174494057894 15.959460079669951 4.5265367850661278 1.6505457013845442
leaf_count=754 43 38 26 20 36 20 22 21 20 194 55 20
internal_value=0 2.1081 4.49245 -0.345501 0.55817 0.49479 1.67207 1.70485 -0.471898 -0.295456 -0.359209 -0.329019
internal_weight=0 14.8138 5.97693 90.4521 11.0938 8.83682 3.64067 4.93334 79.3583 17.6412 6.16048 5.19615
internal_count=1269 169 64 1100 132 105 42 57 968 214 75 63
shrinkage=0.0247862


Tree=9
num_leaves=13
num_cat=0
split_feature=9 1 12 9 1 5 9 0 15 1 9 12
split_gain=133.761 70.9503 17.6615 15.7823 24.563 18.0358 14.9687 13.3283 4.44413 2.56914 6.82837 1.02326
threshold=18.768663787879806 9.4751319885253924 1.470047877928603 5.5224131263336504 1.1600657701492312 3.1881418228149419 61.231565855277545 73.079990386962905 1.9562471991201353 13.139066696166994 1.8910341160639923 0.59524639177584959
decision_type=2 2 2 2 2 2 2 2 2 2 2 2
left_child=3 6 11 9 -5 -6 7 -2 -4 -1 -11 -3
right_child=1 2 8 4 5 -7 -8 -9 -10 10 -12 -13
leaf_value=-0.014164631792387677 -0.0091692970963602599 0.089366456591847568 0.059576012273539612 -0.014159574212113545 0.03623400074963401 -0.0064984113238211773 0.043393329705812958 0.030074758054998797 0.029355147456425906 -0.012624142982907769 0.010963888388313752 0.074932289671360716
leaf_weight=128.95782272517681 19.816973641514782 8.3599217087030429 5.3646041899919492 25.170880764722824 16.194248184561733 9.6963009089231473 6.4432220607995978 7.2657495588064185 6.8169698864221573 32.208889856934547 9.838148504495619 4.9941020160913459
leaf_count=589 90 35 23 115 71 44 28 32 30 147 44 21
internal_value=0 1.3375 2.5934 -0.355759 0.132024 0.815979 0.380756 0.0546311 1.72173 -0.501441 -0.286523 3.38812
internal_weight=0 59.0615 25.5356 222.066 51.0614 25.8905 33.5259 27.0827 12.1816 171.005 42.047 13.354
internal_count=1269 259 109 1010 230 115 150 122 53 780 191 56
shrinkage=0.0247862


Tree=10
num_leaves=14
num_cat=0
split_feature=1 10 1 1 9 10 0 6 9 2 1 10 2
split_gain=239.251 44.2794 23.9649 13.5253 13.2875 10.869 10.7882 7.84028 3.78435 2.74225 0.863497 2.34522 0.748207
threshold=72.882961273193374 4.1388944489001736 13.139066696166994 97.963794708251967 2.367245376429493 23.866993859663179 0.59276509284973156 1.7777842283248904 3.0608790818094751 0.72403955459594738 4.3359587192535409 17.540686852544461 0.020998585969209674
decision_type=2 2 2 2 2 2 2 2 2 2 2 2 2
left_child=2 6 10 7 5 -4 -2 -3 -5 -6 12 -12 -1
right_child=1 3 4 8 9 -7 -8 -9 -10 -11 11 -13 -14
leaf_value=-0.0076931165396871932 0.036594619010738988 0.033647760727938604 0.009907136410013246 0.081643201945509211 -0.014303368845367512 0.057061534592341437 -0.0084300778279104271 0.068241292142177987 0.059861421345667035 0.0045481498950984299 -0.012909846063777968 0.0068224251090751057 -0.014316653614101836
leaf_weight=11.22355969250202 5.3404522538185111 12.369963958859445 7.1389096677303296 13.912080913782122 7.9201465100049999 5.1944215446710587 8.4224012047052366 5.9886164814233771 7.6658929884433737 11.79445271193981 17.538296788930896 4.6801533401012412 179.62367944419384
leaf_count=48 22 51 30 55 34 21 36 24 31 50 75 20 772
internal_value=0 1.91168 -0.418871 2.44477 0.387264 1.2014 0.364364 1.81309 2.98195 -0.121777 -0.54015 -0.35291 -0.56192
internal_weight=0 53.6994 245.114 39.9366 32.0479 12.3333 13.7629 18.3586 21.578 19.7146 213.066 22.2185 190.847
internal_count=1269 219 1050 161 135 51 58 75 86 84 915 95 820
shrinkage=0.0247862


Tree=11
num_leaves=13
num_cat=0
split_feature=2 11 5 7 9 11 2 11 5 2 11 5
split_gain=82.0991 34.8455 16.12 9.26369 12.5749 8.76109 6.80281 7.01172 2.27966 3.32196 0.805828 0.101471
threshold=5.4565470218658456 3.9869295589458855 0.38505612313747412 77.504405975341811 2.0954764123199405 25.254539760314149 0.69597330689430248 19.572028529391634 3.6313412189483647 35.432746887207038 5.5886706474836956 10.542988300323488
decision_type=2 2 2 2 2 2 2 2 2 2 2 2
left_child=3 8 -3 6 -5 -4 10 -8 9 -2 -1 -10
right_child=1 2 5 4 -6 -7 7 -9 11 -11 -12 -13
leaf_value=-0.014327672981154421 -0.0053761851441340262 0.064565342787952062 0.021642935393169277 -0.014319902641011092 0.033153433756224322 0.049025940937609688 -0.006823997239477967 0.010475186332733352 -0.0090386060055140122 0.020172371636555487 -0.010315411507777183 -0.014317482246555647
leaf_weight=62.183328837156296 8.2877328693866747 9.0930145084857923 30.924480050802231 6.1059955954551679 7.8077028691768646 9.3652145713567716 72.429404020309448 17.959804862737656 4.6982905566692335 5.0162899643182746 61.658942133188248 4.7040629237890244
leaf_count=266 35 37 128 26 32 38 307 76 20 21 263 20
internal_value=0 0.930342 1.40179 -0.293876 0.496653 1.13012 -0.345245 -0.136578 -0.0947356 0.171335 -0.4975 -0.471798
internal_weight=0 72.0891 49.3827 228.145 13.9137 40.2897 214.231 90.3892 22.7064 13.304 123.842 9.40235
internal_count=1269 299 203 970 58 166 912 383 96 56 529 40
shrinkage=0.0247862


Tree=12
num_leaves=11
num_cat=0
split_feature=3 12 12 6 3 12 2 0 5 9
split_gain=115.836 42.2857 41.0272 18.8087 20.4544 7.96325 7.83293 7.63227 3.78482 0.345044
threshold=19.404797554016117 77.37794713471682 9.1506204984761492 51.193193435668952 2.8967636823654179 39.872105235663845 0.50609758496284496 57.531780242919929 8.2468004226684588 0.015440880909003219
decision_type=2 2 2 2 2 2 2 2 2 2
left_child=1 3 8 7 -5 6 -4 -1 -2 -7
right_child=2 -3 5 4 -6 9 -8 -9 -10 -11
leaf_value=-0.010879874238995928 0.01748036970214175 0.063348476254477926 0.063544649641184919 0.0011673495435861646 0.051156934385704296 0.077105149889920954 0.026954891966726631 0.00067291271888484316 -0.010693470356280571 0.068261212868210408
leaf_weight=208.79548780620098 5.4027144610881788 5.3925743699073783 7.2782433629035967 23.577538847923282 6.3938933014869681 6.2036480009555799 7.1374062895774841 42.21254301071167 6.3951814472675323 5.6701385080814362
leaf_count=824 21 20 27 92 24 23 27 165 25 21
internal_value=0 -0.217876 1.63841 -0.271128 0.477536 2.3337 1.8332 -0.360543 0.0886362 2.94088
internal_weight=0 286.372 38.0873 280.979 29.9714 26.2894 14.4156 251.008 11.7979 11.8738
internal_count=1269 1125 144 1105 116 98 54 989 46 44
shrinkage=0.0247862


Tree=13
num_leaves=11
num_cat=0
split_feature=13 4 13 1 7 15 4 7 12 7
split_gain=96.0223 27.8414 18.6743 16.3695 13.3538 11.1289 14.2474 5.22392 4.52942 2.84418
threshold=40.430722019853498 1.7271841168403628 5.8641425642494189 10.93465566635132 9.942477226257326 0.44905319273271299 3.577184915542603 92.55271148681642 39.872105235663845 3.826868057250977
decision_type=2 2 2 2 2 2 2 2 2 2
left_child=1 7 8 5 -4 -2 -7 9 -3 -1
right_child=3 2 4 -5 -6 6 -8 -9 -10 -11
leaf_value=-0.012999906000126685 0.07992650940517769 -0.008353971636361519 0.009115259755279383 0.002716921882036781 0.04103957829153234 0.021209594389899583 0.06229291565733102 0.014150683639429652 0.01555100372922094 -0.0060932503997963251
leaf_weight=125.00613558292389 5.5167525410652187 29.653664231300354 21.219613656401634 5.8427815139293662 12.984492450952528 11.175197556614878 9.6987118571996671 5.2301094383001319 5.8232407122850409 51.937524750828743
leaf_count=565 23 133 94 26 56 49 41 23 26 233
internal_value=0 -0.207949 0.329604 1.62514 0.856859 1.96047 1.6261 -0.413591 -0.178582 -0.442722
internal_weight=0 251.855 69.681 32.2334 34.2041 26.3907 20.8739 182.174 35.4769 176.944
internal_count=1269 1130 309 139 150 113 90 821 159 798
shrinkage=0.0247862


Tree=14
num_leaves=12
num_cat=0
split_feature=5 2 14 1 14 12 5 14 12 14 7
split_gain=194.688 34.2835 22.8323 21.2755 15.0483 14.9109 10.8212 9.57091 6.74982 2.73318 0.393782
threshold=43.651910781860359 39.617166519165046 33.799049768730619 0.95417419075965892 32.933219022690473 33.602378946281299 5.4092400074005136 21.034379655201793 5.548821105515116 20.121796093251866 3.4868631362915044
decision_type=2 2 2 2 2 2 2 2 2 2 2
left_child=1 6 3 5 8 -2 9 -8 -3 -1 -4
right_child=2 4 10 -5 -6 -7 7 -9 -10 -11 -12
leaf_value=-0.014106068621652517 0.056119904830721712 -0.0070483404326973469 0.070115701630743252 0.00097903588745886058 0.052084296254958293 0.010553777130000486 -0.0055427936667274977 0.02102469711873646 0.020551843002671908 -0.0066546827749702359 0.06194774437800199
leaf_weight=180.05248281359673 18.119215279817585 9.5852478146553093 11.930352509021761 9.3870840668678266 6.2812710106372824 5.8424423933029166 42.751757502555847 10.346404045820234 12.582115232944487 36.437747150659561 5.793697476387023
leaf_count=662 63 35 41 34 22 21 156 37 45 133 20
internal_value=0 -0.309125 1.80398 1.31622 0.73487 1.81615 -0.419314 -0.0146636 0.347424 -0.518537 2.72141
internal_weight=0 298.037 51.0728 33.3487 28.4486 23.9617 269.588 53.0982 22.1674 216.49 17.724
internal_count=1269 1090 179 118 102 84 988 193 80 795 61
shrinkage=0.0247862


Tree=15
num_leaves=7
num_cat=0
split_feature=15 6 15 0 9 15
split_gain=127.437 48.9192 33.6032 17.3429 3.83204 2.88439
threshold=69.962057242086544 96.20652008056642 17.765861469898617 0.45421811938285833 0.0017083392263018426 1.1923335957015928
decision_type=2 2 2 2 2 2
left_child=1 2 5 -4 -2 -1
right_child=4 -3 3 -5 -6 -7
leaf_value=-0.013329204306481804 0.096612676275703954 0.067763587588050039 -0.0072009911636594934 0.026075125859317226 0.066126574972552588 -0.0072062436147330017
leaf_weight=81.009488686919212 6.2653920203447324 5.7509116679429999 14.701957017183302 27.819169253110886 4.3217290788888931 113.88139927387238
leaf_count=410 29 27 74 136 20 573
internal_value=0 -0.14787 -0.2177 0.587687 3.39628 -0.393447
internal_weight=0 243.163 237.412 42.5211 10.5871 194.891
internal_count=1269 1220 1193 210 49 983
shrinkage=0.0247862


Tree=16
num_leaves=13
num_cat=0
split_feature=0 8 0 8 6 14 8 4 6 6 4 0
split_gain=71.4572 47.2232 16.6122 10.1279 10.8661 7.97685 9.27533 7.04457 0.702714 1.67415 0.448009 0.411934
threshold=57.531780242919929 7.440590876872812 85.299045562744155 13.114750445860393 3.2117090225219731 8.3654565967951999 1.2668875091404044 1.5687800049781802 7.5696680545806894 10.165580749511721 0.10369411483407022 73.827293395996108
decision_type=2 2 2 2 2 2 2 2 2 2 2 2
left_child=3 5 -3 8 10 11 -7 -6 -1 -10 -5 -2
right_child=1 2 -4 4 7 6 -8 -9 9 -11 -12 -13
leaf_value=-0.012936593479246776 0.0020511682678896284 0.062993021871865548 0.14190013383343364 0.0022076759771276241 0.0081908548429762244 9.7273807498131893e-05 0.077650269526089569 0.066562050248725857 0.016019496312709772 -0.0098041289362541962 -0.012913070073599884 -0.01290929757453781
leaf_weight=60.915823489427567 1.643368162214754 3.5841229259967795 3.0351633206009865 1.6270494386553744 2.3349409401416779 1.8855604976415636 1.911417707800865 2.8009083792567253 1.7052266001701379 15.827671498060225 4.4763774275779724 3.5254591479897499
leaf_count=754 20 38 26 20 27 22 20 30 20 194 55 43
internal_value=0 1.97605 4.00203 -0.343804 0.543771 0.47969 1.58046 1.61585 -0.471036 -0.293907 -0.357458 -0.327869
internal_weight=0 15.5851 6.61929 89.688 11.2393 8.96581 3.79698 5.13585 78.4487 17.5329 6.10343 5.16883
internal_count=1269 169 64 1100 132 105 42 57 968 214 75 63
shrinkage=0.0247862


Tree=17
num_leaves=14
num_cat=0
split_feature=9 1 15 9 1 5 5 12 0 10 1 9 14
split_gain=127.396 64.2663 23.4373 15.5962 23.7517 16.9207 10.8511 6.41098 4.64432 4.70132 2.5745 6.68725 1.3752
threshold=18.768663787879806 2.1335197687149052 2.6180671209526296 5.5224131263336504 1.1600657701492312 3.1881418228149419 0.58385661244392406 1.470047877928603 13.783183574676515 2.4394645714275023 13.139066696166994 1.8910341160639923 3.481518768490274
decision_type=2 2 2 2 2 2 2 2 2 2 2 2 2
left_child=3 8 7 10 -5 -6 -4 -3 12 -10 -1 -12 -2
right_child=1 2 6 4 5 -7 -8 -9 9 -11 11 -13 -14
leaf_value=-0.014136936675546909 0.0024798689606479931 0.076852675802455125 0.057819797755499745 -0.014131409363736722 0.034797422212806579 -0.0064479236038610024 0.012013049661154705 0.047918857660597926 -0.0040884601020636513 0.030072034320250445 -0.012578773084219896 0.010716217461780761 -0.014155769004700705
leaf_weight=127.43200482428074 4.4479421973228481 15.731287345290186 4.8023755550384513 24.868872284889221 16.644176244735721 9.6477246135473234 9.4189944267272931 6.756994664669036 4.8634898662567121 5.0272545665502548 31.835019394755363 9.9269560724496824 9.6453456133604032
leaf_count=589 20 63 20 115 71 44 41 28 21 22 147 44 44
internal_value=0 1.2828 2.11455 -0.353397 0.130326 0.793081 1.10912 2.75012 0.00950973 0.535012 -0.499697 -0.283958 -0.358903
internal_weight=0 60.6937 36.7097 220.355 51.1608 26.2919 14.2214 22.4883 23.984 9.89074 169.194 41.762 14.0933
internal_count=1269 259 152 1010 230 115 61 91 107 43 780 191 64
shrinkage=0.0247862


Tree=18
num_leaves=14
num_cat=0
split_feature=1 10 1 9 0 8 0 10 2 1 7 2 4
split_gain=225.891 39.2178 23.5811 12.5281 11.8397 10.9909 10.2396 9.79766 2.70665 0.864367 2.31589 0.751221 0.358279
threshold=72.882961273193374 4.1388944489001736 13.139066696166994 2.367245376429493 0.082814633846282973 10.073338022219991 0.84496620297431957 23.866993859663179 0.72403955459594738 4.3359587192535409 1.8633623123168948 0.020998585969209674 0.016901089809834961
decision_type=2 2 2 2 2 2 2 2 2 2 2 2 2
left_child=2 6 9 7 12 -6 -2 -4 -5 11 -11 -1 -3
right_child=1 4 3 8 5 -7 -8 -9 -10 10 -12 -13 -14
leaf_value=-0.0076231926850081075 0.031755900834579132 0.070491854840482218 0.0096740368564075373 -0.014275462952074706 0.054905903951313749 0.014557213413189295 -0.010958054552020634 0.053793124214366973 0.0045058841723439142 0.0067282951604302242 -0.012870124037872559 -0.01428576119778688 0.078776750913425161
leaf_weight=11.139433741569517 6.4287499338388425 6.107282578945159 7.2008811235427839 7.8361884802579906 22.456445097923282 5.0990153253078452 7.4302220046520233 5.4321022927761078 11.817477613687513 4.6985891163349178 17.366701930761337 177.49243311583996 8.2177016139030439
leaf_count=48 26 23 30 34 87 20 32 21 50 20 75 772 31
internal_value=0 1.8155 -0.416602 0.379113 2.29805 1.91415 0.356887 1.15612 -0.120051 -0.538561 -0.350627 -0.560515 3.03613
internal_weight=0 55.7394 242.984 32.2866 41.8804 27.5555 13.859 12.633 19.6537 210.697 22.0653 188.632 14.325
internal_count=1269 219 1050 135 161 107 58 51 84 915 95 820 54
shrinkage=0.0247862


Tree=19
num_leaves=14
num_cat=0
split_feature=2 11 5 2 1 11 11 11 7 5 2 13 3
split_gain=78.8756 32.5112 14.2295 9.10392 18.1489 7.88001 5.35676 2.41464 3.1806 2.23062 3.19725 0.516517 0.102272
threshold=5.4565470218658456 3.9869295589458855 0.38505612313747412 1.1035988330841067 0.14325892180204394 25.254539760314149 19.572028529391634 5.4574539101353787 80.013088226318374 3.6313412189483647 35.432746887207038 48.003246333524821 4.5325002670288095
decision_type=2 2 2 2 2 2 2 2 2 2 2 2 2
left_child=3 9 -3 7 -5 -4 -6 11 -9 10 -2 -1 -11
right_child=1 2 5 4 6 -7 -8 8 -10 12 -12 -13 -14
leaf_value=-0.014303878931368981 -0.0053491647870798067 0.060637982203893506 0.020999274607195289 0.046237100789677209 -0.0070026478676466523 0.046545810060803897 0.010285663563207577 -0.0089413096501652287 0.0095639783713834022 -0.014290892693206091 0.019608101700888628 -0.0071912797356651062 -0.0089677735890970316
leaf_weight=70.173784613609314 8.2685064077377337 9.5494489073753339 31.443839192390442 4.8980191349983206 50.687451064586639 9.7273795455694181 14.061508268117903 73.777894794940948 6.1773917227983466 4.6575608402490598 5.0931435227394095 6.976560726761817 4.6566816717386246
leaf_count=303 35 37 128 20 216 38 59 317 25 20 21 30 20
internal_value=0 0.901179 1.34619 -0.291506 0.00935871 1.09086 -0.130963 -0.424919 -0.302987 -0.0939756 0.167586 -0.551213 -0.469783
internal_weight=0 73.3966 50.7207 226.753 69.647 41.1712 64.749 157.106 79.9553 22.6759 13.3616 77.1503 9.31424
internal_count=1269 299 203 970 295 166 275 675 342 96 56 333 40
shrinkage=0.0247862


Tree=20
num_leaves=11
num_cat=0
split_feature=3 12 12 6 3 12 12 5 1 10
split_gain=109.496 39.5162 36.9812 18.3159 18.9818 7.62268 6.7606 7.21756 3.67334 0.333051
threshold=19.404797554016117 77.37794713471682 9.1506204984761492 51.193193435668952 2.8967636823654179 15.280234144698289 39.872105235663845 11.539856910705568 0.8626239299774171 7.3362710173455499
decision_type=2 2 2 2 2 2 2 2 2 2
left_child=1 3 8 5 -5 -1 7 -4 -2 -8
right_child=2 -3 6 4 -6 -7 9 -9 -10 -11
leaf_value=-0.011445106105663504 0.017041352491815629 0.059498287781166684 0.057440782113867793 0.0011325832649548406 0.048569389405062731 -0.001564794422545355 0.071831248312738821 0.022251225048665765 -0.010655575389151828 0.063362523622343792
leaf_weight=184.2311225682497 5.4705827534198743 5.6586599349975577 8.9086458981037158 23.620738714933399 6.6411543786525717 64.905728340148926 6.8510231375694257 6.013948142528533 6.3606507033109665 5.6939918696880341
leaf_count=732 21 20 32 92 24 257 24 22 25 20
internal_value=0 -0.215675 1.56488 -0.268679 0.465879 -0.357926 2.20154 1.74566 0.0863233 2.74339
internal_weight=0 285.057 39.2988 279.399 30.2619 249.137 27.4676 14.9226 11.8312 12.545
internal_count=1269 1125 144 1105 116 989 98 54 46 44
shrinkage=0.0247862


Tree=21
num_leaves=12
num_cat=0
split_feature=13 4 13 1 7 13 3 7 6 7 7
split_gain=90.686 27.2119 17.7933 14.793 12.2984 9.7031 7.77233 5.08184 4.43016 4.39509 2.8264
threshold=40.430722019853498 1.7271841168403628 5.8641425642494189 10.93465566635132 9.942477226257326 69.958744671479067 0.45311227440834051 92.55271148681642 0.77478158473968517 30.11170864105225 3.826868057250977
decision_type=2 2 2 2 2 2 2 2 2 2 2
left_child=1 7 9 5 -4 6 -2 10 -7 -3 -1
right_child=3 2 4 -5 -6 8 -8 -9 -10 -11 -12
leaf_value=-0.012956769047618895 0.058303606739605419 -0.0077520627981580662 0.0089019365653303321 0.0026574009400434639 0.039186134762869695 0.046149061720706229 0.020995222787912968 0.013682029784210015 0.07673279445646175 0.018313840120327097 -0.0060492789516179094
leaf_weight=123.50412932038307 5.1087669432163265 30.7990393191576 21.395805940032005 5.8606944680213919 13.412435606122015 5.316922113299368 10.502758935093878 5.3104025423526755 6.5166928768157959 4.560579150915145 51.720876127481461
leaf_count=565 21 139 94 26 56 22 44 23 26 20 233
internal_value=0 -0.205883 0.322533 1.55041 0.830102 1.85839 1.33997 -0.41129 2.54185 -0.176967 -0.440515
internal_weight=0 250.703 70.1679 33.3058 34.8082 27.4451 15.6115 180.535 11.8336 35.3596 175.225
internal_count=1269 1130 309 139 150 113 65 821 48 159 798
shrinkage=0.0247862


Tree=22
num_leaves=12
num_cat=0
split_feature=5 2 14 14 1 5 14 12 15 12 14
split_gain=183.776 33.356 20.0741 16.0899 15.4734 10.8719 9.19483 5.66914 5.16256 4.94457 2.55243
threshold=43.651910781860359 37.654209136962898 2.1258630055401073 25.926425843527369 0.43309192359447485 5.4092400074005136 21.034379655201793 15.419712685941631 11.70160224870189 8.3768812656129779 45.651140395251183
decision_type=2 2 2 2 2 2 2 2 2 2 2
left_child=1 5 -2 8 7 10 -7 -4 -3 -6 -1
right_child=2 3 4 -5 9 6 -8 -9 -10 -11 -12
leaf_value=-0.013532231963384642 0.0030363497595869804 -0.0028260242390834509 0.065387605591397585 0.045946849145018627 0.043587036690851504 -0.0054882896619712967 0.020396978172092031 0.042051899525699751 0.022836219008830042 0.014968833933374271 -0.0012351197253443534
leaf_weight=201.95426616072655 6.8658106923103324 14.419460266828542 21.827227354049686 8.5245140492916089 6.7548614740371695 42.570644617080688 10.512199759483336 9.1049309074878675 7.2260445952415457 8.2711395025253278 10.956632643938063
leaf_count=750 24 52 72 29 23 156 37 31 26 29 40
internal_value=0 -0.306468 1.71827 0.689945 1.95654 -0.419505 -0.0145073 2.36112 0.231367 1.12333 -0.520453
internal_weight=0 296.164 52.824 30.17 45.9582 265.994 53.0828 30.9322 21.6455 15.026 212.911
internal_count=1269 1090 179 107 155 983 193 103 78 52 790
shrinkage=0.0247862


Tree=23
num_leaves=8
num_cat=0
split_feature=15 6 15 0 6 11 12
split_gain=116.189 43.2086 24.4184 15.6891 12.4585 2.7182 1.60933
threshold=52.831992133806089 92.413116455078139 17.765861469898617 0.35544511675834661 1.2647419571876528 6.0318306067156202 1.602983617199099
decision_type=2 2 2 2 2 2 2
left_child=1 2 5 -4 -2 -1 -6
right_child=4 -3 3 -5 6 -7 -8
leaf_value=-0.0065850704071766753 0.032474696164099912 0.053541519539637067 -0.011836373598205219 0.022484082542883383 0.088853731266391567 -0.012507317925098592 0.069144533413019862
leaf_weight=87.712566539645195 4.7803222984075537 7.6840806305408469 11.842344328761099 26.453083351254463 6.2458179593086225 104.5106176584959 4.4583560526371002
leaf_count=446 22 35 60 127 27 532 20
internal_value=0 -0.172544 -0.250325 0.478792 2.65436 -0.39561 3.25413
internal_weight=0 238.203 230.519 38.2954 15.4845 192.223 10.7042
internal_count=1269 1200 1165 187 69 978 47
shrinkage=0.0247862


Tree=24
num_leaves=13
num_cat=0
split_feature=0 8 15 8 6 14 2 15 6 6 12 4
split_gain=66.7343 39.7255 13.4219 9.93182 10.1354 7.433 8.48632 6.664 0.705286 1.63826 0.452166 0.4118
threshold=57.531780242919929 7.440590876872812 6.1508042076656428 13.114750445860393 3.2117090225219731 8.3654565967951999 1.8457683920860293 3.5167513468371649 7.5696680545806894 10.165580749511721 0.88705557538461621 0.68112987279891979
decision_type=2 2 2 2 2 2 2 2 2 2 2 2
left_child=3 5 -3 8 10 11 -7 -6 -1 -10 -5 -2
right_child=1 2 -4 4 7 6 -8 -9 9 -11 -12 -13
leaf_value=-0.012928690281748992 -0.012906200511417562 0.11649399626963559 0.047410151722239995 0.002356429364262285 0.073934633240952313 0.072496659003436548 -7.4095480303161218e-05 0.016597388606537346 0.015633929547245975 -0.0097714655174832368 -0.012907126776811764 0.0020698659879210021
leaf_weight=60.104707047343254 3.50810654461384 4.393588349223136 2.8612737134099007 1.6118004024028758 1.993104927241802 2.0254703536629681 1.9290730133652683 3.3415275290608406 1.7277014255523706 15.690348595380781 4.4340219423174858 1.641395106911659
leaf_count=754 43 38 26 20 21 20 22 36 20 194 55 20
internal_value=0 1.85569 3.60146 -0.342047 0.530077 0.463907 1.49525 1.53492 -0.470146 -0.292249 -0.355663 -0.32705
internal_weight=0 16.3589 7.25486 88.9032 11.3805 9.10405 3.95454 5.33463 77.5228 17.4181 6.04582 5.1495
internal_count=1269 169 64 1100 132 105 42 57 968 214 75 63
shrinkage=0.0247862


Tree=25
num_leaves=14
num_cat=0
split_feature=9 1 15 9 1 5 5 12 0 10 1 9 8
split_gain=121.459 58.5065 20.3853 15.3996 22.9733 15.8858 9.85373 5.37032 4.48527 4.44057 2.58094 6.55541 1.36812
threshold=18.768663787879806 2.1335197687149052 2.6180671209526296 5.5224131263336504 1.1600657701492312 3.1881418228149419 0.58385661244392406 1.470047877928603 13.783183574676515 2.4394645714275023 13.139066696166994 1.8910341160639923 3.2992081812630869
decision_type=2 2 2 2 2 2 2 2 2 2 2 2 2
left_child=3 8 7 10 -5 -6 -4 -3 12 -10 -1 -12 -2
right_child=1 2 6 4 5 -7 -8 -9 9 -11 11 -13 -14
leaf_value=-0.014109440184328538 0.0024857323051959562 0.071409900978031779 0.054584969964420298 -0.014104685568466982 0.033437177066092609 -0.006397640734463265 0.011652132689005052 0.045499388444640992 -0.0040891920138684023 0.028906788625848504 -0.012532900307678601 0.010492558688839186 -0.014133764862871925
leaf_weight=125.90020398795605 4.4462953656911877 16.690842688083652 5.0181593447923651 24.579000353813171 17.09202824532986 9.5996094793081266 9.5379410088062269 7.0168770849704734 4.8635909557342512 5.1550246030092239 31.458398163318634 10.008333280682562 9.5554135292768461
leaf_count=589 20 63 20 115 71 44 41 28 21 22 147 44 44
internal_value=0 1.23187 1.99978 -0.35104 0.128379 0.770816 1.06763 2.57187 0.00838138 0.519451 -0.497937 -0.281296 -0.356913
internal_weight=0 62.2841 38.2638 218.638 51.2706 26.6916 14.5561 23.7077 24.0203 10.0186 167.367 41.4667 14.0017
internal_count=1269 259 152 1010 230 115 61 91 107 43 780 191 64
shrinkage=0.0247862


Tree=26
num_leaves=14
num_cat=0
split_feature=1 10 1 9 1 0 10 15 2 9 1 10 2
split_gain=213.799 34.9801 23.1969 11.8463 10.3925 9.73322 8.88076 7.03367 2.66487 2.62982 0.866133 2.31852 0.753642
threshold=72.882961273193374 4.1388944489001736 13.139066696166994 2.367245376429493 97.963794708251967 0.84496620297431957 23.866993859663179 11.564323381203399 0.72403955459594738 1.3530714268913175 4.3359587192535409 17.540686852544461 0.020998585969209674
decision_type=2 2 2 2 2 2 2 2 2 2 2 2 2
left_child=2 5 10 6 7 -2 -4 -3 -5 -6 12 -12 -1
right_child=1 4 3 8 9 -7 -8 -9 -10 -11 11 -13 -14
leaf_value=-0.0075578625519353224 0.030554029366172464 0.050238960332365211 0.0094553679572302336 -0.014247394591594161 0.072262799388777221 -0.010904711216164762 0.050902307620576043 0.018110844639725353 0.0044384825183125419 0.055685613420475739 -0.012837428418880713 0.0068192865755856442 -0.014255453357038565
leaf_weight=11.061509400606154 6.5893291532993299 13.738613888621332 7.2598043084144575 7.7508674710989025 13.070535212755205 7.363842636346817 5.6598491668701172 6.0428982824087134 11.854329898953436 10.898414909839628 17.223544120788578 4.68055436015129 175.37602187693119
leaf_count=48 26 52 30 34 46 32 21 23 50 40 75 20 772
internal_value=0 1.72871 -0.414359 0.370971 2.16843 0.349562 1.11445 1.6312 -0.118696 2.61158 -0.536986 -0.348215 -0.559135
internal_weight=0 57.7036 240.866 32.5249 43.7505 13.9532 12.9197 19.7815 19.6052 23.969 208.342 21.9041 186.438
internal_count=1269 219 1050 135 161 58 51 75 84 86 915 95 820
shrinkage=0.0247862


Tree=27
num_leaves=15
num_cat=0
split_feature=2 11 5 2 1 5 11 4 11 7 5 2 13 4
split_gain=75.8302 30.3868 13.045 8.96938 17.0822 7.49725 5.19862 4.49057 2.40847 3.08017 2.18338 3.07894 0.518094 0.103779
threshold=5.4565470218658456 3.9869295589458855 10.542988300323488 1.1035988330841067 0.14325892180204394 0.19037607312202456 19.572028529391634 1.9218653440475466 5.4574539101353787 80.013088226318374 3.6313412189483647 35.432746887207038 48.003246333524821 3.0389515161514287
decision_type=2 2 2 2 2 2 2 2 2 2 2 2 2 2
left_child=3 10 5 8 -5 -3 -6 -4 12 -10 11 -2 -1 -12
right_child=1 2 7 4 6 -7 -8 -9 9 -11 13 -13 -14 -15
leaf_value=-0.014272129064429741 -0.0053196493106541188 0.064957460461821437 -0.0052687370940378425 0.044009743431022957 -0.0069476286679621474 0.035050034099015442 0.010032243158585927 0.022773305303290126 -0.0088786185208662195 0.0092351489728024812 -0.0088833596974143714 0.019073430808942932 -0.0071217435190793254 -0.014268739586654745
leaf_weight=69.307909980416298 8.247498959302904 6.2157240509986869 5.4032103419303885 5.0753173828124991 50.408565163612366 30.436293497681618 14.192334935069082 9.9678918570280057 73.200394108891487 6.2533634901046744 4.6075791716575605 5.1679054200649253 6.926948055624961 4.6183994561433792
leaf_count=303 35 23 22 20 216 118 59 40 317 25 20 21 30 20
internal_value=0 0.873649 1.29452 -0.289145 0.00898918 1.61887 -0.129717 0.520743 -0.422606 -0.300623 -0.093139 0.164084 -0.549669 -0.467756
internal_weight=0 74.6645 52.0231 225.365 69.6762 36.652 64.6009 15.3711 155.689 79.4538 22.6414 13.4154 76.2349 9.22598
internal_count=1269 299 203 970 295 141 275 62 675 342 96 56 333 40
shrinkage=0.0247862


Tree=28
num_leaves=11
num_cat=0
split_feature=3 12 12 6 3 0 2 0 5 0
split_gain=103.696 37.0783 33.4873 17.8525 17.6366 7.56081 6.1641 9.80952 3.6065 0.759324
threshold=19.404797554016117 77.37794713471682 9.1506204984761492 51.193193435668952 2.8967636823654179 57.531780242919929 0.50609758496284496 3.4995191097259526 8.2468004226684588 0.2778844833374024
decision_type=2 2 2 2 2 2 2 2 2 2
left_child=1 3 8 5 -5 -1 9 -8 -2 -4
right_child=2 -3 6 4 -6 -7 7 -9 -10 -11
leaf_value=-0.010767061826739668 0.016761915894155113 0.056127419771276048 0.057076032196777433 0.0011106653293747278 0.046197108061634289 0.00077450442624100275 0.014965835297457743 0.059024222946560859 -0.01063910225487078 0.068157796888774463
leaf_weight=205.31474117934704 5.5143821835517866 5.9122333824634543 9.2614371180534416 23.647911161184314 6.8836620151996604 41.978478148579597 5.8117717206478101 6.6899262964725494 6.3448064625263214 6.8415500521659842
leaf_count=824 21 20 31 92 24 165 21 23 25 23
internal_value=0 -0.213497 1.49768 -0.266249 0.455105 -0.355332 2.08344 1.55543 0.0843468 2.49303
internal_weight=0 283.737 40.4639 277.825 30.5316 247.293 28.6047 12.5017 11.8592 16.103
internal_count=1269 1125 144 1105 116 989 98 44 46 54
shrinkage=0.0247862


Tree=29
num_leaves=12
num_cat=0
split_feature=13 4 13 1 7 15 4 13 7 12 3
split_gain=85.8516 26.642 16.9682 13.4339 11.3769 8.73949 11.6866 4.97379 8.84796 4.38744 0.875629
threshold=40.430722019853498 1.7271841168403628 5.8641425642494189 10.93465566635132 9.942477226257326 0.44905319273271299 3.577184915542603 12.050792638973563 3.826868057250977 39.872105235663845 3.5038444995880131
decision_type=2 2 2 2 2 2 2 2 2 2 2
left_child=1 7 9 5 -4 -2 -7 10 -9 -3 -1
right_child=3 2 4 -5 -6 6 -8 8 -10 -11 -12
leaf_value=-0.013657883336822572 0.070004582087673753 -0.0082615118335863953 0.008704231604513047 0.0026062169849767453 0.037524339475285592 0.019480764741734945 0.055420829290791201 -0.011443072206761964 0.011558656228141085 0.015172581197372165 -0.0090395245870159135
leaf_weight=101.0687204003334 6.1410348415374783 29.32156777381897 21.561243280768394 5.876139670610427 13.818976536393164 11.704670265316965 10.613020122051237 27.664857342839241 16.33992300927639 5.8920747339725486 33.889911115169525
leaf_count=465 23 133 94 26 56 49 41 128 73 26 155
internal_value=0 -0.203849 0.316339 1.4827 0.805479 1.76694 1.47574 -0.409073 -0.116959 -0.17496 -0.504279
internal_weight=0 249.557 70.5939 34.3349 35.3802 28.4587 22.3177 178.963 44.0048 35.2136 134.959
internal_count=1269 1130 309 139 150 113 90 821 201 159 620
shrinkage=0.0247862


Tree=30
num_leaves=12
num_cat=0
split_feature=5 2 14 14 1 5 14 15 12 2 14
split_gain=173.98 32.4931 18.227 14.9018 13.7154 10.7548 8.83309 4.94842 4.93452 4.72743 2.52271
threshold=43.651910781860359 37.654209136962898 2.1258630055401073 25.926425843527369 0.43309192359447485 5.4092400074005136 21.034379655201793 11.70160224870189 15.419712685941631 1.2461138963699343 45.651140395251183
decision_type=2 2 2 2 2 2 2 2 2 2 2
left_child=1 5 -2 7 8 10 -7 -3 -4 -6 -1
right_child=2 3 4 -5 9 6 -8 -9 -10 -11 -12
leaf_value=-0.013481132743804457 0.0029720165507613186 -0.002792032455386602 0.061550486976647022 0.043886935588542099 0.012274011829633493 -0.0054359012098562417 0.019787436673349524 0.02221627279549513 0.040158238576405846 0.039858978893773551 -0.0012607579859453847
leaf_weight=199.74589505791664 6.8856384158134452 14.387980729341512 22.852555006742477 8.8013166785240156 7.2513548433780661 42.396920412778854 10.67750760912895 7.3354562222957602 9.3936711549758893 8.1010268330574018 10.972729951143263
leaf_count=750 24 52 72 29 25 156 37 26 31 27 40
internal_value=0 -0.303874 1.64147 0.67283 1.86146 -0.416913 -0.0144808 0.227805 2.23201 1.08281 -0.51825
internal_weight=0 294.318 54.4842 30.5248 47.5986 263.793 53.0744 21.7234 32.2462 15.3524 210.719
internal_count=1269 1090 179 107 155 983 193 78 103 52 790
shrinkage=0.0247862


Tree=31
num_leaves=8
num_cat=0
split_feature=15 6 15 0 6 11 5
split_gain=107.361 40.4671 23.9086 15.7848 10.4789 2.49572 1.41143
threshold=52.831992133806089 92.413116455078139 14.725308810577323 0.35544511675834661 1.2647419571876528 5.5886706474836956 0.63403844833374035
decision_type=2 2 2 2 2 2 2
left_child=1 2 5 -4 -2 -1 -6
right_child=4 -3 3 -5 6 -7 -8
leaf_value=-0.0068772230521972144 0.031136910432263704 0.050417218599236646 -0.012122281262935675 0.019586826334235398 0.083076954431469827 -0.012701952589447219 0.06544872581832327
leaf_weight=80.937887743115425 4.9140761643648174 8.0416117608547193 13.863978281617163 31.662659093737602 5.8440768420696241 102.74293951690197 5.5828046053647995
leaf_count=414 22 35 71 151 24 529 23
internal_value=0 -0.170754 -0.248134 0.400532 2.47926 -0.40894 3.00475
internal_weight=0 237.249 229.207 45.5266 16.341 183.681 11.4269
internal_count=1269 1200 1165 222 69 943 47
shrinkage=0.0247862


Tree=32
num_leaves=13
num_cat=0
split_feature=0 8 2 15 8 6 1 7 6 7 4 9
split_gain=62.6527 34.8125 14.109 13.3686 9.74009 9.4749 6.21633 3.19659 0.70793 1.6338 0.454107 0.397097
threshold=57.531780242919929 4.2893932882787071 5.2228143215179452 6.4039374414292931 13.114750445860393 3.2117090225219731 6.2198650836944589 5.3908703327178964 7.5696680545806894 41.201520919799812 0.10369411483407022 0.63500026646626728
decision_type=2 2 2 2 2 2 2 2 2 2 2 2
left_child=4 7 3 -3 8 10 -7 11 -1 -10 -6 -2
right_child=1 2 -4 -5 5 6 -8 -9 9 -11 -12 -13
leaf_value=-0.012921062609915971 0.0014649012978852523 0.11413792505459133 0.019094092877104629 0.046737875810599586 0.0024502651889587663 0.055266378988430974 -0 0.030713641629068651 -0.0097467885364887191 0.015614395731977973 -0.012900882742509581 -0.012968412346334396
leaf_weight=59.317228600382805 1.7061480134725595 4.8605394810438138 2.3057556748390198 2.8922019600868225 1.6023389548063258 3.6238903999328613 1.9070182740688322 1.6989093497395513 15.573693677783014 1.7305940836668003 4.3883299753069878 3.6261248663067818
leaf_count=754 20 39 23 26 20 36 21 20 193 21 55 41
internal_value=0 1.75178 2.94509 3.59117 -0.340327 0.516697 1.46067 0.0439185 -0.469268 -0.29059 -0.353918 -0.335867
internal_weight=0 17.0897 10.0585 7.75274 88.1431 11.5216 5.53091 7.03118 76.6215 17.3043 5.99067 5.33227
internal_count=1269 169 88 65 1100 132 57 81 968 214 75 61
shrinkage=0.0247862


Tree=33
num_leaves=14
num_cat=0
split_feature=9 1 15 9 1 5 5 12 0 10 1 9 14
split_gain=116.022 53.5036 17.9007 15.2141 22.2456 14.9514 8.96779 4.57988 4.34491 4.19352 2.58513 6.4175 1.36534
threshold=18.768663787879806 2.1335197687149052 2.6180671209526296 5.5224131263336504 1.1600657701492312 3.1881418228149419 0.58385661244392406 1.470047877928603 13.783183574676515 2.4394645714275023 13.139066696166994 1.8910341160639923 3.481518768490274
decision_type=2 2 2 2 2 2 2 2 2 2 2 2 2
left_child=3 8 7 10 -5 -6 -4 -3 12 -10 -1 -12 -2
right_child=1 2 6 4 5 -7 -8 -9 9 -11 11 -13 -14
leaf_value=-0.014082644842867514 0.0025213324349749574 0.066751032255162296 0.051656360400358238 -0.014078203400272814 0.032194525775727033 -0.0063450955044387046 0.011325759774521514 0.04329866063205056 -0.0040635179985196931 0.027836324574018176 -0.012488391017971745 0.010248554966966165 -0.01411476417978846
leaf_weight=124.38876883685589 4.4379369467496899 17.604055464267734 5.229775831103324 24.288430333137512 17.520960822701458 9.5496445447206479 9.6477856338024122 7.2698756009340277 4.8536436855792982 5.2777500301599503 31.094382330775261 10.098426043987272 9.4736110717058164
leaf_count=589 20 63 20 115 71 44 41 28 21 22 147 44 44
internal_value=0 1.18538 1.89761 -0.348724 0.126691 0.750176 1.02928 2.41675 0.00759596 0.505956 -0.496219 -0.27883 -0.354953
internal_weight=0 63.7944 39.7515 216.941 51.359 27.0706 14.8776 24.8739 24.0429 10.1314 165.582 41.1928 13.9115
internal_count=1269 259 152 1010 230 115 61 91 107 43 780 191 64
shrinkage=0.0247862


Tree=34
num_leaves=14
num_cat=0
split_feature=1 10 1 9 0 0 8 10 2 1 7 2 4
split_gain=202.718 31.3635 22.8188 11.2014 9.26355 9.21399 9.24948 8.09518 2.62669 0.868133 2.30734 0.755911 0.271724
threshold=72.882961273193374 4.1388944489001736 13.139066696166994 2.367245376429493 0.84496620297431957 0.082814633846282973 10.073338022219991 23.866993859663179 0.72403955459594738 4.3359587192535409 1.8633623123168948 0.020998585969209674 0.016901089809834961
decision_type=2 2 2 2 2 2 2 2 2 2 2 2 2
left_child=2 4 9 7 -2 12 -7 -4 -5 11 -11 -1 -3
right_child=1 5 3 8 -6 6 -8 -9 -10 10 -12 -13 -14
leaf_value=-0.0074939554808623066 0.029431785658916465 0.062150328436446106 0.009223983233258513 -0.014220366126428307 -0.010851752059080172 0.049182332190270656 0.01311441977259542 0.048302206026824342 0.0043824123389944675 0.006833412807930055 -0.012800631623913624 -0.014225578961643693 0.069055677106870231
leaf_weight=10.985876381397246 6.7459311187267286 6.7374529838562003 7.3230696320533735 7.6677547842264202 7.2983000725507736 24.360413908958439 5.3357060551643363 5.8802332580089569 11.885022163391112 4.67742392420769 17.064037442207336 173.26216715574265 9.1276960074901563
leaf_count=48 26 23 30 34 32 87 20 21 50 20 75 772 31
internal_value=0 1.64945 -0.412126 0.363048 0.342457 2.05221 1.72299 1.07472 -0.117238 -0.535419 -0.345772 -0.557768 2.66809
internal_weight=0 59.6055 238.746 32.7561 14.0442 45.5613 29.6961 13.2033 19.5528 205.99 21.7415 184.248 15.8651
internal_count=1269 219 1050 135 58 161 107 51 84 915 95 820 54
shrinkage=0.0247862


Tree=35
num_leaves=15
num_cat=0
split_feature=2 11 5 2 1 2 11 4 11 7 5 2 13 14
split_gain=72.9479 28.4611 11.8764 8.83755 16.0971 6.72828 5.05455 4.28033 2.40375 2.97497 2.137 2.96578 0.518775 0.104566
threshold=5.4565470218658456 3.9869295589458855 10.542988300323488 1.1035988330841067 0.14325892180204394 9.6660437583923358 19.572028529391634 1.9218653440475466 5.4574539101353787 80.013088226318374 3.6313412189483647 35.432746887207038 48.003246333524821 21.034379655201793
decision_type=2 2 2 2 2 2 2 2 2 2 2 2 2 2
left_child=3 10 5 8 -5 -3 -6 -4 12 -10 11 -2 -1 -12
right_child=1 2 7 4 6 -7 -8 -9 9 -11 13 -13 -14 -15
leaf_value=-0.01424119871504287 -0.0052905597839859675 0.020028782048814496 -0.0052202419765013542 0.041951432498760412 -0.0068933398389656149 0.044366845553619298 0.009805302487569896 0.022114333133952526 -0.0088139268160218748 0.0088866066215815744 -0.014242816935788778 0.01855760590365305 -0.0070623673144643703 -0.0088128391473035004
leaf_weight=68.452448859810829 8.2267535924911517 9.2716722488403303 5.3814817965030661 5.2500020265579215 50.134940549731255 28.501340344548225 14.31116011738777 10.133233502507208 72.608975172042847 6.3355682194232932 4.571680083870886 5.2418645471334449 6.8848421722650519 4.56709985435009
leaf_count=303 35 35 22 20 216 106 59 40 317 25 20 21 30 20
internal_value=0 0.847602 1.24648 -0.286796 0.00866754 1.54911 -0.128421 0.509327 -0.420306 -0.298218 -0.0923452 0.160609 -0.548166 -0.465744
internal_weight=0 75.8951 53.2877 223.978 69.6961 37.773 64.4461 15.5147 154.282 78.9445 22.6074 13.4686 75.3373 9.13878
internal_count=1269 299 203 970 295 141 275 62 675 342 96 56 333 40
shrinkage=0.0247862


Tree=36
num_leaves=11
num_cat=0
split_feature=3 12 12 6 3 12 12 5 1 9
split_gain=98.4185 34.9023 30.5113 17.4077 16.4395 7.54875 5.51995 5.95353 3.51842 0.278764
threshold=19.404797554016117 77.37794713471682 9.1506204984761492 51.193193435668952 2.8967636823654179 15.280234144698289 39.872105235663845 11.539856910705568 0.8626239299774171 0.015440880909003219
decision_type=2 2 2 2 2 2 2 2 2 2
left_child=1 3 8 5 -5 -1 7 -4 -2 -8
right_child=2 -3 6 4 -6 -7 9 -9 -10 -11
leaf_value=-0.011337894553935966 0.016411180010350645 0.053134080670747458 0.051346745517949703 0.0010904794024603481 0.044060902557179579 -0.0014584818650958658 0.064132717419888699 0.020350112724294322 -0.010608566330584955 0.056722666277914092
leaf_weight=180.9970900118351 5.5702017247676832 6.1552569568157187 9.6780357360839862 23.672843202948574 7.1160661578178397 64.473452985286713 7.1688836216926557 6.3051609098911277 6.3166921883821487 6.5317821204662323
leaf_count=732 21 20 32 92 24 257 23 22 25 21
internal_value=0 -0.211355 1.43667 -0.263847 0.44486 -0.352761 1.97882 1.5786 0.0823648 2.44531
internal_weight=0 282.415 41.5708 276.259 30.7889 245.471 29.6839 15.9832 11.8869 13.7007
internal_count=1269 1125 144 1105 116 989 98 54 46 44
shrinkage=0.0247862


Tree=37
num_leaves=13
num_cat=0
split_feature=13 4 13 1 7 13 3 13 7 12 9 3
split_gain=81.4178 26.056 16.1895 12.2624 10.5403 7.81706 6.53207 4.94094 8.60107 4.25605 3.36014 0.877567
threshold=40.430722019853498 1.7271841168403628 5.8641425642494189 10.93465566635132 9.942477226257326 69.958744671479067 0.45311227440834051 12.050792638973563 3.826868057250977 39.872105235663845 0.11338102757385377 3.5038444995880131
decision_type=2 2 2 2 2 2 2 2 2 2 2 2
left_child=1 7 9 5 -4 6 -2 11 -9 -3 -7 -1
right_child=3 2 4 -5 -6 10 -8 8 -10 -11 -12 -13
leaf_value=-0.013624545978576368 0.052387619989331065 -0.0082045441943569154 0.0085049513798514994 0.0025512195954725488 0.035962321591750619 0.068092255874673407 0.019337733271566387 -0.011390337107450152 0.011257171822583102 0.01476745274997072 0.042665554363636754 -0.0089803616420774598
leaf_weight=99.859460979700089 5.5395795553922715 29.119964063167572 21.730132475495338 5.8928021043539038 14.222315922379492 6.8720979392528516 10.975502282381056 27.372955486178398 16.5157121270895 5.9675550311803809 6.0466765612363815 33.621564492583275
leaf_count=465 21 133 94 26 56 25 44 128 73 26 23 155
internal_value=0 -0.201834 0.309872 1.42065 0.781504 1.68428 1.22777 -0.406812 -0.11558 -0.173229 2.26746 -0.502529
internal_weight=0 248.41 71.04 35.3267 35.9524 29.4339 16.5151 177.37 43.8887 35.0875 12.9188 133.481
internal_count=1269 1130 309 139 150 113 65 821 201 159 48 620
shrinkage=0.0247862


Tree=38
num_leaves=12
num_cat=0
split_feature=5 2 14 1 14 12 5 14 15 14 2
split_gain=164.898 31.6558 16.7767 17.3694 13.8191 12.0395 10.638 8.69598 4.75222 2.49421 0.256674
threshold=43.651910781860359 37.654209136962898 33.799049768730619 0.95417419075965892 25.926425843527369 33.602378946281299 5.4092400074005136 5.6512923357123919 11.70160224870189 45.651140395251183 1.5245242714881899
decision_type=2 2 2 2 2 2 2 2 2 2 2
left_child=1 6 3 5 8 -2 9 -8 -3 -1 -4
right_child=2 4 10 -5 -6 -7 7 -9 -10 -11 -12
leaf_value=-0.013430140155041003 0.048519902780887587 -0.0027595664584894645 0.059092301820353237 0.00038198806393775748 0.041976462457901986 0.0089390084394520338 -0.012469636477131309 0.0079537167965964828 0.02164320951400377 -0.0012824457324052433 0.052823334517263842
leaf_weight=197.53078496456146 20.13253423571587 14.357785224914556 13.588274240493776 9.6790329217910749 9.0724980235099775 6.1791634559631339 21.601888358592987 31.461415320634842 7.4390797019004813 10.986278295516966 6.5190437734127036
leaf_count=750 63 52 41 34 29 21 80 113 26 40 20
internal_value=0 -0.301277 1.57044 1.16138 0.656377 1.58272 -0.414312 -0.0144439 0.224427 -0.516044 2.30235
internal_weight=0 292.45 56.098 35.9907 30.8694 26.3117 261.58 53.0633 21.7969 208.517 20.1073
internal_count=1269 1090 179 118 107 84 983 193 78 790 61
shrinkage=0.0247862


Tree=39
num_leaves=8
num_cat=0
split_feature=15 6 15 0 10 11 10
split_gain=99.6004 37.9998 23.3892 15.2662 9.0059 2.73332 2.13581
threshold=52.831992133806089 92.413116455078139 15.514245580405147 0.35544511675834661 5.9533433211374609 5.5886706474836956 0.92220540026447939
decision_type=2 2 2 2 2 2 2
left_child=1 2 5 -4 6 -1 -2
right_child=4 -3 3 -5 -6 -7 -8
leaf_value=-0.0065868584894390805 0.058566976696816 0.047613790889892108 -0.012031961193308892 0.019711992358762438 0.028177080558106655 -0.012678271450236825 0.079202183757957845
leaf_weight=81.236977696418762 6.4329507797956484 8.3902352899312955 13.337448969483374 30.772974833846092 4.659770429134368 102.54888391494751 6.0776257365942001
leaf_count=418 25 35 69 144 20 534 24
internal_value=0 -0.168975 -0.245943 0.407915 2.32547 -0.402905 2.76777
internal_weight=0 236.287 227.896 44.1104 17.1703 183.786 12.5106
internal_count=1269 1200 1165 213 69 952 49
shrinkage=0.0247862


Tree=40
num_leaves=13
num_cat=0
split_feature=0 8 2 15 8 6 4 7 6 11 13 9
split_gain=58.8577 30.4967 11.5939 10.3776 9.5531 8.87873 5.62938 3.04176 0.71055 1.63489 0.457587 0.392577
threshold=57.531780242919929 4.2893932882787071 5.2228143215179452 6.4039374414292931 13.114750445860393 3.2117090225219731 1.5687800049781802 5.3908703327178964 7.5696680545806894 33.855710779236837 1.3612065711150085 0.63500026646626728
decision_type=2 2 2 2 2 2 2 2 2 2 2 2
left_child=4 7 3 -3 8 10 -7 11 -1 -10 -6 -2
right_child=1 2 -4 -5 5 6 -8 -9 9 -11 -12 -13
leaf_value=-0.012913346735671861 0.0013760984555387919 0.10154243427128386 0.018515266765115397 0.044074353542885837 0.0025807636546459423 0.0066558403311645416 0.056261558822338048 0.029338423741393477 -0.0097202721625501767 0.015686780353598079 -0.012895251701845 -0.012962910657560703
leaf_weight=58.516830630600452 1.7162076756358171 5.3879452198743802 2.3469324409961692 3.0244439393281937 1.5893197804689387 2.5107847824692726 3.2121709808707237 1.7532656341791151 15.46447464823723 1.7263205721974362 4.3477599620819092 3.5989899784326553
leaf_count=754 20 39 23 26 20 27 30 20 193 21 55 41
internal_value=0 1.65522 2.71533 3.26381 -0.338556 0.503809 1.3928 0.0407896 -0.468364 -0.288911 -0.352197 -0.335169
internal_weight=0 17.8278 10.7593 8.41239 87.3677 11.66 5.72296 7.06846 75.7076 17.1908 5.93708 5.3152
internal_count=1269 169 88 65 1100 132 57 81 968 214 75 61
shrinkage=0.0247862


Tree=41
num_leaves=14
num_cat=0
split_feature=9 1 15 9 1 5 5 0 10 12 1 9 8
split_gain=110.862 49.1297 15.8312 15.0193 21.534 14.0749 8.20174 4.20507 3.96577 3.9398 2.59138 6.29124 1.35658
threshold=18.768663787879806 2.1335197687149052 2.6180671209526296 5.5224131263336504 1.1600657701492312 3.1881418228149419 0.58385661244392406 13.783183574676515 2.4394645714275023 1.470047877928603 13.139066696166994 1.8910341160639923 3.2992081812630869
decision_type=2 2 2 2 2 2 2 2 2 2 2 2 2
left_child=3 7 9 10 -5 -6 -4 12 -9 -3 -1 -12 -2
right_child=1 2 6 4 5 -7 -8 8 -10 -11 11 -13 -14
leaf_value=-0.014055958243956446 0.0025086250242179258 0.062642412011096951 0.049021761159596097 -0.014052306484940944 0.031001447221828037 -0.0062941838343702587 0.011003376546419096 -0.0040520169577443503 0.026806727844726846 0.041292385789008026 -0.012442700556893452 0.010036551350700033 -0.014094606434941792
leaf_weight=122.8661063760519 4.440490975975993 18.489826172590259 5.434757024049758 24.001074388623238 17.95161992311478 9.5014425814151746 9.7584267258644086 4.8490612953901273 5.4008879959583282 7.5155619531869879 30.722312733530998 10.177799224853514 9.3888670802116376
leaf_count=589 20 63 20 115 71 44 41 21 22 28 147 44 44
internal_value=0 1.14137 1.80461 -0.346388 0.124814 0.729785 0.992967 0.00637271 0.492001 2.27859 -0.494469 -0.276184 -0.353167
internal_weight=0 65.2779 41.1986 215.22 51.4541 27.4531 15.1932 24.0793 10.2499 26.0054 163.766 40.9001 13.8294
internal_count=1269 259 152 1010 230 115 61 107 43 91 780 191 64
shrinkage=0.0247862


Tree=42
num_leaves=14
num_cat=0
split_feature=1 10 1 9 0 1 10 6 2 9 1 10 2
split_gain=192.629 28.2863 22.4526 10.6207 8.82623 8.33118 7.39193 6.08143 2.5874 1.91507 0.86973 2.28943 0.758927
threshold=72.882961273193374 4.1388944489001736 13.139066696166994 2.367245376429493 0.84496620297431957 97.963794708251967 23.866993859663179 1.7777842283248904 0.72403955459594738 1.3530714268913175 4.3359587192535409 17.540686852544461 0.020998585969209674
decision_type=2 2 2 2 2 2 2 2 2 2 2 2 2
left_child=2 4 10 6 -2 7 -4 -3 -5 -7 12 -12 -1
right_child=1 5 3 8 -6 9 -8 -9 -10 -11 11 -13 -14
leaf_value=-0.0074259493845773763 0.028381568343574713 0.027299135757500197 0.0090280481643480164 -0.014193726581003032 -0.010798525508195416 0.06374300781692957 0.045945142839712211 0.055576779076559099 0.0043200820123011179 0.050176404200171665 -0.012763737808705374 0.0068049694395272411 -0.014196423867668588
leaf_weight=10.90608090162277 6.8986162692308408 14.106288194656374 7.3772857934236509 7.5850864797830608 7.2328071147203445 14.407376378774645 6.0939292311668396 7.01429659128189 11.919288635253904 11.767420589923857 16.902557209134105 4.682955026626586 171.17286691069603
leaf_count=48 26 51 30 34 32 46 21 24 50 40 75 20 772
internal_value=0 1.57752 -0.40992 0.35549 0.335617 1.94848 1.03841 1.48053 -0.115905 2.32585 -0.533876 -0.34342 -0.556424
internal_weight=0 61.4268 236.64 32.9756 14.1314 47.2954 13.4712 21.1206 19.5044 26.1748 203.664 21.5855 182.079
internal_count=1269 219 1050 135 58 161 51 75 84 86 915 95 820
shrinkage=0.0247862


Tree=43
num_leaves=15
num_cat=0
split_feature=2 11 5 2 1 5 11 4 11 7 5 2 13 4
split_gain=70.1978 26.6992 10.8218 8.70735 15.2265 6.33913 4.90982 4.0734 2.39723 2.87502 2.09167 2.85869 0.520972 0.10591
threshold=5.4565470218658456 3.9869295589458855 10.542988300323488 1.1035988330841067 0.14325892180204394 0.19037607312202456 19.572028529391634 1.9218653440475466 5.4574539101353787 80.013088226318374 3.6313412189483647 35.432746887207038 48.003246333524821 3.0389515161514287
decision_type=2 2 2 2 2 2 2 2 2 2 2 2 2 2
left_child=3 10 5 8 -5 -3 -6 -4 12 -10 11 -2 -1 -12
right_child=1 2 7 4 6 -7 -8 -9 9 -11 13 -13 -14 -15
leaf_value=-0.014210551273281347 -0.0052625357253386837 0.058711261824159665 -0.0051562457156444311 0.040130280435135592 -0.0068385595905208737 0.032202631935523883 0.0095749986044016151 0.021481863714038051 -0.0087506076197974691 0.0085556450753511756 -0.0087321377602526569 0.018064449410810309 -0.0069875935344047273 -0.01422058881568208
leaf_weight=67.594643786549568 8.2067374140024203 6.7168120443820944 5.353033795952796 5.4139284193515769 49.860306337475777 32.157613545656204 14.433441057801245 10.296494543552397 72.034304678440094 6.415293112397193 4.5208326131105405 5.314323589205741 6.83233518898487 4.5321010500192642
leaf_count=303 35 23 22 20 216 118 59 40 317 25 20 21 30 20
internal_value=0 0.822753 1.20141 -0.284441 0.00838643 1.48415 -0.127157 0.498724 -0.417999 -0.295877 -0.091594 0.15718 -0.546648 -0.463756
internal_weight=0 77.0979 54.524 222.584 69.7077 38.8744 64.2937 15.6495 152.877 78.4496 22.574 13.5211 74.427 9.05293
internal_count=1269 299 203 970 295 141 275 62 675 342 96 56 333 40
shrinkage=0.0247862


Tree=44
num_leaves=10
num_cat=0
split_feature=3 12 12 6 3 0 2 0 14
split_gain=93.5119 32.9414 27.9383 16.9756 15.3714 7.48367 7.43736 10.087 0.994195
threshold=19.404797554016117 77.37794713471682 6.7114528890856766 51.193193435668952 2.8967636823654179 57.531780242919929 0.50609758496284496 3.4995191097259526 15.063913297018216
decision_type=2 2 2 2 2 2 2 2 2
left_child=1 3 -2 5 -5 -1 8 -8 -4
right_child=2 -3 6 4 -6 -7 7 -9 -10
leaf_value=-0.010655353676784973 -0.005900424799137334 0.050451731875910177 0.059288663229405007 0.0010695505289087766 0.042128463803108959 0.00086835118019991712 0.011151654404653138 0.050766951374252516 0.046997452548089111
leaf_weight=201.88921774923801 8.5305691361427289 6.3885872066020957 11.92229747772217 23.698678687214855 7.3385726511478415 41.762178778648376 7.5930434167385092 8.2509907037019712 6.3460501730442038
leaf_count=824 33 20 37 92 24 165 27 27 20
internal_value=0 -0.209216 1.38 -0.261442 0.435002 -0.35018 1.78479 1.28259 2.22004
internal_weight=0 281.077 42.643 274.689 31.0373 243.651 34.1124 15.844 18.2683
internal_count=1269 1125 144 1105 116 989 111 54 57
shrinkage=0.0247862


Tree=45
num_leaves=12
num_cat=0
split_feature=13 4 13 1 7 15 4 13 7 7 3
split_gain=77.3124 25.5146 15.477 11.2223 9.79294 7.11021 9.80738 4.90578 8.35879 4.21877 0.879007
threshold=40.430722019853498 1.7271841168403628 5.8641425642494189 10.93465566635132 9.942477226257326 0.44905319273271299 3.577184915542603 12.050792638973563 3.826868057250977 30.11170864105225 3.5038444995880131
decision_type=2 2 2 2 2 2 2 2 2 2 2
left_child=1 7 9 5 -4 -2 -7 10 -9 -3 -1
right_child=3 2 4 -5 -6 6 -8 8 -10 -11 -12
leaf_value=-0.013591774296365227 0.062395723159386317 -0.0076156616898170118 0.0083296248970081577 0.0025039741710327626 0.034548879543226135 0.017980525860365072 0.049930737651980361 -0.011338790386358859 0.010956962736132543 0.017779769114639979 -0.0089234653240625531
leaf_weight=98.665034011006355 6.7170415222644833 30.320574417710304 21.880393207073212 5.9071244448423377 14.606214404106138 12.200911566615106 11.466729462146757 27.089714333415031 16.694055706262589 4.6304519921541205 33.365450829267502
leaf_count=465 23 139 94 26 56 49 41 128 73 20 155
internal_value=0 -0.19982 0.304087 1.36319 0.759672 1.60838 1.35018 -0.4046 -0.114365 -0.171358 -0.500806
internal_weight=0 247.252 71.4376 36.2918 36.4866 30.3847 23.6676 175.814 43.7838 34.951 132.03
internal_count=1269 1130 309 139 150 113 90 821 201 159 620
shrinkage=0.0247862


Tree=46
num_leaves=12
num_cat=0
split_feature=5 2 14 14 1 5 14 12 2 12 14
split_gain=156.652 30.8908 15.7169 12.8554 11.147 10.5233 8.48364 4.68988 4.13125 3.89606 2.46489
threshold=43.651910781860359 37.654209136962898 2.1258630055401073 25.926425843527369 0.43309192359447485 5.4092400074005136 5.6512923357123919 5.548821105515116 1.2461138963699343 15.419712685941631 45.651140395251183
decision_type=2 2 2 2 2 2 2 2 2 2 2
left_child=1 5 -2 7 9 10 -7 -3 -6 -4 -1
right_child=2 3 4 -5 8 6 -8 -9 -10 -11 -12
leaf_value=-0.013380357287141362 0.002546951186316196 -0.007213204097464565 0.055338163732281814 0.040266307973198835 0.011474248018517177 -0.01241573718742189 0.0077879389267396237 0.015866898474317413 0.036778054625189592 0.036901424114020809 -0.0013093040483305081
leaf_weight=195.35947361588478 7.0163542330265036 9.810548156499868 24.704603493213654 9.3276899456977826 7.4361084699630728 21.399062305688858 31.657473742961884 12.041428446769713 8.537986755371092 9.9271534681320173 11.002988070249556
leaf_count=750 24 36 72 29 25 80 113 42 27 31 40
internal_value=0 -0.298721 1.50618 0.641654 1.70065 -0.411766 -0.0144504 0.221849 1.00892 2.01956 -0.513891
internal_weight=0 290.599 57.6222 31.1797 50.6059 259.419 53.0565 21.852 15.9741 34.6318 206.362
internal_count=1269 1090 179 107 155 983 193 78 52 103 790
shrinkage=0.0247862


Tree=47
num_leaves=11
num_cat=0
split_feature=15 15 6 3 6 0 7 7 11 4
split_gain=93.5547 40.4308 20.6419 13.3876 8.30408 6.42662 2.75103 2.48188 4.08194 1.54931
threshold=14.725308810577323 69.962057242086544 1.6068416833877566 1.6985136866569521 83.106914520263686 3.4995191097259526 2.2295206785202031 4.4322547912597665 5.7251692706495776 74.65423965454103
decision_type=2 2 2 2 2 2 2 2 2 2
left_child=4 2 5 -4 7 -2 -3 9 -9 -1
right_child=1 6 3 -5 -6 -7 -8 8 -10 -11
leaf_value=-0.012961155850652249 -0.0067567252797201853 0.05271736186571168 0.04966330802205178 0.014987131949218708 0.020111770162004071 0.020520858609083394 0.075411833675968112 0.00066909414314062833 -0.011817524733819746 0.001289570022576982
leaf_weight=108.79753763973713 20.609442904591564 6.9772375822067243 12.394666641950609 15.297360360622404 5.7522966861724845 7.146022140979766 6.3152975142002106 28.897426262497902 36.21835657954216 4.8799005001783362
leaf_count=571 103 26 54 70 25 33 23 149 190 25
internal_value=0 0.995826 0.620192 1.23104 -0.370901 0.0105455 2.5623 -0.40897 -0.253128 -0.49819
internal_weight=0 68.74 55.4475 27.692 184.546 27.7555 13.2925 178.793 65.1158 113.677
internal_count=1269 309 260 124 960 136 49 935 339 596
shrinkage=0.0247862


Tree=48
num_leaves=13
num_cat=0
split_feature=0 8 2 8 1 6 1 7 6 6 5 9
split_gain=55.5605 27.0128 9.67108 9.37707 9.35351 8.34968 5.28505 2.90291 0.713707 1.61378 0.460666 0.389036
threshold=57.531780242919929 4.2893932882787071 5.2228143215179452 13.114750445860393 2.1335197687149052 3.2117090225219731 6.2198650836944589 5.3908703327178964 7.5696680545806894 10.165580749511721 0.21423435211181643 0.63500026646626728
decision_type=2 2 2 2 2 2 2 2 2 2 2 2
left_child=3 7 4 8 -3 10 -7 11 -1 -10 -5 -2
right_child=1 2 -4 5 -6 6 -8 -9 9 -11 -12 -13
leaf_value=-0.012906000621648431 0.0013176970190551085 0.093076442619323616 0.01804047267527583 0.0027007454141327234 0.040369969640731036 0.049493843726097018 -0.00027496794032488148 0.028119405656501627 0.015510801793346228 -0.0096854071965757522 -0.01288978443230898 -0.012956848251017398
leaf_weight=57.750904910266399 1.7228462249040628 5.8102363571524602 2.3817803263664237 1.5775461494922618 3.2296031415462494 3.9533830359578133 1.9530443400144577 1.804385147988796 1.7349650859832788 15.33689224720001 4.3073827773332596 3.5689462497830391
leaf_count=754 20 39 23 20 26 36 21 20 20 194 55 41
internal_value=0 1.57154 2.52356 -0.33682 2.99608 0.491801 1.33196 0.0384686 -0.467476 -0.28713 -0.350498 -0.334215
internal_weight=0 18.5178 11.4216 86.6141 9.03984 11.7914 5.90643 7.09618 74.8228 17.0719 5.88493 5.29179
internal_count=1269 169 88 1100 65 132 57 81 968 214 75 61
shrinkage=0.0247862


Tree=49
num_leaves=14
num_cat=0
split_feature=9 1 9 1 15 5 5 0 10 10 1 9 14
split_gain=106.164 45.2682 14.8373 20.8701 14.0818 13.2783 7.52804 4.08004 3.75863 3.5792 2.59402 6.16289 1.35339
threshold=18.768663787879806 2.1335197687149052 5.5224131263336504 1.1600657701492312 2.6180671209526296 3.1881418228149419 0.58385661244392406 13.783183574676515 2.4394645714275023 1.0345362415134505 13.139066696166994 1.8910341160639923 3.481518768490274
decision_type=2 2 2 2 2 2 2 2 2 2 2 2 2
left_child=2 7 10 -4 9 -5 -6 12 -9 -3 -1 -12 -2
right_child=1 4 3 5 6 -7 -8 8 -10 -11 11 -13 -14
leaf_value=-0.014029982012747279 0.0025407663960789191 0.062127701905076015 -0.014026641468385743 0.029908490368261022 0.046669009410399795 -0.0062396595506700901 0.010719738283566167 -0.0040221610863127952 0.025890924414450744 0.04403418154814976 -0.012400095426941571 0.0098101040642377749 -0.014076187760866636
leaf_weight=121.36803233623505 4.4328761547803905 14.085152655839922 23.713645815849304 18.363288968801502 5.6306250095367423 9.450176462531088 9.8575315028429014 4.8375755846500379 5.5148430168628693 13.001909717917441 30.376562297344208 10.263751983642576 9.3064672350883466
leaf_count=589 20 46 115 71 20 44 41 21 22 45 147 44 44
internal_value=0 1.10144 -0.34411 0.12321 1.72131 0.710944 0.960117 0.00578564 0.480098 2.15635 -0.492776 -0.273845 -0.351205
internal_weight=0 66.667 213.535 51.5271 42.5752 27.8135 15.4882 24.0918 10.3524 27.0871 162.008 40.6403 13.7393
internal_count=1269 259 1010 230 152 115 61 107 43 91 780 191 64
shrinkage=0.0247862


Tree=50
num_leaves=14
num_cat=0
split_feature=1 10 1 9 0 0 8 10 2 1 7 2 15
split_gain=183.244 25.6127 22.082 10.0494 8.41674 7.45072 7.94925 6.78129 2.54993 0.872499 2.29533 0.761056 0.242728
threshold=72.882961273193374 4.1388944489001736 13.139066696166994 2.367245376429493 0.59276509284973156 0.082814633846282973 10.073338022219991 23.866993859663179 0.72403955459594738 4.3359587192535409 1.8633623123168948 0.020998585969209674 5.193603239409021
decision_type=2 2 2 2 2 2 2 2 2 2 2 2 2
left_child=2 4 9 7 -2 12 -7 -4 -5 11 -11 -1 -3
right_child=1 5 3 8 -6 6 -8 -9 -10 10 -12 -13 -14
leaf_value=-0.0073639679749197447 0.030382597714429201 0.056081685052957547 0.0087987514807249707 -0.014167094177085171 -0.0081985842984362758 0.044524388215637534 0.011848178456964838 0.04376506656004446 0.004265690527243746 0.0069200724386054204 -0.012730498480732284 -0.014167479597115798 0.06226825875069468
leaf_weight=10.833990871906279 6.0281246900558463 8.9978164136409777 7.4416510909795743 7.5015090256929424 8.190115883946417 26.138262003660206 5.5584217905998221 6.3043164312839508 11.949187681078909 4.6597766578197506 16.757220178842545 169.07495668530464 8.2867123484611493
leaf_count=48 22 28 30 34 36 87 20 21 50 20 75 772 26
internal_value=0 1.51083 -0.407714 0.347851 0.32878 1.85384 1.56533 1.00238 -0.11443 -0.532327 -0.340865 -0.555089 2.3826
internal_weight=0 63.1995 234.523 33.1967 14.2182 48.9812 31.6967 13.746 19.4507 201.326 21.417 179.909 17.2845
internal_count=1269 219 1050 135 58 161 107 51 84 915 95 820 54
shrinkage=0.0247862


Tree=51
num_leaves=15
num_cat=0
split_feature=2 11 5 2 1 2 9 4 11 7 5 2 13 12
split_gain=67.5798 25.0793 9.91635 8.58544 14.3939 5.86988 4.80722 3.88866 2.39377 2.77834 2.04694 2.75862 0.522022 0.106834
threshold=5.4565470218658456 3.9869295589458855 10.542988300323488 1.1035988330841067 0.14325892180204394 9.6660437583923358 3.4517607431306936 1.9218653440475466 5.4574539101353787 80.013088226318374 3.6313412189483647 35.432746887207038 48.003246333524821 9.3250946188961468
decision_type=2 2 2 2 2 2 2 2 2 2 2 2 2 2
left_child=3 10 5 8 -5 -3 -6 -4 12 -10 11 -2 -1 -12
right_child=1 2 7 4 6 -7 -8 -9 9 -11 13 -13 -14 -15
leaf_value=-0.014181218435242294 -0.005235637647698097 0.018464021965216293 -0.0051128230521433832 0.038392911405422385 -0.0097648412709016516 0.040679545076997975 0.0038100227294186133 0.020876326413695967 -0.0086851427610699587 0.0082394192247745787 -0.0086585651160441292 0.017599388592693502 -0.0069264383003452669 -0.014195966583103162
leaf_weight=66.76319482922554 8.1875490993261355 9.6655409932136518 5.3337558805942527 5.5791746973991385 32.717090636491776 30.271624833345413 31.398230448365211 10.457138895988463 71.444928482174873 6.4929907321929923 4.4796526283025724 5.3842638432979575 6.7896452397108069 4.4861912429332733
leaf_count=303 35 35 22 20 141 106 134 40 317 25 20 21 30 20
internal_value=0 0.799121 1.15912 -0.282082 0.00830788 1.42444 -0.125672 0.487743 -0.415715 -0.293447 -0.0907873 0.15386 -0.545198 -0.461724
internal_weight=0 78.2657 55.7281 221.185 69.6945 39.9372 64.1153 15.7909 151.491 77.9379 22.5377 13.5718 73.5528 8.96584
internal_count=1269 299 203 970 295 141 275 62 675 342 96 56 333 40
shrinkage=0.0247862


Tree=52
num_leaves=10
num_cat=0
split_feature=3 12 12 6 12 12 2 0 14
split_gain=88.9526 31.1429 25.8541 16.5555 14.5392 7.48166 6.60608 9.22188 0.871982
threshold=19.404797554016117 77.37794713471682 6.7114528890856766 51.193193435668952 8.265032369881709 15.280234144698289 0.50609758496284496 3.4995191097259526 15.063913297018216
decision_type=2 2 2 2 2 2 2 2 2
left_child=1 3 -2 5 -5 -1 8 -8 -4
right_child=2 -3 6 4 -6 -7 7 -9 -10
leaf_value=-0.011231625633226296 -0.0058653923469085467 0.048004261004906019 0.056124301766573799 -0.0078181424512281123 0.026092940404060603 -0.0013477944405217727 0.010874187092696599 0.048353056026490315 0.044803829200521582
leaf_weight=177.80789384245872 8.5050185769796354 6.6152799725532523 12.409831315279009 14.334778651595117 16.94224214553833 64.025301873683929 7.6635069698095348 8.5410073995590192 6.5577085912227622
leaf_count=732 33 20 37 54 62 257 27 27 20
internal_value=0 -0.207087 1.32738 -0.259035 0.425503 -0.347591 1.70574 1.23604 2.10672
internal_weight=0 279.725 43.6771 273.11 31.277 241.833 35.1721 16.2045 18.9675
internal_count=1269 1125 144 1105 116 989 111 54 57
shrinkage=0.0247862


Tree=53
num_leaves=13
num_cat=0
split_feature=13 4 13 1 7 9 7 13 7 3 4 3
split_gain=73.544 24.9695 14.8003 10.3369 9.1236 6.55563 6.51336 4.87298 8.13382 4.52751 4.13832 0.880703
threshold=40.430722019853498 1.7271841168403628 5.8641425642494189 10.93465566635132 9.942477226257326 0.67235134177793165 5.7676696777343759 12.050792638973563 3.826868057250977 3.2191989421844487 21.87751388549805 3.5038444995880131
decision_type=2 2 2 2 2 2 2 2 2 2 2 2
left_child=1 7 10 5 -4 9 -7 11 -9 -2 -3 -1
right_child=3 2 4 -5 -6 6 -8 8 -10 -11 -12 -13
leaf_value=-0.013559289341172339 0.055315694701065329 -0.0081261192024470012 0.0081497913559430805 0.0024416820900941437 0.03323064464371403 0.0035010997188057165 0.041381997155538766 -0.01128710200918427 0.010684102094362507 0.03063694076827049 0.014417289378411148 -0.0088658227983163616
leaf_weight=97.475524067878723 13.029349699616438 28.771715134382248 22.036375105381012 5.9261295199394217 14.981510400772093 5.449762895703314 5.7288268804550171 26.807605251669884 16.858974769711494 7.0810036659240714 6.0523352175950995 33.108026430010796
leaf_count=465 45 132 94 26 56 21 21 128 73 26 27 155
internal_value=0 -0.197823 0.298215 1.3105 0.738473 1.53988 0.924971 -0.402367 -0.113017 1.88141 -0.169621 -0.499083
internal_weight=0 246.092 71.8419 37.2151 37.0179 31.2889 11.1786 174.25 43.6666 20.1104 34.8241 130.584
internal_count=1269 1130 309 139 150 113 42 821 201 71 159 620
shrinkage=0.0247862


Tree=54
num_leaves=12
num_cat=0
split_feature=5 2 14 14 5 1 14 15 12 12 14
split_gain=148.905 30.1067 14.4622 11.9789 10.4122 10.0696 8.2862 4.53363 3.96721 3.50714 2.43901
threshold=43.651910781860359 37.654209136962898 2.1258630055401073 25.926425843527369 5.4092400074005136 0.43309192359447485 5.6512923357123919 11.70160224870189 8.3768812656129779 15.419712685941631 45.651140395251183
decision_type=2 2 2 2 2 2 2 2 2 2 2
left_child=1 4 -2 7 10 9 -6 -3 -7 -4 -1
right_child=2 3 5 -5 6 8 -8 -9 -10 -11 -12
leaf_value=-0.013330426441032354 0.0024725955819927328 -0.0027591042879723843 0.052605083382563346 0.038652155022050008 -0.012362906111089214 0.037458311459003697 0.0076374955375050676 0.020942193648398368 0.012868064922697733 0.0353650346954704 -0.0013236909286572435
leaf_weight=193.17251607775688 7.0394801497459403 14.353550374507909 25.60222727060318 9.5798911452293378 21.200076460838318 7.4704607725143459 31.836792677640915 7.5686097741127005 8.8049304485321027 10.197436958551405 11.011669486761091
leaf_count=750 24 52 72 29 80 23 113 26 29 31 40
internal_value=0 -0.296158 1.44587 0.626504 -0.409178 1.62773 -0.0143056 0.218573 0.974874 1.92438 -0.511719
internal_weight=0 288.723 59.1145 31.5021 257.221 52.0751 53.0369 21.9222 16.2754 35.7997 204.184
internal_count=1269 1090 179 107 983 155 193 78 52 103 790
shrinkage=0.0247862


Tree=55
num_leaves=11
num_cat=0
split_feature=15 15 6 3 6 0 7 11 7 4
split_gain=89.8608 36.2417 19.3247 12.0086 8.04356 6.18157 2.47278 4.03236 2.32503 1.53356
threshold=14.725308810577323 69.962057242086544 1.6068416833877566 1.6985136866569521 83.106914520263686 3.4995191097259526 4.4322547912597665 5.7251692706495776 2.2295206785202031 74.65423965454103
decision_type=2 2 2 2 2 2 2 2 2 2
left_child=4 2 5 -4 6 -2 9 -8 -3 -1
right_child=1 8 3 -5 -6 -7 7 -9 -10 -11
leaf_value=-0.012927685304505365 -0.0066999231819118458 0.049853647824650016 0.047016351660938302 0.01462106988451089 0.019420815932452359 0.019909922975737026 0.0006588601214697115 -0.011777825956856804 0.070221397161530266 0.0012311881803721049
leaf_weight=107.47952854633331 20.482226416468624 7.26958319544792 12.906062871217729 15.47641237080097 5.8609394431114188 7.2657226622104636 28.914448916912079 35.851170927286148 6.6834276616573334 4.8963321447372428
leaf_count=571 103 26 54 70 25 33 149 190 23 25
internal_value=0 0.962897 0.604233 1.18439 -0.368731 0.0106072 -0.406886 -0.251084 2.40535 -0.49663
internal_weight=0 70.0834 56.1304 28.3825 183.002 27.7479 177.141 64.7656 13.953 112.376
internal_count=1269 309 260 124 960 136 935 339 49 596
shrinkage=0.0247862


Tree=56
num_leaves=13
num_cat=0
split_feature=0 8 8 13 6 2 13 7 6 7 4 9
split_gain=52.4614 24.065 9.2014 8.81567 7.85703 5.65947 5.19646 2.77019 0.717039 1.59961 0.459593 0.38529
threshold=57.531780242919929 4.2893932882787071 13.114750445860393 8.1498803538151741 3.2117090225219731 1.6036871671676638 4.9374475076531485 5.3908703327178964 7.5696680545806894 41.201520919799812 0.10369411483407022 0.63500026646626728
decision_type=2 2 2 2 2 2 2 2 2 2 2 2
left_child=2 7 8 5 10 -3 -6 11 -1 -10 -4 -2
right_child=1 3 4 -5 6 -7 -8 -9 9 -11 -12 -13
leaf_value=-0.012898588886197796 0.0012474962652565015 0.093513008249442808 0.002720860902233196 0.023901744639143321 0.05583581826001343 0.053335244729983279 0.0099105014985464094 0.026931464631964594 -0.0096557150105022541 0.015378237639236571 -0.012883019782413655 -0.012951816508786343
leaf_weight=56.975260533392429 1.7309015020728136 3.9276700988411886 1.575581781566141 3.325847662985324 2.8721996396780014 4.8284126073122025 3.2182294279336929 1.8570937514305113 15.204491913318636 1.7446225434541691 4.2578849568963051 3.5437221825122833
leaf_count=754 20 23 20 27 27 38 30 20 193 21 55 41
internal_value=0 1.49294 -0.335039 2.35279 0.479901 2.87955 1.27453 0.0355037 -0.466561 -0.285276 -0.348796 -0.333515
internal_weight=0 19.2136 85.8483 12.0819 11.9239 8.75608 6.09043 7.13172 73.9244 16.9491 5.83347 5.27462
internal_count=1269 169 1100 88 132 61 57 81 968 214 75 61
shrinkage=0.0247862


Tree=57
num_leaves=14
num_cat=0
split_feature=9 1 9 1 3 15 5 0 10 12 1 9 8
split_gain=101.693 41.8213 14.6597 20.2288 12.7018 12.6216 6.93875 3.95252 3.57028 3.23234 2.5987 6.04365 1.34409
threshold=18.768663787879806 2.1335197687149052 5.5224131263336504 1.1600657701492312 1.6380757093429568 2.6180671209526296 0.58385661244392406 13.783183574676515 2.4394645714275023 3.0325694084006622 13.139066696166994 1.8910341160639923 3.2992081812630869
decision_type=2 2 2 2 2 2 2 2 2 2 2 2 2
left_child=2 7 10 -4 -5 9 -7 12 -9 -3 -1 -12 -2
right_child=1 5 3 4 -6 6 -8 8 -10 -11 11 -13 -14
leaf_value=-0.014004505336839725 0.0025295182480603268 0.055102284881046015 -0.014000573708225885 0.031614562788438778 -0.0020020471289176494 0.04450853824409888 0.010423864074573515 -0.0040092062387467008 0.025015504052132827 0.034525451532656855 -0.012356480808217558 0.0096087604120001172 -0.014054553118328972
leaf_weight=119.8843606710434 4.4349072724580791 22.130166113376621 23.419349908828735 16.070235356688503 12.095141083002089 5.8220394253730765 9.9627463519573194 4.8323949128389341 5.6278374642133713 6.0036478638648978 30.024581551551819 10.341167747974394 9.2136079072952253
leaf_count=589 20 70 115 62 53 20 41 21 22 21 147 44 44
internal_value=0 1.06351 -0.341817 0.121762 0.692873 1.64443 0.928106 0.0050184 0.467752 2.04614 -0.491078 -0.271358 -0.349221
internal_weight=0 68.0273 211.835 51.5847 28.1654 43.9186 15.7848 24.1087 10.4602 28.1338 160.25 40.3657 13.6485
internal_count=1269 259 1010 230 115 152 61 107 43 91 780 191 64
shrinkage=0.0247862


Tree=58
num_leaves=13
num_cat=0
split_feature=1 10 4 15 0 0 1 3 10 1 10 2
split_gain=175.607 32.779 17.3123 10.8505 9.95997 5.9204 4.65321 1.80584 1.33789 0.874121 2.26894 0.765562
threshold=26.742908477783207 4.1388944489001736 0.40496446192264562 4.1214869049033487 0.5462222993373872 0.1862464174628258 13.139066696166994 3.6998554468154912 0.68233645794481224 4.3359587192535409 17.540686852544461 0.020998585969209674
decision_type=2 2 2 2 2 2 2 2 2 2 2 2
left_child=6 4 5 -4 -2 -3 9 -8 -6 11 -11 -1
right_child=1 2 3 -5 8 -7 7 -9 -10 10 -12 -13
leaf_value=-0.0072868971520652073 0.028152765551744521 0.055237775247182666 0.036489709193425951 -0.0030024116164913146 -0.014223391608722737 0.037773082613971123 -0.0059987670159907421 0.014033766926595453 0.00057857566525629765 -0.012691740671530874 0.0068421823883798106 -0.014139272909828889
leaf_weight=10.745186939835547 6.9109840691089657 22.720216035842896 8.6477822959423083 8.4394896328449232 8.5441264957189542 25.278407320380211 5.9285059720277768 5.1722843647003174 6.6575776040554038 16.588537037372593 4.6750176697969428 167.00859692692757
leaf_count=48 25 69 30 32 38 86 25 20 29 75 20 772
internal_value=0 1.19244 1.54982 0.684915 0.140285 1.8576 -0.495647 0.134065 -0.311947 -0.530799 -0.338521 -0.553769
internal_weight=0 87.1986 65.0859 17.0873 22.1127 47.9986 210.118 11.1008 15.2017 199.017 21.2636 177.754
internal_count=1269 309 217 62 92 155 960 45 67 915 95 820
shrinkage=0.0247862


Tree=59
num_leaves=15
num_cat=0
split_feature=2 11 5 2 1 11 11 3 11 7 5 2 13 4
split_gain=65.0716 23.5921 9.20231 8.45223 13.6401 6.78128 4.75345 2.61934 2.39057 2.68561 2.0025 2.66343 0.523586 0.107934
threshold=5.4565470218658456 3.9869295589458855 0.49100595712661749 1.1035988330841067 0.14325892180204394 25.254539760314149 19.572028529391634 0.12622397392988208 5.4574539101353787 80.013088226318374 3.6313412189483647 35.432746887207038 48.003246333524821 3.0389515161514287
decision_type=2 2 2 2 2 2 2 2 2 2 2 2 2 2
left_child=3 10 7 8 -5 -4 -6 -3 12 -10 11 -2 -1 -12
right_child=1 2 5 4 6 -7 -8 -9 9 -11 13 -13 -14 -15
leaf_value=-0.014151732365640012 -0.0052114614748023647 0.034326151206998994 0.016499938197495827 0.036807710057036362 -0.0067515624983470589 0.039035218892847071 0.0093662255383609224 0.056327870522799979 -0.0086178153343014156 0.0079404003541910032 -0.008581241452749697 0.017149497074436512 -0.0068594310267844176 -0.014172113575500302
leaf_weight=65.918910846114159 8.1702876091003436 6.4863710999488813 32.496593773365021 5.7379793226718894 49.426250994205475 10.995100259780882 14.545254290103911 6.927479088306427 70.84425413608551 6.5678653568029395 4.4359988272190076 5.4534079879522315 6.743324249982833 4.4439341425895691
leaf_count=303 35 21 121 20 216 38 59 23 317 25 20 21 30 20
internal_value=0 0.776468 1.11924 -0.279712 0.0079473 0.895668 -0.124454 1.84372 -0.413367 -0.290937 -0.0900672 0.150464 -0.543724 -0.459709
internal_weight=0 79.4092 56.9055 219.784 69.7095 43.4917 63.9715 13.4139 150.074 77.4121 22.5036 13.6237 72.6622 8.87993
internal_count=1269 299 203 970 295 159 275 44 675 342 96 56 333 40
shrinkage=0.0247862


Tree=60
num_leaves=10
num_cat=0
split_feature=3 12 12 6 3 0 12 5 9
split_gain=84.7003 29.508 24.0622 16.1539 14.1574 7.40805 6.51065 8.53705 0.232261
threshold=19.404797554016117 77.37794713471682 6.173963925016051 51.193193435668952 2.8967636823654179 57.531780242919929 39.872105235663845 8.2468004226684588 0.015440880909003219
decision_type=2 2 2 2 2 2 2 2 2
left_child=1 3 -2 5 -5 -1 7 -4 -8
right_child=2 -3 6 4 -6 -7 8 -9 -10
leaf_value=-0.010543535565379583 -0.0081577635384476096 0.045792772047257034 0.045635920959836693 0.00092217920033710885 0.039701166281288662 0.0009636804419971784 0.05549066729876044 0.014462162340766912 0.049061291276689317
leaf_weight=198.48758326470852 7.7008969932794562 6.8321194350719443 11.729064941406252 23.882093027234081 7.6352908015251151 41.542632102966309 7.9733115434646589 10.026767984032629 7.2428038418292999
leaf_count=824 30 20 36 92 24 165 23 34 21
internal_value=0 -0.204953 1.27838 -0.256613 0.416399 -0.345006 1.61335 1.26179 2.11566
internal_weight=0 278.38 44.6728 271.548 31.5174 240.03 36.9719 21.7558 15.2161
internal_count=1269 1125 144 1105 116 989 114 70 44
shrinkage=0.0247862


Tree=61
num_leaves=13
num_cat=0
split_feature=13 4 13 1 7 13 3 13 7 12 6 3
split_gain=70.0114 24.4465 14.1628 9.52765 8.52259 6.14872 5.19879 4.84206 7.91516 4.11532 2.56675 0.881623
threshold=40.430722019853498 1.7271841168403628 5.8641425642494189 10.93465566635132 9.942477226257326 69.958744671479067 0.45311227440834051 12.050792638973563 3.826868057250977 39.872105235663845 0.77478158473968517 3.5038444995880131
decision_type=2 2 2 2 2 2 2 2 2 2 2 2
left_child=1 7 9 5 -4 6 -2 11 -9 -3 -7 -1
right_child=3 2 4 -5 -6 10 -8 8 -10 -11 -12 -13
leaf_value=-0.013527121517244521 0.045291318497324158 -0.0080764562873367821 0.0079773353031072879 0.0023926412404359841 0.032013945667036213 0.036648904747374242 0.017104395237858502 -0.011234315141420662 0.010421555614355645 0.014450123454397589 0.057881971908666098 -0.0088110428990823449
leaf_weight=96.293759778141975 6.1529429256916073 28.665065377950668 22.187597155570984 5.9411141127347937 15.343526244163511 6.2365270406007758 11.6729589253664 26.521832317113876 17.020276859402657 6.0272389501333228 8.1174621880054456 32.86495266854763
leaf_count=465 21 133 94 26 56 22 44 128 73 26 26 155
internal_value=0 -0.195826 0.292671 1.26102 0.71845 1.47584 1.08291 -0.400147 -0.111598 -0.167792 1.96344 -0.49738
internal_weight=0 244.924 72.2234 38.121 37.5311 32.1799 17.8259 172.701 43.5421 34.6923 14.354 129.159
internal_count=1269 1130 309 139 150 113 65 821 201 159 48 620
shrinkage=0.0247862


Tree=62
num_leaves=12
num_cat=0
split_feature=5 2 14 14 5 1 14 12 2 12 14
split_gain=141.777 29.3795 13.3658 11.1985 10.2993 9.14057 8.09894 4.47468 3.70386 3.16183 2.41156
threshold=43.651910781860359 37.654209136962898 2.1258630055401073 25.926425843527369 5.4092400074005136 0.43309192359447485 5.6512923357123919 5.548821105515116 1.2461138963699343 15.419712685941631 45.651140395251183
decision_type=2 2 2 2 2 2 2 2 2 2 2
left_child=1 4 -2 7 10 9 -6 -3 -7 -4 -1
right_child=2 3 5 -5 6 8 -8 -9 -10 -11 -12
leaf_value=-0.013281087685912059 0.0023986065960142381 -0.0071570434536899182 0.050137516687296158 0.037199697072112868 -0.012312907891081715 0.010675135566346255 0.0074916669460363206 0.015345395088688353 0.034223854575390573 0.033984124526561812 -0.0013450286333686358
leaf_weight=191.0083122998476 7.0625338256359091 9.7583109140396171 26.459006428718567 9.8165510892868024 21.011993810534477 7.6296667754650143 32.012012958526611 12.222596555948256 8.9317643046379072 10.450726121664045 11.024688959121702
leaf_count=750 24 36 72 29 80 25 113 42 27 31 40
internal_value=0 -0.293618 1.39053 0.612701 -0.406628 1.56131 -0.0142742 0.215822 0.943405 1.83842 -0.509575
internal_weight=0 286.854 60.5337 31.7975 255.057 53.4712 53.024 21.9809 16.5614 36.9097 202.033
internal_count=1269 1090 179 107 983 155 193 78 52 103 790
shrinkage=0.0247862


Tree=63
num_leaves=11
num_cat=0
split_feature=15 15 6 3 6 0 7 11 9 4
split_gain=86.4493 32.6042 18.1368 10.8698 7.82427 5.94176 2.46261 3.98414 2.09635 1.51914
threshold=14.725308810577323 69.962057242086544 1.6068416833877566 1.6985136866569521 83.106914520263686 3.4995191097259526 4.4322547912597665 5.7251692706495776 0.0017083392263018426 74.65423965454103
decision_type=2 2 2 2 2 2 2 2 2 2
left_child=4 2 5 -4 6 -2 9 -8 -3 -1
right_child=1 8 3 -5 -6 -7 7 -9 -10 -11
leaf_value=-0.012894920141297068 -0.0066354377561069627 0.06384987453120157 0.044712380856640845 0.014271199769971743 0.018850738440875415 0.019322150825650627 0.00064722414839085229 -0.011739725946796304 0.044549466216469276 0.001181421724485865
leaf_weight=106.19248585402966 20.339208662509922 8.7743428051471692 13.384443044662477 15.651004046201704 5.9534752666950217 7.3843252211809149 28.933953613042831 35.501124069094658 5.8175965845584861 4.9104323089122763
leaf_count=571 103 29 54 70 25 33 149 190 20 25
internal_value=0 0.932617 0.589738 1.1421 -0.366589 0.0110399 -0.404847 -0.249146 2.26596 -0.495097
internal_weight=0 71.3509 56.759 29.0354 181.491 27.7235 175.538 64.4351 14.5919 111.103
internal_count=1269 309 260 124 960 136 935 339 49 596
shrinkage=0.0247862


Tree=64
num_leaves=13
num_cat=0
split_feature=0 8 8 15 2 6 15 7 6 11 13 12
split_gain=49.7373 21.6136 9.03808 7.92041 7.88583 7.40867 4.77318 2.64814 0.720399 1.59443 0.462286 0.381923
threshold=57.531780242919929 4.2893932882787071 13.114750445860393 6.4039374414292931 1.9712560772895815 3.2117090225219731 3.5167513468371649 5.3908703327178964 7.5696680545806894 33.855710779236837 1.3612065711150085 15.280234144698289
decision_type=2 2 2 2 2 2 2 2 2 2 2 2
left_child=2 7 8 4 -3 10 -7 11 -1 -10 -4 -2
right_child=1 3 5 -5 -6 6 -8 -9 9 -11 -12 -13
leaf_value=-0.012891477710624169 -0.012946278024238677 0.08994093135235437 0.0028347095923526269 0.029011014500154305 0.039812411336809225 0.057210815648370682 0.012858160274589386 0.025855815267545022 -0.0096255183417427205 0.015377909154919711 -0.012877138471503641 0.0011935765342511668
leaf_weight=56.227514035999775 3.5126819089055088 4.7763691842555982 1.5645495280623416 4.6780193969607344 3.2540389373898506 2.4608834534883499 3.8080361038446426 1.9074943140149114 15.084652058780195 1.7446603924036015 4.2151073515415192 1.7372639924287794
leaf_count=754 41 27 20 37 24 21 36 20 193 21 55 20
internal_value=0 1.42401 -0.333285 2.2068 2.80983 0.468947 1.22207 0.0333542 -0.465664 -0.283441 -0.346989 -0.332503
internal_weight=0 19.8659 85.1054 12.7084 8.03041 12.0486 6.26892 7.15744 73.0568 16.8293 5.77966 5.24995
internal_count=1269 169 1100 88 51 132 57 81 968 214 75 61
shrinkage=0.0247862


Tree=65
num_leaves=14
num_cat=0
split_feature=9 1 9 1 5 10 6 0 10 10 1 9 14
split_gain=97.5892 38.7973 14.484 19.6312 12.0874 11.3814 4.82417 3.84003 3.60415 3.39342 2.60125 5.92817 1.3402
threshold=18.768663787879806 2.1335197687149052 5.5224131263336504 1.1600657701492312 3.1881418228149419 5.4123474521611028 2.4334442615509038 13.783183574676515 10.125232665352026 2.4394645714275023 13.139066696166994 1.8910341160639923 3.481518768490274
decision_type=2 2 2 2 2 2 2 2 2 2 2 2 2
left_child=2 7 10 -4 -5 6 -3 12 -7 -9 -1 -12 -2
right_child=1 5 3 4 -6 8 -8 9 -10 -11 11 -13 -14
