tree
version=v3
num_class=8
num_tree_per_iteration=8
label_index=0
max_feature_idx=7
objective=multiclass num_class:8
feature_names=Column_0 Column_1 Column_2 Column_3 Column_4 Column_5 Column_6 Column_7
feature_infos=[0.00021408632164821029:99.7275390625] [0.00047104177065193653:99.977546691894531] [0.00019203405827283859:99.922195434570312] [0.00072688364889472723:99.584030151367188] [0.00090362591436132789:99.902961730957031] [0.00037069155951030552:99.923561096191406] [0.00045142852468416095:99.95806884765625] [0.00055143312783911824:97.150001525878906]
tree_sizes=2025 2325 2125 2330 2331 2322 2329 2315 1852 2361 2163 2348 2359 2360 2365 2365 1936 2363 2265 2344 2370 2361 2366 2365 1942 2364 2370 2375 2369 2359 2373 2363 2062 2372 2277 2366 2375 2375 2361 2364 1955 2373 2379 2374 2377 2368 2369 2360 2066 2363 2363 2371 2364 2369 2364 2363 1852 2368 2371 2370 2374 2386 2363 2365 1965 2361 2360 2370 2376 2377 2365 2366 1860 2373 2366 2368 2382 2367 2358 2385 2064 2379 2266 2375 2369 2378 2363 2383 2066 2372 2346 2372 2378 2368 2375 2363 1965 2381 2272 2380 2379 2382 2373 2367 1870 2383 2375 2379 2383 2366 2381 2363 1971 2380 2276 2386 2384 2379 2376 2370 1970 2383 2379 2386 2379 2387 2376 2390 1965 2389 2281 2390 2381 2396 2362 2390 1871 2381 2384 2389 2384 2391 2365 2382 2057 2364 2278 2391 2377 2392 2373 2395 2257 2376 2385 2378 2381 2396 2375 2397 2167 2383 2378 2376 2381 2374 2384 2385 2170 2389 2381 2391 2379 2371 2378 2373 2167 2386 2380 2383 2378 2380 2376 2387 2170 2380 2378 2386 2381 2378 2380 2375 2160 2286 2374 2374 2380 2390 2382 2387 2176 2377 2384 2383 2376 2381 2373 2384 1969 2379 2383 2389 2381 2375 2377 2381 1970 2387 2381 2383 2379 2381 2378 2380 2177 2387 2386 2371 2380 2391 2384 2381 2071 2392 2381 2381 2383 2381 2381 2388 1664 2386 2189 2382 2376 2388 2377 2372 1660 2386 2190 2381 2380 2382 2374 2373 1658 2378 2186 2385 2382 2392 2372 2370 1766 2380 1880 2389 2381 2388 2380 2370 1561 2388 2187 2380 2383 2396 2378 2375 1561 2385 1982 2387 2389 2392 2373 2378 1652 2393 1879 2383 2376 2383 2376 2371 1659 2386 1880 2392 2389 2388 2377 2373 1561 2385 1770 2394 2378 2386 2377 2377 1653 2384 1976 2387 2383 2387 2381 2373 1762 2378 2182 2367 2385 2387 2289 2379 1771 2382 2188 2382 2380 2390 2275 2386 1661 2383 2187 2381 2385 2395 2285 2380 1764 2382 2184 2386 2382 2382 2287 2384 1654 2380 2160 2393 2385 2386 2290 2370 1770 2389 2160 2389 2383 2375 2183 2384 1660 2381 2163 2378 2385 2367 2284 2382 1663 2389 2170 2381 2384 2384 2283 2384 1663 2387 2061 2384 2380 2388 2184 2385 1662 2388 2166 2371 2395 2391 2389 2384 1761 2394 1976 2381 2384 2395 2376 2400 1658 2400 1775 2380 2388 2395 2373 2399 1661 2383 1777 2386 2381 2398 2373 2400 1859 2387 1779 2382 2390 2395 2370 2397 1865 2384 1780 2389 2391 2396 2380 2404 1753 2402 1771 2386 2388 2393 2375 2405 1861 2401 1777 2389 2387 2374 2378 2404 1659 2395 1869 2385 2389 2375 2379 2407 1866 2284 1778 2387 2395 2384 2384 2397 1658 2298 1869 2399 2380 2387 2388 1886 2082 2294 1662 2382 2381 2379 2373 2366 2089 2291 1884 2382 2388 2394 2384 2368 2089 2392 1563 2389 2382 2301 2373 2365 1956 1889 1554 2363 2396 2389 2380 2385 1851 1888 1255 2369 2386 2198 2380 2379 1970 1779 1258 2367 2398 2388 2387 2373 1772 1773 1249 2393 2392 2389 2379 2393 1976 1876 1257 2385 2385 2194 2387 2282 1767 1778 1257 2392 2383 2200 2391 2384 1981 1881 1257 2385 2396 2390 2382 2397 1577 1959 2293 2394 2390 2196 2388 2390 1575 1962 2192 2386 2391 2404 2393 1681 1778 1983 2099 2394 2392 2406 2389 1682 1680 1985 2297 2394 2387 2408 2386 2406 1676 1982 2096 2391 2391 2096 2287 1683 1674 1573 2309 2390 2387 2400 2295 1793 2090 1364 2098 2389 2399 2403 2390 1895 1479 1563 2088 2387 2387 2197 2187 2398 2189 1366 1980 2398 2395 2406 2185 1682 2073 1568 2101 2398 2389 2195 2383 1899 1985 2399 2302 2391 2087 2387 2386 2392 1975 2205 2385 2399 2091 2393 2393 2391 1981 1571 2289 2389 2085 2396 2388 2388 1980 2198 2398 2400 2096 2392 2390 2390 1981 2398 2194 2398 2090 2394 2391 2388 1985 1572 2400 2396 2089 2397 2393 2391 1984 2398 2200 2396 2199 2395 2383 2385 2386 1468 2393 2402 2100 2395 2392 2412 1765 2305 2288 2397 2198 2389 2395 2388 1773 2202 2196 2401 2387 2392 2392 2398 1167 2391 1569 2403 2399 2401 2399 1991 1171 2396 1677 2406 1785 2396 2391 1991 1381 2392 1680 2405 2401 2391 2403 2412 1272 2291 1573 2412 2389 2403 2390 1887 1382 2085 1576 2405 2390 2387 2395 1886 1275 1986 1887 2399 2293 2400 2396 1576 1383 1984 1564 2395 2090 2394 2401 1575 1281 1986 1882 2391 2096 2395 2395 1885 1169 2094 1581 2393 2391 2397 2403 2304 1773 2393 1890 2395 2194 2090 2401 1478 1779 1675 2398 2402 2407 2399 2388 2109 1774 1887 2294 2397 2399 2297 2393 2388 1876 1883 2395 2390 2410 2378 2392 2001 1778 1991 2294 2404 2409 2299 2379 2404 1565 1579 2398 2395 2406 2377 2304 1891 1879 1881 2288 2419 2401 2401 2400 2415 1576 1993 2298 2408 2411 2390 2408 1475 1878 1482 1885 2106 2403 2292 2404 1476 1572 1477 1675 2101 2411 2297 1473 1473 1576 1981 1884 2109 2419 2401 1581 1476 1992 1372 2290 1993 2411 2397 2396 1160 1987 1373 2287 1987 2415 2401 2398 1172 1989 1485 2184 1990 2413 2402 2401 1580 1992 1676 2300 1987 2408 2386 2394 1585 1992 1484 2193 1885 1798 2401 1898 1481 1989 1683 2304 1985 1995 2398 1795 1368 2091 1482 2405 2206 2414 2416 2401 1478 1981 1781 2404 1892 1998 2410 2402 1481 2093 1687 2083 2309 2409 2411 1898 1375 2299 1376 2186 2312 1987 2409 1905 1482 1988 1378 2092 1270 2206 2400 2422 2406 1989 1377 2302 1268 2210 2415 2418 2400 1990 1379 2093 1269 2206 2414 2309 2409 1991 2292 2090 1266 2206 2398 2311 2412 1884 1381 2293 1164 2203 2412 2417 2406 2083 2387 2204 1266 1790 2398 2423 2407 1991 2195 2412 1266 2100 2412 2418 2415 1166 2198 1987 1162 2400 2401 2405 2413 1992 1377 1986 1265 1797 2393 2421 2415 1680 1472 2195 1265 2398 2407 2319 2408 1269 1689 1897 2399 2398 2414 2408 1370 1167 1683 1892 2400 2385 2404 2412 1373 1165 1689 1893 2401 2403 2097 2410 1378 1168 1685 2001 2403 2405 2424 2409 1377 1277 1688 1899 1675 2405 2092 2411 1375 1167 1682 1894 1173 2403 2092 2404 1386 1164 1900 2005 1166 2410 2413 2398 1381 1168 1695 1893 2207 2416 2005 2410 1381 1372 1277 2003 2110 2408 2113 2414 1380 1171 1372 1897 1062 2410 2113 1372 1382 2195 2403 1692 2418 2411 2369 2410 2406 2093 2002 1689 2404 2395 2386 2407 2419 2096 2418 1695 2408 2408 2390 2415 1500 2393 1903 1694 2406 2408 2399 2420 1180 2100 1913 1689 2416 2406 2400 2413 2402 2208 2415 1690 2404 2408 2397 2420 1500 2208 1911 1177 2406 2407 2413 1393 1504 1790 2011 1177 2409 2203 2407 2409 1184 2404 2411 1480 2423 2411 2406 1387 1506 1576 1804 1793 2409 2411 2407 2311 1385 1680 1374 2425 2400 1906 2401 2402 1893 1690 1382 2324 2415 1894 2410 2401 2002 1689 1274 2429 2406 1275 2402 2415 1996 1691 1383 2428 2416 1278 2414 2409 1893 1690 1482 1376 2415 1281 2416 2408 1997 1585 1381 1380 1497 1279 2411 2406 1885 1576 1382 1796 2415 1284 2405 2402 1690 1584 1379 1799 2401 2015 2111 2410 2005 1686 1379 1381 2419 2425 1799 2405 1886 1688 1386 1809 1690 1912 2408 2407 1892 2426 1167 2308 2193 2005 1574 1794 1181 2418 1162 2300 2410 2002 1571 1785 1179 2418 1160 1780 2403 2109 1675 1782 1174 2406 1171 2417 2197 2404 1576 1765 1390 2409 1167 1786 1987 2110 1672 1770 1279 2411 1170 2424 2419 2398 1681 1762 1391 2426 2095 2310 2405 2415 1682 1773 1387 2227 1378 2412 2419 2408 1687 1666 1279 2416 1380 2412 2086 2421 1479 1670 1073 2417 2206 1683 2413 2404 1787 1768 1075 1375 1269 1583 1892 2406 2408 2398 1588 1374 1275 1790 1900 2411 2401 1999 1595 1370 2308 1282 1905 2102 2404 2298 1593 1378 1172 1578 1899 2113 2403 2108 1492 1378 2313 1168 1901 2410 2399 2005 1594 1384 1169 1266 1901 2208 2410 2104 1385 1273 1171 1794 1904 2215 2414 2110 1381 1270 2423 1167 1905 2219 2413 1998 1376 1278 1172 1171 1182 2220 2392 2393 1380 1901 1171 1284 1805 2005 2416 2213 1278 1690 1072 1581 2421 2108 2418 2413 2405 1689 1072 1693 2428 2106 2411 2415 2409 1688 1071 1583 2425 2107 2414 2420 1883 1484 2320 1693 2431 2116 2420 2438 1389 1481 1166 1590 2426 2109 2415 1674 1388 1487 1062 1796 2427 2106 2424 2444 1395 1370 2313 1585 1702 2432 2410 2323 1899 1915 1062 1798 2427 2419 2423 1677 1394 1788 1281 2110 2225 2435 2423 2109 2423 1703 1062 1907 2019 2428 2421 1676 2422 2224 2415 1390 2424 2425 2321 1384 2010 2230 2409 1388 2416 2430 2411 1064 2006 2123 2425 1390 2422 2433 2417 1381 2010 2403 2416 1388 2428 2436 2417 1067 1913 2410 2416 1392 2420 2433 2415 1279 1904 2419 2412 1391 2403 2430 2411 1381 1708 2410 2408 1393 2407 2426 2408 1067 2418 2419 2412 1693 1792 2435 2409 1064 2415 2417 1999 1701 1999 2441 2418 1172 2007 2015 2006 1700 1795 2434 2411 2000 1287 1681 2425 1267 1482 2435 2413 2295 2406 1691 2439 1272 1473 2427 2416 2411 2410 1379 2422 1272 1485 2325 2412 2299 2412 1683 2422 1904 1482 2322 2412 2306 2415 1683 2427 1067 1482 2324 2410 2409 2423 1585 2423 1070 1061 2323 2419 2302 2420 1694 2420 1072 1063 2440 2411 2002 2420 1680 2432 1068 1067 2327 2409 2112 2412 1687 2426 1071 1057 2405 2420 1383 2414 1789 2423 1069 1259 2223 2412 2109 2417 2034 2029 2197 2423 1805 2401 2416 2420 2037 2025 2111 2426 2228 2403 2410 2203 2432 2109 2102 2428 2301 2413 2420 2413 2141 1812 2001 2426 2221 2402 2421 2205 2428 1914 1997 2428 1170 2402 2418 2419 2418 2228 2108 2423 1695 2420 1908 2209 2124 1812 1997 2424 2226 2409 1590 2403 2427 2018 2431 2419 1706 2419 2108 1702 2012 2233 1899 2424 1174 2402 2395 2407 1801 1810 2324 2430 2429 2420 1882 2109 1990 1697 1685 2408 2418 2419 2211 2424 1786 1700 1767 2418 2419 2415 2211 2418 1684 1594 1680 2416 2419 2416 2205 2418 1687 1702 1582 2416 2418 2409 2210 2417 1680 2020 1682 2418 2423 2417 2212 2401 1387 2005 1683 2430 2397 2408 2210 2414 1677 2008 1908 2432 2422 2101 2215 2414 2103 2425 1685 2431 2324 2115 2107 2415 2109 2425 1582 2410 2426 2011 2320 2408 1689 2004 1694 2416 2424 1997 2423 2421

Tree=0
num_leaves=19
num_cat=0
split_feature=0 0 6 0 6 5 1 6 4 0 7 1 5 0 6 0 1 0
split_gain=138.824 24.0711 18.4256 13.8562 13.457 10.7043 7.75241 6.02552 3.85187 6.13614 8.50396 12.7137 8.05036 14.8169 2.05943 0.513132 0.483419 0.307446
threshold=93.038890838623061 98.874744415283217 0.31716933846473699 74.73288726806642 1.1535460352897646 0.24940308183431628 0.20903828740119937 2.5712723731994633 2.4848166704177861 7.6022450923919687 14.207494735717775 2.0185955762863164 0.35820372402668005 0.2932289987802506 0.28567871451377874 62.461660385131843 0.29190643131732946 86.294551849365249
decision_type=2 2 2 2 2 2 2 2 2 2 2 2 2 2 2 2 2 2
left_child=3 2 5 7 14 6 -2 15 16 12 11 -11 13 -10 -5 -1 -9 -16
right_child=1 -3 -4 4 -6 -7 -8 8 9 10 -12 -13 -14 -15 17 -17 -18 -19
leaf_value=-2.8442478261946524 -2.7834391226114419 -2.5877362368034977 -2.6209061477137223 -2.7901960325075281 -2.7224433648508408 -2.8250002073147287 -2.6878196626765587 -2.8240723663358716 -2.8441555367044842 -2.6818560133003673 -2.8329661815332763 -2.8118548579141689 -2.8442314664118054 -2.7105302043692667 -2.8240723663358716 -2.8250002073147287 -2.8442299250320451 -2.8441411704587241
leaf_weight=70.521879255771637 1.785364031791685 2.1201197877526274 1.7853640317916868 2.0085345357656461 2.6780460476875305 1.8969492837786672 3.0128018036484718 1.7853640317916859 2.5664607957005563 1.7853640317916859 3.2359723076224327 2.2317050397396088 12.385962970554827 1.8969492837786672 1.7853640317916868 1.8969492837786663 11.493280954658983 2.2317050397396088
leaf_count=632 16 19 16 18 24 17 27 16 23 16 29 20 111 17 16 17 103 20
internal_value=0 3.52421 2.76938 -0.252995 0.961323 2.00663 2.80167 -0.349314 -0.0230648 0.215007 0.984146 1.95617 -0.115677 1.03526 0.131184 -0.517623 -0.455706 -0.2809
internal_weight=0 10.6006 8.48048 118.504 8.70365 6.69512 4.79817 109.8 37.3811 24.1024 7.25304 4.01707 16.8494 4.46341 6.0256 72.4188 13.2786 4.01707
internal_count=1157 95 76 1062 78 60 43 984 335 216 65 36 151 40 54 649 119 36
shrinkage=1


Tree=1
num_leaves=22
num_cat=0
split_feature=1 0 5 0 2 0 1 6 6 3 0 2 6 6 0 1 5 0 4 4 1
split_gain=86.3409 42.345 28.0871 25.0314 24.1414 10.9677 10.2425 8.41167 7.26405 6.50456 5.96148 8.20916 5.12153 3.54258 3.49987 1.66902 2.15382 1.60333 1.45499 1.26205 1.07979
threshold=5.1324100494384775 11.355014324188234 0.9750821888446809 1.1642867326736452 2.5011969804763798 88.415008544921889 0.50190019607543956 0.063966054469347014 0.22482345998287204 0.012106646317988636 0.22637886554002765 0.076506566256284728 0.9952722191810609 0.51680052280426036 0.014408743940293791 2.5681726932525639 2.6200869083404545 44.909177780151374 0.43505071103572851 0.14061346650123599 0.25219871103763586
decision_type=2 2 2 2 2 2 2 2 2 2 2 2 2 2 2 2 2 2 2 2 2
left_child=5 2 3 7 12 15 20 9 -8 -2 19 -12 17 -5 -11 -1 -17 -3 -14 -9 -7
right_child=1 4 -4 13 -6 6 8 10 -10 14 11 -13 18 -15 -16 16 -18 -19 -20 -21 -22
leaf_value=-2.0105163412403764 -1.9849727736304068 -1.8652748243651009 -2.007609127298756 -1.8763934621444436 -1.9853501814388683 -2.0086896970871466 -1.9159835017108109 -2.0050407455421366 -1.9791319363484918 -1.9544386745287563 -1.9216348419302616 -1.9884316549776304 -1.9352110881197835 -1.9255972949152973 -1.9068654110464236 -1.9736662609377289 -2.007216814682129 -1.8967559153018383 -1.9035382900159343 -1.9828067429624299 -1.9901191285821906
leaf_weight=141.4864182472229 4.0087818503379813 5.1878353357315117 24.524312496185303 4.0087818503379813 5.4236460328102103 10.847292065620428 3.7729711532592756 10.375670671463014 6.6026995182037354 3.7729711532592756 4.0087818503379804 6.1310781240463257 3.7729711532592765 3.7729711532592773 4.4804032444953918 3.7729711532592756 7.5459423065185547 3.7729711532592773 4.0087818503379822 4.9520246386528006 6.6026995182037345
leaf_count=600 17 22 104 17 23 46 16 44 28 16 17 26 16 16 19 16 32 16 17 21 28
internal_value=0 0.787418 0.40604 0.870962 1.9921 -0.401879 0.175382 0.533928 0.962342 1.21451 0.205973 0.800948 2.58611 2.50419 1.72219 -0.507042 -0.136736 3.10287 1.99017 -0.187183 -0.292152
internal_weight=0 92.202 70.0358 45.5115 22.1662 180.631 27.8257 37.7297 10.3757 12.2622 25.4676 10.1399 16.7426 7.78175 8.25337 152.805 11.3189 8.96081 7.78175 15.3277 17.45
internal_count=1157 391 297 193 94 766 118 160 44 52 108 43 71 33 35 648 48 38 33 65 74
shrinkage=1


Tree=2
num_leaves=20
num_cat=0
split_feature=1 0 6 1 4 6 5 6 0 0 6 1 7 2 4 4 0 4 0
split_gain=157.704 30.8034 16.596 16.4272 10.2817 9.52283 8.64464 12.7377 7.51772 7.06048 5.04411 3.80236 2.97771 6.92386 1.99756 0.939545 0.0942835 0.0367981 0.228412
threshold=85.593006134033217 0.19502614438533786 81.916858673095717 3.5626131296157841 14.096086025238039 1.9687061309814455 0.08994643017649652 0.10105698183178903 0.52281665802001964 0.011375192087143661 31.714530944824222 97.752429962158217 1.4989404082298281 0.56052479147911083 0.1242213509976864 2.8083034753799443 0.042109152302145965 66.177059173583999 0.52281665802001964
decision_type=2 2 2 2 2 2 2 2 2 2 2 2 2 2 2 2 2 2 2
left_child=2 6 3 17 10 11 7 9 -4 -2 12 14 13 -5 -3 -14 -9 -1 -19
right_child=1 5 8 4 -6 -7 -8 16 -10 -11 -12 -13 15 -15 -16 -17 -18 18 -20
leaf_value=-2.0905866805071001 -1.9604385399677371 -2.0830624418075305 -1.9939136977961121 -2.090548687510875 -2.0158852414100403 -1.9901479311042698 -2.023360631971606 -1.9261954538854589 -2.0646799993899898 -2.0163528177057959 -2.040028709789206 -2.0297191762780691 -2.0885188265276833 -2.0375732812354017 -2.051163005981234 -2.0715696343787067 -1.9364782131915181 -2.0905734294106044 -2.0802401738488312
leaf_weight=135.86338078975677 5.2933784723281914 4.8522635996341759 3.7494764178991309 6.1756082177162153 4.8522635996341696 3.9700338542461386 4.8522635996341696 3.7494764178991309 4.1905912905931473 6.8372805267572403 5.7344933450222006 5.9550507813692084 17.644594907760624 6.8372805267572403 5.5139359086751938 5.7344933450222006 3.528918981552124 16.321250289678577 3.5289189815521231
leaf_count=616 24 22 17 28 22 18 22 17 19 31 26 27 80 31 25 26 16 74 16
internal_value=0 1.71706 -0.353796 -0.409376 0.108797 0.807351 2.47763 2.77639 1.06419 2.1476 -0.04982 0.468954 -0.187331 0.19573 0.1024 -0.400835 3.82342 -0.565752 -0.521499
internal_weight=0 44.5526 210.632 202.692 46.9787 20.2913 24.2613 19.4091 7.94007 12.1307 42.1265 16.3213 36.392 13.0129 10.3662 23.3791 7.2784 155.714 19.8502
internal_count=1157 202 955 919 213 92 110 88 36 55 191 74 165 59 47 106 33 706 90
shrinkage=1


Tree=3
num_leaves=22
num_cat=0
split_feature=2 5 1 5 1 2 3 6 4 6 2 5 4 3 1 2 6 0 7 6 6
split_gain=103.743 39.8072 11.8143 18.5516 9.15118 8.84626 14.2943 8.55828 10.3288 7.1875 5.12041 3.10921 2.50465 2.30632 1.93057 1.78601 1.3982 1.19632 1.90587 0.996109 0.815636
threshold=6.1999151706695566 0.64694771170616161 0.072320938110351576 0.10810978710651399 0.59267309308052074 1.0266793966293337 0.30351534485816961 0.88853016495704662 2.1122466325759892 0.72707021236419689 3.1453286409378056 8.030497074127199 5.733513832092286 0.44719699025154119 0.015625727828592065 1.3176071643829348 2.4438537359237675 6.1702816486358651 20.986722946166996 0.34923495352268225 1.2632464766502383
decision_type=2 2 2 2 2 2 2 2 2 2 2 2 2 2 2 2 2 2 2 2 2
left_child=5 2 3 -2 11 14 -7 8 -6 10 15 12 -3 -4 -1 -8 -9 -11 20 -17 -19
right_child=1 4 13 -5 7 6 9 16 -10 17 -12 -13 -14 -15 -16 19 -18 18 -20 -21 -22
leaf_value=-1.9983475220448068 -1.9032676505562183 -1.9674808382331115 -1.8670911068149816 -1.9940152248565262 -1.9791384368629283 -1.9526647906896843 -1.9791384368629283 -1.9732381349012418 -1.8997496026430745 -2.0221621771972176 -1.9532813606980175 -2.022136218430953 -2.0066083443797176 -1.9040214431614118 -2.019210541377368 -1.9983475220448068 -2.0010671547196837 -2.002738544038595 -1.9923805044682887 -2.022109448453242 -2.0184687727230566
leaf_weight=6.0788432359695426 7.0140498876571673 3.974628269672392 4.2084299325942975 5.1436365842819214 4.2084299325943011 6.7802482247352591 4.208429932594302 4.4422315955162031 4.4422315955162048 18.937934696674347 4.2084299325942984 6.3126448988914481 4.6760332584381104 4.9098349213600159 134.66975784301758 6.0788432359695417 5.1436365842819214 5.6112399101257386 6.0788432359695426 3.7408266067504883 19.639339685440063
leaf_count=26 30 17 18 22 18 29 18 19 19 81 18 27 20 21 576 26 22 24 26 16 84
internal_value=0 1.22069 2.28862 1.64211 0.536109 -0.323528 -0.0467395 1.01169 1.73303 -0.183913 0.353673 -0.0430559 0.345851 3.14989 -0.471529 0.0629364 0.360025 -0.379079 -0.258745 -0.170114 -0.379866
internal_weight=0 54.4758 21.276 12.1577 33.1998 216.033 75.2841 18.2365 8.65066 68.5039 18.2365 14.9633 8.65066 9.11826 140.749 14.0281 9.58587 50.2674 31.3294 9.81967 25.2506
internal_count=1157 233 91 52 142 924 322 78 37 293 78 64 37 39 602 60 41 215 134 42 108
shrinkage=1


Tree=4
num_leaves=22
num_cat=0
split_feature=3 2 3 4 0 1 6 3 2 6 5 7 0 6 4 3 0 6 3 1 1
split_gain=125.115 16.9437 15.5696 8.23092 7.40016 9.80393 19.2504 5.78992 5.33993 3.7814 3.51066 2.99726 2.87744 5.65007 2.81815 5.82984 2.42479 2.07427 1.33252 2.52467 1.14883
threshold=14.245955467224123 0.61859324574470531 6.2424423694610605 1.324290990829468 13.114885330200197 0.37970985472202307 0.50564943253993999 3.3714138269424443 3.296821236610413 0.72707021236419689 28.265383720397953 78.19944000244142 91.531982421875014 0.097397349774837508 3.3334169387817387 52.980607986450202 7.6022450923919687 85.50901031494142 0.43800203502178198 0.22926306724548343 0.29190643131732946
decision_type=2 2 2 2 2 2 2 2 2 2 2 2 2 2 2 2 2 2 2 2 2
left_child=2 -2 4 9 11 6 12 -7 -9 -4 14 17 -6 -14 15 -3 -5 18 -1 -20 -19
right_child=1 10 3 16 5 7 -8 8 -10 -11 -12 -13 13 -15 -16 -17 -18 20 19 -21 -22
leaf_value=-1.976520128795515 -1.8368460552553734 -1.8516711594202175 -1.9308060858568383 -1.966723590102831 -1.9773832232726103 -1.9717110102859157 -1.8695850781998002 -1.9110860794343085 -1.9685834320822897 -1.8808180695155559 -1.9308060858568383 -1.9401438111346028 -1.9642189860811039 -1.9163577983752267 -1.9159718587965511 -1.9121306353013097 -1.9308060858568383 -1.9401438111346028 -1.9553163162917133 -1.9729577694575375 -1.9680304319174069
leaf_weight=79.875409290194511 8.2546015679836291 4.6128655821084994 3.8845183849334735 6.7979071736335737 5.0984303802251878 44.429179027676582 4.3700831830501548 4.3700831830501539 4.1273007839918137 4.1273007839918137 3.8845183849334708 3.8845183849334708 8.2546015679836255 5.3412127792835227 4.1273007839918128 3.8845183849334717 3.8845183849334717 3.8845183849334708 13.110249549150465 56.811081379652023 3.8845183849334717
leaf_count=329 34 19 16 28 21 183 18 18 17 17 16 16 34 22 17 16 16 16 54 234 16
internal_value=0 2.12296 -0.230926 0.647633 -0.300126 -0.0427018 0.501302 -0.279896 0.476023 1.41387 1.53729 -0.421247 0.059217 0.299797 1.79343 2.12359 0.0723182 -0.442662 -0.468797 -0.367706 0.0603789
internal_weight=0 24.7638 256.135 18.6942 237.441 75.9909 23.0643 52.9266 8.49738 8.01182 16.5092 161.45 18.6942 13.5958 12.6247 8.49738 10.6824 157.566 149.797 69.9213 7.76904
internal_count=1157 102 1055 77 978 313 95 218 35 33 68 665 77 56 52 35 44 649 617 288 32
shrinkage=1


Tree=5
num_leaves=22
num_cat=0
split_feature=4 4 7 2 7 2 1 0 2 5 4 4 7 1 1 3 2 1 4 4 3
split_gain=66.2157 21.8184 12.0032 7.53122 6.65923 4.28307 10.3161 6.07331 5.9745 5.02377 3.62031 8.21012 4.82537 5.19876 3.01088 8.77839 2.04417 1.91225 1.83383 1.81306 1.62253
threshold=13.536460876464846 95.392303466796889 3.6158258914947514 81.908840179443374 0.25689670443534857 3.0270584821701054 0.29723817110061651 1.0136364102363589 4.5605502128601083 0.26018685102462774 6.4326422214508066 4.0771198272705087 7.9697439670562753 1.3628806471824648 0.3549905270338059 0.18149204552173617 1.7332977056503298 12.210138320922853 0.31726771593093878 1.2358268499374392 3.2568341493606572
decision_type=2 2 2 2 2 2 2 2 2 2 2 2 2 2 2 2 2 2 2 2 2
left_child=2 5 3 -1 -5 6 9 -8 -7 -2 11 12 13 19 15 -10 -15 18 -14 -4 -16
right_child=1 -3 10 4 -6 8 7 -9 14 -11 -12 -13 17 16 20 -17 -18 -19 -20 -21 -22
leaf_value=-2.0440574562893827 -1.9885135562925573 -1.9276745199531817 -2.0039451566171933 -2.0382901455892042 -1.9869853859908142 -2.0478765473540923 -1.9290581901540955 -1.9875760744170448 -2.0280445027838665 -2.0399507990471952 -2.0439419512854173 -1.9835470028118922 -2.0146061813126632 -2.0106853669349012 -2.0311848081638306 -1.9542805933974616 -2.0478698936870869 -2.0083573833981054 -2.040225024118214 -1.9687145028212341 -1.9984466632538875
leaf_weight=140.44990488886833 5.4898985624313372 6.6336274296045294 4.1174239218234998 7.5486105233430845 5.9473901093006134 4.3461696952581432 4.5749154686927778 4.8036612421274185 3.6599323749542254 4.5749154686927795 9.1498309373855573 7.3198647499084464 4.3461696952581468 3.8886781483888626 4.3461696952581388 5.0324070155620575 3.8886781483888626 3.6599323749542227 23.560814663767815 3.6599323749542236 3.6599323749542236
leaf_count=614 24 29 18 33 26 19 20 21 16 20 40 32 19 17 19 22 17 16 103 16 16
internal_value=0 1.05807 -0.249442 -0.400424 0.312796 0.782406 1.12103 1.87582 0.469222 0.417033 0.115958 0.21386 0.0606527 0.516627 0.741229 1.14902 -0.0606689 -0.163816 -0.253111 1.09479 0.297633
internal_weight=0 47.1216 217.537 153.946 13.496 40.488 19.4434 9.37858 21.0446 10.0648 63.5913 54.4415 47.1216 15.5547 16.6984 8.69234 7.77736 31.5669 27.907 7.77736 8.0061
internal_count=1157 206 951 673 59 177 85 41 92 44 278 238 206 68 73 38 34 138 122 34 35
shrinkage=1


Tree=6
num_leaves=22
num_cat=0
split_feature=5 2 5 0 5 3 5 3 5 1 1 1 6 0 2 1 7 4 2 1 5
split_gain=171.606 31.0984 28.4317 16.2167 16.7474 15.9143 15.6017 9.88029 8.13988 7.22259 6.11968 4.95382 1.64203 1.31644 2.1257 3.0282 0.83762 0.761096 2.11084 0.622684 0.181493
threshold=32.234802246093757 9.3529548645019549 80.174797058105483 8.8089208602905291 0.10810978710651399 0.17556553333997729 10.179647922515871 4.484685182571412 5.5073544979095468 0.88351824879646312 0.4457108229398728 0.96884888410568248 0.15123134851455691 16.954289436340336 1.1231498718261721 5.3255825042724618 67.71884918212892 79.824798583984389 0.89586153626441967 0.029938585124909881 0.88762161135673534
decision_type=2 2 2 2 2 2 2 2 2 2 2 2 2 2 2 2 2 2 2 2 2
left_child=1 8 7 4 -3 -6 10 -2 16 -10 -7 -9 19 14 -11 -16 17 20 -19 -4 -1
right_child=2 3 12 -5 5 6 -8 11 9 13 -12 -13 -14 -15 15 -17 -18 18 -20 -21 -22
leaf_value=-1.9823020693478381 -1.878486701700417 -1.9822668155960099 -1.8511044662404301 -1.979343054054584 -1.8560291535848703 -1.9668921984454502 -1.8751989677777754 -1.9156685755183529 -1.9246453082556234 -1.9822509623908926 -1.9212247040851833 -1.9655796042144418 -1.8656822440979561 -1.9822681602875156 -1.973420228247424 -1.9294176292494363 -1.9634889963714766 -1.9822808254051836 -1.9537785003658055 -1.8323240503702309 -1.9796681578704629
leaf_weight=102.5198746919632 6.2865960896015194 6.5283882468938819 3.8686745166778547 12.331400021910666 4.5940509885549572 9.4298941344022769 5.0776353031396857 6.528388246893881 6.2865960896015194 4.5940509885549572 6.5283882468938819 4.3522588312625885 4.3522588312625876 6.7701804041862479 4.1104666739702207 4.1104666739702225 3.8686745166778556 10.397062763571737 5.0776353031396857 7.0119725614786148 55.128611862659454
leaf_count=424 26 27 16 51 19 39 21 27 26 19 27 18 18 28 17 17 16 43 21 29 228
internal_value=0 -0.282667 2.16483 0.474409 0.848349 1.21265 0.843948 1.28176 -0.448734 0.0749632 0.357664 0.704203 3.15959 -0.224103 -0.0350976 0.268799 -0.525324 -0.535613 -0.322938 3.36949 -0.556446
internal_weight=0 247.353 32.4001 44.4898 32.1584 25.63 21.0359 17.1672 202.864 25.8718 15.9583 10.8806 15.2329 19.5852 12.815 8.22093 176.992 173.123 15.4747 10.8806 157.648
internal_count=1157 1023 134 184 133 106 87 71 839 107 66 45 63 81 53 34 732 716 64 45 652
shrinkage=1


Tree=7
num_leaves=22
num_cat=0
split_feature=6 7 4 1 7 2 0 3 5 6 3 6 5 6 4 4 0 7 0 3 7
split_gain=48.216 9.38378 9.32596 8.82718 9.94475 10.6767 5.59513 6.75639 5.83565 6.85122 6.58732 4.66093 4.49805 4.31237 5.24484 4.3225 3.23558 5.20971 2.24735 1.62299 1.50848
threshold=4.0219082832336435 14.73313617706299 1.2358268499374392 0.154073640704155 1.567668676376343 0.32281826436519628 6.8602170944213876 3.0466427803039555 2.1986807584762578 12.768624305725099 1.7189695835113528 0.9952722191810609 1.1731361746788027 0.88853016495704662 0.30094864964485174 37.144823074340827 95.163837432861342 0.72699010372161876 0.35048888623714453 8.0534143447875994 4.7401611804962167
decision_type=2 2 2 2 2 2 2 2 2 2 2 2 2 2 2 2 2 2 2 2 2
left_child=1 13 11 -2 18 -6 8 12 10 -10 -7 -3 -8 16 -15 -16 20 -18 -5 -9 -1
right_child=3 2 -4 4 5 6 7 19 9 -11 -12 -13 -14 14 15 -17 17 -19 -20 -21 -22
leaf_value=-2.0654705407784237 -1.9793775727695144 -2.0287238460166264 -2.0568956240775234 -2.0380256727611403 -1.9614588913482158 -2.0078296518677536 -2.0487820722602907 -2.0642510396890668 -2.0311077713821288 -1.9712161406597843 -2.0689633821218192 -1.9741252494201658 -1.999869958858659 -2.0260026136849993 -2.0639218091381539 -2.026961814224733 -2.0578783827341396 -2.0085562121126381 -2.0689940351300997 -2.0367963699612375 -2.0506602512035128
leaf_weight=112.10874266922474 6.0660041123628607 4.4933363795280474 8.9866727590560895 5.8413372933864576 4.0440027415752402 6.515337750315668 3.5946691036224383 7.6386718451976758 3.819335922598837 7.4140050262212753 3.5946691036224365 3.8193359225988388 7.8633386641740799 10.110006853938101 21.34334780275822 5.1673368364572516 13.030675500631334 3.5946691036224356 6.5153377503156662 4.4933363795280457 9.8853400349616987
leaf_count=499 27 20 40 26 18 29 16 34 17 33 16 17 35 45 95 23 58 16 29 20 44
internal_value=0 -0.236402 0.46608 0.746343 0.632367 0.834646 0.694364 0.358281 1.06551 1.56186 0.513331 1.22963 0.909057 -0.305788 -0.000398725 -0.234289 -0.386417 0.0270536 -0.168842 -0.161339 -0.442821
internal_weight=0 192.539 17.2993 67.4 61.334 48.9774 44.9334 23.59 21.3433 11.2333 10.11 8.31267 11.458 175.24 36.6207 26.5107 138.619 16.6253 12.3567 12.132 121.994
internal_count=1157 857 77 300 273 218 200 105 95 50 45 37 51 780 163 118 617 74 55 54 543
shrinkage=1


Tree=8
num_leaves=17
num_cat=0
split_feature=0 0 0 6 6 7 6 4 0 5 0 7 6 0 5 7
split_gain=118.735 14.7878 13.1195 12.5274 11.3155 9.1184 5.96595 3.72661 5.72457 8.9569 13.4366 6.81598 1.93962 0.512381 0.490151 0.310808
threshold=93.038890838623061 98.874744415283217 74.73288726806642 0.31716933846473699 1.1535460352897646 0.56315052509307872 2.5712723731994633 2.4848166704177861 8.8089208602905291 0.41994833946228033 0.2932289987802506 14.73313617706299 0.28567871451377874 62.461660385131843 0.082347780466079726 2.3416452407836919
decision_type=2 2 2 2 2 2 2 2 2 2 2 2 2 2 2 2
left_child=2 3 6 5 12 -2 13 14 9 10 -9 -10 -4 -1 -8 -14
right_child=1 -3 4 -5 -6 -7 7 8 11 -11 -12 -13 15 -15 -16 -17
leaf_value=-0.019251842878219575 0.10513567970532083 0.18683420609373005 0.033108771831061021 0.16640032928304921 0.091280410986009822 0.02320198376941247 0.0012141429361065066 -0.019164363697700585 0.069156218130133548 -0.019243488393662172 0.098762558729923247 -0.006082197597060723 0.0010785622458903638 -7.4695298991317462e-07 -0.019236843307787566 -0.019164686620911999
leaf_weight=69.1902936398983 3.7842337489128095 2.6343887299299231 2.070836313068865 2.1444224119186401 2.9469715878367424 3.4037645906209946 1.7595249712467183 2.6324063166976037 3.6848310232162467 12.766552843153475 2.4534344524145126 2.769048199057579 1.7705573961138728 1.8943675756454457 11.30449255555868 2.2237061932682991
leaf_count=632 31 19 18 16 24 29 16 24 31 116 20 25 16 17 103 20
internal_value=0 3.0562 -0.250265 2.46419 0.908873 1.8298 -0.346647 -0.0229826 0.208338 -0.0831036 1.03869 1.01556 0.126619 -0.516706 -0.453885 -0.279269
internal_weight=0 11.9668 117.467 9.33242 9.01207 7.188 108.455 37.3703 24.3063 17.8524 5.08584 6.45388 6.0651 71.0847 13.064 3.99426
internal_count=1157 95 1062 76 78 60 984 335 216 160 44 56 54 649 119 36
shrinkage=0.0362726


Tree=9
num_leaves=22
num_cat=0
split_feature=1 0 5 0 2 0 1 6 6 3 0 2 6 0 6 1 7 7 7 4 1
split_gain=81.6709 36.9967 26.2824 21.3276 20.1792 10.7384 9.54989 7.63999 6.34092 5.75266 5.53541 7.2844 3.90251 2.87752 2.71701 1.65971 2.07689 1.28865 1.26376 1.22622 1.06684
threshold=5.1324100494384775 11.355014324188234 0.9750821888446809 1.1642867326736452 2.5011969804763798 88.415008544921889 0.50190019607543956 0.063966054469347014 0.22482345998287204 0.012106646317988636 0.22637886554002765 0.076506566256284728 0.9952722191810609 0.014408743940293791 0.51680052280426036 3.2017902135849003 6.8152942657470712 1.0527426004409792 2.777351021766663 0.14061346650123599 0.25219871103763586
decision_type=2 2 2 2 2 2 2 2 2 2 2 2 2 2 2 2 2 2 2 2 2
left_child=5 2 3 7 12 15 20 9 -8 -2 19 -12 17 -11 -5 -1 -17 -3 -14 -9 -7
right_child=1 4 -4 14 -6 6 8 10 -10 13 11 -13 18 -15 -16 16 -18 -19 -20 -21 -22
leaf_value=-0.019159578004315919 0.0058351515298915094 0.085893167213193858 -0.016453922099228808 0.10226334383666238 0.0055322755924044446 -0.017540353309959577 0.069235356465373543 -0.013863383974863407 0.011466599369053074 0.034969206104419739 0.064215782098408558 0.0024310232053109744 0.051812847884200382 0.077170802238977196 0.060672305628234821 0.017265149481140857 -0.02088766174400334 0.11272484175695718 0.08051456977781786 0.008049770578168523 0.00097501603536787583
leaf_weight=142.8254833817482 4.0404864251613608 4.3926527202129417 24.222729369997978 4.3976477086544019 5.4537126719951621 10.702805146574979 4.0057556480169279 10.257376953959467 6.6846885085105896 3.8762164413928968 4.2417484819889051 6.173342227935791 3.9701451361179334 4.7870209813117981 3.9829120934009552 3.7836060523986808 3.7235693335533142 5.407630980014801 4.273838222026825 4.9812734574079505 6.5918501615524283
leaf_count=616 17 17 104 17 23 46 16 44 28 16 17 26 16 19 16 16 16 21 17 21 28
internal_value=0 0.751828 0.391571 0.829749 1.83947 -0.398227 0.170362 0.513768 0.913522 1.14809 0.199389 0.761393 2.34896 1.60774 2.27517 -0.504118 -0.044826 2.77685 1.83947 -0.184277 -0.288621
internal_weight=0 94.4587 70.9608 46.738 23.498 178.318 27.9851 38.3575 10.6904 12.7037 25.6537 10.4151 18.0443 8.66324 8.38056 150.333 7.50718 9.80028 8.24398 15.2387 17.2947
internal_count=1157 391 297 193 94 766 118 160 44 52 108 43 71 35 33 648 32 38 33 65 74
shrinkage=0.0362726


Tree=10
num_leaves=20
num_cat=0
split_feature=1 0 6 1 4 6 5 6 0 0 6 1 7 2 4 4 6 4 6
split_gain=144.54 25.4084 15.8001 16.2079 9.50746 8.23317 6.90414 9.39071 6.58976 5.55883 4.73657 3.49812 2.89787 6.5683 1.87385 0.930692 0.0709356 0.0369889 0.230283
threshold=85.593006134033217 0.19502614438533786 81.916858673095717 3.5626131296157841 14.096086025238039 1.9687061309814455 0.08994643017649652 0.10105698183178903 0.52281665802001964 0.011375192087143661 31.714530944824222 97.752429962158217 1.4989404082298281 0.56052479147911083 0.1242213509976864 2.8083034753799443 0.41347521543502813 66.177059173583999 8.1829190254211444
decision_type=2 2 2 2 2 2 2 2 2 2 2 2 2 2 2 2 2 2 2
left_child=2 6 3 17 10 11 7 9 -4 -2 12 14 13 -5 -3 -14 -9 -1 -19
right_child=1 5 8 4 -6 -7 -8 16 -10 -11 -12 -13 15 -15 -16 -17 -18 18 -20
leaf_value=-0.020690114301913459 0.097886659133140944 -0.013129123534441275 0.070157737570233136 -0.020654215935941619 0.050921824406115868 0.072921581502650198 0.043417461454709184 0.12537217681853061 0.0049936226885947477 0.049973423053202522 0.028402612042944045 0.037972354680085918 -0.018596061134876565 0.03088866804483192 0.017674951035754411 -0.0016755911218580787 0.11670436354888919 -0.020684362397158873 -0.010245805878773682
leaf_weight=133.36418934166431 5.7901705056428963 4.8081627637147957 3.9775363951921445 6.0671848952770215 5.0470228493213645 4.245348945260047 5.0705564320087424 4.205296114087103 4.2133434265851974 7.1592343151569366 5.8866978734731665 6.1593814939260474 17.359504818916324 7.0068342387676239 5.6443614959716797 5.7188777625560752 3.9439959526062012 16.057638898491863 3.4879817664623252
leaf_count=616 24 22 17 28 22 18 22 17 19 31 26 27 80 31 25 26 16 74 16
internal_value=0 1.59094 -0.350155 -0.405931 0.106956 0.7671 2.2473 2.4994 1.01089 1.96888 -0.0485843 0.448959 -0.184184 0.191623 0.0959832 -0.397374 3.34157 -0.563911 -0.519239
internal_weight=0 47.0265 208.187 199.996 47.0861 20.8573 26.1693 21.0987 8.19088 12.9494 42.0391 16.6119 36.1524 13.074 10.4525 23.0784 8.14929 152.91 19.5456
internal_count=1157 202 955 919 213 92 110 88 36 55 191 74 165 59 47 106 33 706 90
shrinkage=0.0362726


Tree=11
num_leaves=22
num_cat=0
split_feature=2 5 1 5 2 3 1 6 4 6 2 5 0 1 2 3 7 0 7 6 6
split_gain=96.8429 33.775 9.2806 15.4362 8.69702 13.3283 8.4198 7.55564 8.61682 6.93311 4.67682 3.00846 2.43236 1.9057 1.70077 1.68872 1.33895 1.19222 1.84955 0.975852 0.802398
threshold=6.1999151706695566 0.64694771170616161 0.072320938110351576 0.10810978710651399 1.0266793966293337 0.30351534485816961 0.59267309308052074 0.88853016495704662 2.1122466325759892 0.72707021236419689 3.1453286409378056 8.030497074127199 0.85824915766716015 0.015625727828592065 1.3176071643829348 0.44719699025154119 7.9697439670562753 6.1702816486358651 20.986722946166996 0.34923495352268225 1.2632464766502383
decision_type=2 2 2 2 2 2 2 2 2 2 2 2 2 2 2 2 2 2 2 2 2
left_child=4 2 3 -2 13 -6 11 8 -8 10 14 12 -3 -1 -7 -4 -9 -11 20 -16 -19
right_child=1 6 15 -5 5 9 7 16 -10 17 -12 -13 -14 -15 19 -17 -18 18 -20 -21 -22
leaf_value=0.0028225920820691285 0.088294913958814711 -0.0055296448170165137 0.11823315387894603 0.0070200289187812822 0.045859271415299614 0.021300750101025681 0.021242384445040445 0 0.092120461522020677 -0.020893467610785733 0.04518084684754118 -0.020868419112692889 0.032810261375153554 -0.017900255201995067 0.0027593840302183315 0.087996953050800325 0.027044709927030008 -0.0015198169614943954 0.0085757163823012017 -0.020849284367767319 -0.017152038177821662
leaf_weight=6.0863095968961707 7.6091855466365832 4.7059725672006589 4.6734108924865705 5.1708348989486694 7.0364376008510581 4.2780261039733913 4.2834227681159991 5.176238074898718 4.7953331023454666 18.62116277217865 4.3726720213890067 6.2093423306941977 4.037356898188591 132.58698755502701 6.1002042144536954 5.3078501224517822 4.5208640247583389 5.607699975371367 6.1238368302583686 3.6872664242982864 19.348904445767403
leaf_count=26 30 20 18 22 29 18 18 22 19 81 18 27 17 576 26 21 19 24 26 16 84
internal_value=0 1.15226 2.09362 1.52815 -0.319882 -0.0458849 0.516788 0.962677 1.61849 -0.18128 0.342237 -0.0426548 0.33486 -0.46837 0.0609205 2.81697 0.347986 -0.375629 -0.255356 -0.168438 -0.3763
internal_weight=0 56.4898 22.7613 12.78 213.85 75.1762 33.7285 18.7759 9.07876 68.1398 18.4382 14.9527 8.74333 138.673 14.0655 9.98126 9.6971 49.7016 31.0804 9.78747 24.9566
internal_count=1157 233 91 52 924 322 142 78 37 293 78 64 37 602 60 39 41 215 134 42 108
shrinkage=0.0362726


Tree=12
num_leaves=22
num_cat=0
split_feature=3 2 0 7 5 5 1 6 3 3 7 4 4 4 3 6 3 1 7 1 3
split_gain=113.989 21.1313 8.28076 10.9184 7.63212 7.54678 6.18612 7.69744 5.09234 4.54634 4.5182 3.89657 2.60975 2.33704 4.80732 2.06437 1.25058 2.47489 2.2095 1.96722 1.16529
threshold=7.1717832088470468 0.69108062982559215 13.114885330200197 24.195921897888187 45.92039871215821 30.730147361755375 0.30992542207241064 0.097397349774837508 14.245955467224123 3.3714138269424443 78.19944000244142 1.428401052951813 0.21653757244348529 3.3334169387817387 52.980607986450202 85.50901031494142 0.43800203502178198 0.22926306724548343 2.6996929645538335 85.593006134033217 0.27066151797771459
decision_type=2 2 2 2 2 2 2 2 2 2 2 2 2 2 2 2 2 2 2 2 2
left_child=2 4 10 6 -2 8 7 -4 -3 -8 15 -11 -9 14 -10 16 -1 18 -18 -19 -17
right_child=1 5 3 -5 -6 -7 9 12 13 11 -12 -13 -14 -15 -16 20 17 19 -20 -21 -22
leaf_value=-0.02012337005105614 0.11191459218070672 0.024839406396070816 -0.0091862910651530055 0.056128165347946908 0.053312511303689164 -0.0011579838286455224 -0.014722272491841245 0.02067275428952935 0.095030069106277926 0.038790684263743803 0.022185678756184032 -0.0076857283385791285 0.05968431901299328 0.038374536960098009 0.041606848876150661 -0.01176768702396994 -0.0092813453065122911 -0.01958437274721898 0.022619632116013297 -0.001234188767393654 0.01632111386113759
leaf_weight=78.485646575689316 8.9701362848281843 8.6597525179386192 9.1596351712942141 4.2172994166612616 4.3673469126224509 5.4410041421651831 45.665576621890068 5.1914317458868009 4.9796709567308408 4.2264735549688321 4.1771559268236151 5.3982816487550735 4.0286027938127518 4.2541462481021872 4.0333135426044464 3.897577539086341 9.2143559455871564 49.098143324255943 4.1393844783306113 9.1474894285202009 3.869902640581131
leaf_count=329 34 35 38 17 17 22 190 21 19 17 17 22 16 17 16 16 38 205 17 38 16
internal_value=0 1.52442 -0.285401 -0.017351 2.55686 1.02103 -0.107018 0.395427 1.28262 -0.274165 -0.41421 0.350064 1.0406 1.67232 1.96155 -0.4414 -0.467421 -0.371562 0.0162352 -0.460588 0.0605149
internal_weight=0 40.7054 239.917 77.8873 13.3375 27.3679 73.67 18.3797 21.9269 55.2903 162.03 9.62476 9.22003 13.2671 9.01298 157.852 150.085 71.5994 13.3537 58.2456 7.76748
internal_count=1157 160 997 321 51 109 304 75 87 229 676 39 37 52 35 659 627 298 55 243 32
shrinkage=0.0362726


Tree=13
num_leaves=22
num_cat=0
split_feature=4 4 7 2 7 2 1 2 0 5 4 4 7 1 1 3 1 7 2 4 4
split_gain=61.8521 18.1682 11.713 7.35889 6.20472 3.80749 9.06795 5.64673 4.93258 4.66005 3.50194 7.59337 4.11764 4.78719 2.72526 7.68433 2.34391 2.54121 1.98137 1.63711 1.59093
threshold=13.536460876464846 95.392303466796889 3.6158258914947514 81.908840179443374 0.25689670443534857 3.0270584821701054 0.29723817110061651 4.5605502128601083 1.0136364102363589 0.26018685102462774 6.4326422214508066 4.5305943489074716 7.9697439670562753 1.3628806471824648 0.3549905270338059 0.18149204552173617 10.821193218231203 65.162868499755874 1.7332977056503298 40.111270904541023 1.2358268499374392
decision_type=2 2 2 2 2 2 2 2 2 2 2 2 2 2 2 2 2 2 2 2 2
left_child=2 5 3 -1 -5 6 9 -7 -8 -2 11 12 13 20 15 -9 17 -14 -15 -16 -4
right_child=1 -3 10 4 -6 7 8 14 -10 -11 -12 -13 16 18 19 -17 -18 -19 -20 -21 -22
leaf_value=-0.016899326956182601 0.036375648391309016 0.089530775076015617 0.022245055235641568 -0.01111494054382064 0.038092599645759936 -0.020779328664643659 0.088876463661416896 -0.00094517638099035487 0.037531136426321235 -0.01284699170969943 -0.016795441733041035 0.046395900393901665 -0.013177199418390056 0.015883559170381728 -0.0044207009814054869 0.067291576194364017 0.020232157563098405 0.015232452306394299 -0.020765318508006701 0.028315668803963277 0.054737865864583582
leaf_weight=138.37686695158482 5.6833588182926196 7.2031363546848288 4.1923812329769117 7.4757261723279935 6.1334549486637115 4.2861923873424557 4.9407543540000898 3.6515856832265872 4.9530424177646637 4.552168607711792 9.030425012111662 5.9149997979402533 23.628376752138141 3.9343283027410498 4.4062964618206006 5.3310358226299286 4.3996142745017996 5.0158475637435904 3.8275160193443298 3.6794163286685944 3.8251305371522903
leaf_count=614 24 29 18 33 26 19 20 16 21 20 40 25 104 17 19 22 19 22 17 16 16
internal_value=0 1.00189 -0.24594 -0.396873 0.304475 0.747105 1.0594 0.452415 1.74227 0.398656 0.113688 0.208956 0.0791691 0.499507 0.71028 1.08966 -0.121349 -0.225897 -0.0594677 0.287976 1.0415
internal_weight=0 48.687 215.755 151.986 13.6092 41.4839 20.1293 21.3545 9.8938 10.2355 63.7686 54.7382 48.8232 15.7794 17.0683 8.98262 33.0438 28.6442 7.76184 8.08571 8.01751
internal_count=1157 206 951 673 59 177 85 92 41 44 278 238 213 68 73 38 145 126 34 35 34
shrinkage=0.0362726


Tree=14
num_leaves=22
num_cat=0
split_feature=5 2 3 0 5 4 1 5 5 1 3 1 7 0 2 1 7 7 4 2 5
split_gain=155.703 30.0885 22.522 15.1971 15.413 13.8376 9.40487 8.0312 7.12071 6.79145 6.2816 5.04773 2.68117 1.29136 2.06354 2.85405 0.83226 0.784536 0.761063 2.07283 0.182011
threshold=32.234802246093757 9.3529548645019549 3.987642884254456 8.8089208602905291 0.10810978710651399 0.6402844786643983 0.96884888410568248 5.5073544979095468 10.179647922515871 0.88351824879646312 2.0027798414230351 0.59267309308052074 1.8692842125892641 16.954289436340336 1.1231498718261721 5.3255825042724618 67.71884918212892 0.20965644717216494 79.824798583984389 0.89586153626441967 0.88762161135673534
decision_type=2 2 2 2 2 2 2 2 2 2 2 2 2 2 2 2 2 2 2 2 2
left_child=1 7 11 4 -3 -6 12 16 10 -9 -7 17 -4 14 -11 -16 18 -2 20 -20 -1
right_child=2 3 6 -5 5 8 -8 9 -10 13 -12 -13 -14 -15 15 -17 -18 -19 19 -21 -22
leaf_value=-0.02103048187103964 0.098694093153927687 -0.020996002197352134 0.078781908178150312 -0.018034195305883668 0.093744412644539032 0.032996391084199606 -0.0053355967319286268 0.034918483982324854 0.069647614627082285 -0.020986685627106358 -0.014440892146124575 0.067715529212328721 0.040196661220164707 -0.020991659801284365 -0.012113462926109249 0.03044310197720785 -0.0022266396081731996 0.11603701368090967 -0.02101514019264486 0.0072586064814959368 -0.018372467620232071
leaf_weight=100.69812124967575 6.6356503665447253 6.4148477762937537 4.3444401025772077 12.140386477112768 5.3556226044893291 11.372032776474958 4.6107817292213431 6.4569793194532421 4.380320966243743 4.5214416235685375 5.4162480235099784 5.695168435573577 5.3047797977924347 6.6427455097436896 4.0764835923910123 4.2089811712503433 3.8579594492912284 7.910294771194458 10.22853049635887 5.1028497070074073 54.339340195059776
leaf_count=424 25 27 17 51 21 46 19 26 17 19 22 22 21 28 17 17 16 30 43 21 228
internal_value=0 -0.27915 1.98976 0.458849 0.811421 1.14791 1.02639 -0.445416 0.784148 0.0738513 0.487352 2.66812 1.58783 -0.220874 -0.0347354 0.261228 -0.522667 2.98138 -0.533073 -0.319486 -0.55415
internal_weight=0 245.213 34.5011 45.0795 32.9391 26.5242 14.26 200.133 21.1686 25.9066 16.7883 20.2411 9.64922 19.4497 12.8069 8.28546 174.227 14.5459 170.369 15.3314 155.037
internal_count=1157 1023 134 184 133 106 57 839 85 107 68 77 38 81 53 34 732 55 716 64 652
shrinkage=0.0362726


Tree=15
num_leaves=22
num_cat=0
split_feature=6 7 4 1 7 2 0 3 5 3 6 6 4 4 5 6 0 7 0 3 7
split_gain=45.4086 9.02352 8.58874 7.70325 9.16486 9.09768 5.02008 6.23769 5.14745 6.11323 5.83883 4.21363 4.9927 4.1752 4.03912 4.02804 3.17784 4.89791 2.19404 1.58253 1.49919
threshold=4.0219082832336435 14.73313617706299 1.2358268499374392 0.154073640704155 1.567668676376343 0.32281826436519628 6.8602170944213876 3.0466427803039555 2.1986807584762578 1.7189695835113528 12.768624305725099 0.88853016495704662 0.30094864964485174 37.144823074340827 1.1731361746788027 0.9952722191810609 95.163837432861342 0.72699010372161876 0.35048888623714453 8.0534143447875994 4.7401611804962167
decision_type=2 2 2 2 2 2 2 2 2 2 2 2 2 2 2 2 2 2 2 2 2
left_child=1 11 15 -2 18 -6 8 14 9 -7 -10 16 -13 -14 -8 -3 20 -18 -5 -9 -1
right_child=3 2 -4 4 5 6 7 19 10 -11 -12 12 13 -15 -16 -17 17 -19 -20 -21 -22
leaf_value=-0.017148818779170679 0.063764292291372579 0.018765247791049662 -0.0085757872788776498 0.0099186815760187504 0.079071035728357011 0.038090082656486439 -0.00061937600622594873 -0.015936417416880365 0.016475086007620151 -0.020702037233156185 0.070931845523697273 0.021395544257099101 -0.01561020861926503 0.020523796171094483 0.045401343869210228 0.06856350354744857 -0.0095571136038391392 0.037745876889079877 -0.02072901269688638 0.011181444987374034 -0.0023412240763597304
leaf_weight=110.37375298142433 6.4133992344140998 4.568182051181795 8.9243054986000043 5.8864537179470044 4.3429561406373969 6.7532719671726245 3.6017981618642834 7.5440471023321134 3.8777605593204481 3.54436294734478 7.8836522549390793 10.288752570748327 21.096305996179584 5.2504352182149878 8.1932051479816419 4.0453427284955978 12.93307548761368 3.7046879529952994 6.4169462323188782 4.5226143896579742 9.8365262150764448
leaf_count=499 27 20 40 26 18 29 16 34 17 16 33 45 95 23 35 17 58 16 29 20 44
internal_value=0 -0.232969 0.450454 0.713599 0.606443 0.795821 0.664773 0.346438 1.00881 0.491568 1.46111 -0.302097 -0.000702713 -0.23158 0.863664 1.1629 -0.382733 0.0264924 -0.16668 -0.158583 -0.439428
internal_weight=0 191.021 17.5378 68.9805 62.5671 50.2637 45.9207 23.8617 22.059 10.2976 11.7614 173.484 36.6355 26.3467 11.795 8.61352 136.848 16.6378 12.3034 12.0667 120.21
internal_count=1157 857 77 300 273 218 200 105 95 45 50 780 163 118 51 37 617 74 55 54 543
shrinkage=0.0362726


Tree=16
num_leaves=18
num_cat=0
split_feature=0 0 7 6 6 3 6 4 0 5 0 7 1 6 7 0 5
split_gain=103.364 12.4432 10.7079 14.0539 9.60979 8.32559 5.90633 3.60885 5.30615 7.27056 10.9534 6.64316 9.32996 3.39077 1.86144 0.512561 0.49015
threshold=93.038890838623061 74.73288726806642 0.56315052509307872 0.1277713626623154 1.1535460352897646 0.13080395013093951 2.5712723731994633 2.4848166704177861 7.6022450923919687 0.35820372402668005 0.2932289987802506 14.207494735717775 2.0185955762863164 0.22482345998287204 2.277347326278687 62.461660385131843 0.082347780466079726
decision_type=2 2 2 2 2 2 2 2 2 2 2 2 2 2 2 2 2
left_child=1 6 3 5 14 -2 15 16 9 10 -9 12 -10 -4 -3 -1 -8
right_child=2 4 13 -5 -6 -7 7 8 11 -11 -12 -13 -14 -15 -16 -17 -18
leaf_value=-0.019227738047721151 0.13059219933054114 0.021444440567525015 0.030819779415935559 0.19489317700411748 0.082020732467049648 0.040678667085052113 0.001295903178166447 -0.019136183864011176 0.11518740968146179 -0.019218058730222243 0.090713900028614264 -0.007825349612254489 0.010913408104850357 0.089954189245022784 -0.019173731725238629 -0 -0.01921391773723434
leaf_weight=67.866137370467186 3.1326832771301252 3.5534766390919668 2.8849991261959067 2.5337076485157013 3.2117554545402527 2.404990129172802 1.7529266402125347 2.4780171886086526 2.1517585292458525 11.983665056526659 2.3001990765333176 3.1929044649004936 2.3872774243354797 2.3131521642208099 2.5455465763807297 1.8888804763555516 11.102059632539747
leaf_count=632 20 31 24 17 24 18 16 23 16 111 17 29 20 16 23 17 103
internal_value=0 -0.247512 2.69823 3.41985 0.861128 2.52498 -0.343952 -0.0228354 0.202166 -0.11359 0.928895 0.887562 1.66515 1.57644 0.122719 -0.515789 -0.452078
internal_weight=0 116.415 13.2695 8.07138 9.31078 5.53767 107.104 37.3488 24.4938 16.7619 4.77822 7.73194 4.53904 5.19815 6.09902 69.755 12.855
internal_count=1157 1062 95 55 78 38 984 335 216 151 40 65 36 40 54 649 119
shrinkage=0.0362726


Tree=17
num_leaves=22
num_cat=0
split_feature=1 0 5 0 2 0 1 6 6 0 2 3 2 6 1 6 0 1 5 4 1
split_gain=77.3746 32.5592 24.6612 18.3848 17.2119 10.5004 8.93707 6.96089 5.59575 5.15137 6.50517 5.12546 3.80832 2.41801 2.38365 2.14756 1.78134 1.65386 2.04381 1.19277 1.04455
threshold=5.1324100494384775 11.355014324188234 0.9750821888446809 1.1642867326736452 3.0270584821701054 88.415008544921889 0.50190019607543956 0.063966054469347014 0.22482345998287204 0.22637886554002765 0.076506566256284728 0.012106646317988636 0.77839672565460216 0.031369300559163101 20.207413673400882 0.51680052280426036 46.552867889404304 2.5681726932525639 2.6200869083404545 0.14061346650123599 0.25219871103763586
decision_type=2 2 2 2 2 2 2 2 2 2 2 2 2 2 2 2 2 2 2 2 2
left_child=5 2 3 7 12 17 20 11 -8 19 -11 -2 16 -13 -14 -5 -3 -1 -19 -9 -7
right_child=1 4 -4 15 -6 6 8 9 -10 10 -12 13 14 -15 -16 -17 -18 18 -20 -21 -22
leaf_value=-0.01927879135215415 0.005603080732875773 0.10013515780739958 -0.016350990518903461 0.09238017455457069 -0.0040711212181747574 -0.017440868626668354 0.064290460347481648 -0.013735314909827708 0.011029440998483908 0.059718642653390538 0.0022694128674855762 0.075216172025081435 0.076138002681949479 0.037420912043920264 0.03801622418301636 0.056527183004542084 0.070587142796855004 0.016687243372819908 -0.01595162626561757 0.007881329549506811 0.00091521436134222288
leaf_weight=136.67914991080761 4.0710228681564322 7.4390947222709709 23.923962697386742 4.7625854313373548 4.2882034480571738 10.556137144565588 4.2250580191612226 10.137903377413751 6.7653402537107468 4.4643588066101056 6.2097721695899963 4.1272177994251233 4.4563568979501706 4.927087128162384 4.2580305635929108 4.1831232011318207 4.3243295550346375 3.8359338045120221 7.3629934638738632 5.0066742599010459 6.6069931089878073
leaf_count=600 17 27 104 17 18 46 16 44 28 17 26 16 17 19 16 16 16 16 32 21 28
internal_value=0 0.719234 0.378141 0.792382 1.70802 -0.394632 0.164936 0.495195 0.86917 0.193437 0.725619 1.08827 2.08953 1.50737 1.5863 2.08539 2.46175 -0.50121 -0.130953 -0.181206 -0.285624
internal_weight=0 96.5797 71.8137 47.8897 24.766 176.032 28.1535 38.944 10.9904 25.8187 10.6741 13.1253 20.4778 9.0543 8.71439 8.94571 11.7634 147.878 11.1989 15.1446 17.1631
internal_count=1157 391 297 193 94 766 118 160 44 108 43 52 76 35 33 33 43 648 48 65 74
shrinkage=0.0362726


Tree=18
num_leaves=21
num_cat=0
split_feature=1 0 6 1 4 6 0 5 6 3 0 6 1 7 2 4 6 5 4 7
split_gain=133.21 21.9833 15.162 15.347 8.95318 7.8562 5.82301 5.65081 7.21655 4.89292 5.54123 4.62444 3.45926 2.44834 4.98577 1.92603 0.934872 0.0518166 0.0372878 0.232365
threshold=82.88339996337892 0.19502614438533786 81.916858673095717 3.5626131296157841 14.096086025238039 1.9687061309814455 0.64224296808242809 0.08994643017649652 0.10105698183178903 0.012106646317988636 0.014408743940293791 31.714530944824222 97.752429962158217 1.4989404082298281 0.56052479147911083 0.1242213509976864 3.0650322437286381 0.045464562252163894 66.177059173583999 2.9311989545822148
decision_type=2 2 2 2 2 2 2 2 2 2 2 2 2 2 2 2 2 2 2 2
left_child=2 7 3 18 11 12 -4 8 9 -2 -11 13 15 14 -5 -3 -15 -10 -1 -20
right_child=1 5 6 4 -6 -7 -8 -9 17 10 -12 -13 -14 16 -16 -17 -18 -19 19 -21
leaf_value=-0.020628491181811957 0.098347868218458881 -0.013648733412766369 0.06065815259255837 -0.020588894823584093 0.048149134535139942 0.066565928925332432 -0.00031488757672862468 0.04071639666395363 0.11137262780825101 0.076702571699292357 0.02093031502043146 0.027128738843159122 0.036022527229595536 -0.020636812980053598 0.026068411394166748 0.016810618253924398 -0.005739430223245281 0.10401383279544325 -0.02062875681748115 -0.010077116666835773
leaf_weight=130.91161331534386 4.2439802736043992 5.1883116215467506 4.8744840174913389 5.3213434517383558 5.2386733293533316 4.9557159245014182 3.5562243312597275 5.2791914045810691 4.6332752108573896 5.1735185682773572 4.3124407231807709 6.0314617604017249 6.3569189757108679 13.061413884162905 6.9406546950340271 5.7621380686759949 9.7233342379331571 4.3286385834217072 15.793937385082247 3.4458242803812018
leaf_count=616 17 24 20 25 22 20 16 22 17 20 18 26 27 61 30 25 45 16 74 16
internal_value=0 1.4666 -0.350514 -0.406888 0.0962104 0.724635 0.962421 2.05691 2.274 1.81712 1.41632 -0.0606405 0.406261 -0.199984 0.159914 0.0649682 -0.393967 2.9732 -0.562123 -0.516968
internal_weight=0 50.2341 204.899 196.468 46.3169 22.2631 8.43071 27.971 22.6919 13.7299 9.48596 41.0782 17.3074 35.0467 12.262 10.9504 22.7847 8.96191 150.151 19.2398
internal_count=1157 206 951 915 209 96 36 110 88 55 38 187 76 161 55 49 106 33 706 90
shrinkage=0.0362726


Tree=19
num_leaves=22
num_cat=0
split_feature=2 5 2 6 1 1 5 6 4 5 2 3 5 5 1 1 7 2 3 7 2
split_gain=90.7489 29.0782 8.54212 12.5941 7.70194 7.58622 13.0453 6.7302 7.26991 5.51642 6.93728 3.2051 2.9261 2.91343 2.32256 1.88166 1.39782 2.38181 1.27732 1.23635 0.529501
threshold=6.1999151706695566 0.64694771170616161 1.0266793966293337 1.0236565470695498 0.59267309308052074 0.072320938110351576 0.10181488841772081 0.88853016495704662 2.1122466325759892 39.284976959228523 3.4540257453918461 0.3526280969381333 8.030497074127199 1.9555703997612002 0.24071224778890613 0.015625727828592065 20.986722946166996 2.3016117811203007 0.44719699025154119 7.9697439670562753 0.45478531718254095
decision_type=2 2 2 2 2 2 2 2 2 2 2 2 2 2 2 2 2 2 2 2 2
left_child=2 5 15 9 12 6 -2 8 -6 10 11 -4 14 -13 -3 -1 -5 -18 -7 -9 -17
right_child=1 4 3 16 7 18 -8 19 -10 -11 -12 13 -14 -15 -16 20 17 -19 -20 -21 -22
leaf_value=0.0027927748049961041 0.082901902197406077 -0.005493936331864002 0.041724662025235434 -0.01757156130088388 0.020461156204107985 0.10612094494464415 0.010468714539526683 -0 0.084249479301504449 -0.014780441856483324 0.058532160555724348 -0.0060162698471919063 -0.020801374973927048 0.029953387442568334 0.031812499113252624 -0.019281108386419485 -0.020876524411284524 0.01121096363601568 0.080760756909805678 0.025748162997238821 -0.014160972952268846
leaf_weight=6.0928358137607566 7.6293856203556079 4.697120785713194 4.026237294077883 33.028757855296135 4.3567501902580279 5.0991435647010785 5.7421007007360458 5.1875615268945676 5.1368584930896759 5.8739960044622412 5.9114953428506842 9.687801778316496 6.0987649708986273 4.2639961689710608 4.1079459190368652 92.608009830117226 5.533517122268675 6.7565376609563828 5.6667454540729523 4.6358661353588104 37.928164124488831
leaf_count=26 28 20 16 145 18 18 24 22 19 25 24 41 27 18 17 409 24 29 21 19 167
internal_value=0 1.0921 -0.316329 -0.0452635 0.499 1.93269 1.4285 0.915724 1.51635 0.460006 0.673589 0.364095 -0.0406666 0.136723 0.327609 -0.465239 -0.377253 -0.0886681 2.55827 0.334572 -0.490599
internal_weight=0 58.3582 211.711 75.0823 34.2209 24.1374 13.3715 19.317 9.49361 29.7635 23.8895 17.978 14.9038 13.9518 8.80507 136.629 45.3188 12.2901 10.7659 9.82343 130.536
internal_count=1157 233 924 322 142 91 52 78 37 124 99 75 64 59 37 602 198 53 39 41 576
shrinkage=0.0362726


Tree=20
num_leaves=22
num_cat=0
split_feature=3 2 0 7 5 5 1 6 3 7 3 4 2 7 6 3 3 1 0 1 4
split_gain=105.599 17.6802 8.10419 10.1014 6.81836 5.99448 5.94017 7.17585 4.43658 4.39098 4.38213 3.61093 2.40631 2.07735 2.03808 1.5892 1.24786 2.44695 2.12932 1.93487 1.15339
threshold=7.1717832088470468 0.69108062982559215 13.114885330200197 24.195921897888187 30.730147361755375 45.92039871215821 0.30992542207241064 0.097397349774837508 14.245955467224123 78.19944000244142 3.3714138269424443 1.428401052951813 4.7978270053863534 5.1439342498779306 85.50901031494142 31.552842140197757 0.43800203502178198 0.22926306724548343 0.64224296808242809 85.593006134033217 1.2358268499374392
decision_type=2 2 2 2 2 2 2 2 2 2 2 2 2 2 2 2 2 2 2 2 2
left_child=2 5 9 6 8 -2 7 -4 -3 14 -8 -12 -9 -10 16 -15 -1 18 -18 -19 -16
right_child=1 4 3 -5 -6 -7 10 12 13 -11 11 -13 -14 15 20 -17 17 19 -20 -21 -22
leaf_value=-0.020037019380331391 0.10079657832885144 0.023788213220024185 -0.0090857862158683772 0.052779805492673693 -0.001204443227771079 0.050219046948112474 -0.014595340923979004 0.051715206572199156 0.074716708071570159 0.021515980895383986 0.03673744353901192 -0.0076319438359939203 0.014648131792215434 0.061046867498027367 0.01621451129786541 0.029729922881105125 -0.0091580928385806837 -0.019497296780100874 0.022073698583892205 -0.0012944520702646406 -0.011731460646561956
leaf_weight=77.109828591346741 9.7500426769256574 8.8435983210802132 9.1020410954952258 4.396815448999404 5.4513184428215018 4.5438524186611167 45.111169248819351 5.4517581164836866 5.2749121487140647 4.236600548028945 4.3652007579803449 5.3817390352487564 4.0299743264913559 4.3806349635124189 3.8797508776187888 4.2409575879573822 9.1433422714471799 48.320796996355057 4.186830222606658 9.1703440845012647 3.8870451152324677
leaf_count=329 34 35 38 17 22 17 190 21 20 17 17 22 16 16 16 16 38 205 17 38 16
internal_value=0 1.42979 -0.28183 -0.0171048 0.970032 2.33609 -0.105334 0.383146 1.21083 -0.410627 -0.270936 0.336723 0.992119 1.56354 -0.437985 1.25909 -0.464206 -0.368083 0.0174501 -0.457593 0.0605624
internal_weight=0 42.4853 237.773 77.8387 28.1914 14.2939 73.4419 18.5838 22.7401 159.935 54.8581 9.74694 9.48173 13.8965 155.698 8.62159 147.931 70.8213 13.3302 57.4911 7.7668
internal_count=1157 160 997 321 109 51 304 75 87 676 229 39 37 52 659 32 627 298 55 243 32
shrinkage=0.0362726


Tree=21
num_leaves=22
num_cat=0
split_feature=4 4 7 2 7 2 1 2 5 0 4 4 7 1 1 3 2 1 7 3 4
split_gain=57.9127 15.3366 11.4143 7.20728 5.79985 3.40377 8.03129 5.34383 4.33155 4.07553 3.39191 7.07166 4.36103 4.40844 2.49513 6.83951 1.92349 1.75672 1.77699 1.53062 1.39764
threshold=13.536460876464846 95.392303466796889 3.6158258914947514 81.908840179443374 0.25689670443534857 3.0270584821701054 0.29723817110061651 4.5605502128601083 0.26018685102462774 1.0136364102363589 6.4326422214508066 4.0771198272705087 7.9697439670562753 1.3628806471824648 0.3549905270338059 0.18149204552173617 1.7332977056503298 12.210138320922853 67.71884918212892 3.2568341493606572 1.2358268499374392
decision_type=2 2 2 2 2 2 2 2 2 2 2 2 2 2 2 2 2 2 2 2 2
left_child=2 5 3 -1 -5 6 8 -7 -2 -8 11 12 13 20 15 -9 -15 18 -14 -16 -4
right_child=1 -3 10 4 -6 7 9 14 -10 -11 -12 -13 17 16 19 -17 -18 -19 -20 -21 -22
leaf_value=-0.016786817274309421 0.034421885828392437 0.081460183093962205 0.021434221994141401 -0.010966819153951885 0.036369955318457339 -0.020726936372309358 0.081336055244378133 -0.00093623934117917514 -0.012776859929168369 0.035759662180791199 -0.016704316901834187 0.039443756824876101 -0.012964102626915577 0.015454850085562423 -0.0044030615134328516 0.062808677070887997 -0.020708051948612055 0.017445766959217304 0.012233049353401306 0.027050068807372533 0.051444688430231283
leaf_weight=136.32410815358162 5.8696155995130557 7.7438058853149405 4.2656927555799466 7.393551290035246 6.3052729219198227 4.2244581729173687 5.287964850664137 3.6501907408237475 4.5249957293272018 5.0971066206693649 8.9233902096748334 7.780449926853179 23.119863197207458 3.9761429280042639 4.4023243933916074 5.6014227867126465 3.7670207619667053 3.7675458937883368 4.3703100830316535 3.7691580206155777 3.9891327470541
leaf_count=614 24 29 18 33 26 19 20 16 20 21 40 32 103 17 19 22 17 16 19 16 16
internal_value=0 0.951226 -0.242484 -0.393297 0.297838 0.714784 1.00413 0.436724 0.381876 1.62631 0.111156 0.203969 0.058368 0.483105 0.681551 1.03747 -0.0580749 -0.1588 -0.246726 0.277754 0.991562
internal_weight=0 50.171 213.982 150.023 13.6988 42.4272 20.7797 21.6476 10.3946 10.3851 63.9595 55.0362 47.2557 15.998 17.4231 9.25161 7.74316 31.2577 27.4902 8.17148 8.25483
internal_count=1157 206 951 673 59 177 85 92 44 41 278 238 206 68 73 38 34 138 122 35 34
shrinkage=0.0362726


Tree=22
num_leaves=22
num_cat=0
split_feature=5 1 2 3 5 3 5 5 3 1 1 4 2 2 3 7 7 5 7 3 1
split_gain=143.064 28.0071 24.1916 15.3305 12.2565 14.9168 9.41269 8.7853 6.3937 3.49209 1.99225 1.57335 3.70934 1.3482 2.34876 1.20106 0.902959 0.76493 0.63242 0.629877 0.219126
threshold=18.781988143920902 0.96884888410568248 47.54944038391114 8.9153852462768572 0.11258206889033319 0.21063710749149325 3.5855128765106206 5.5073544979095468 3.987642884254456 1.1745240092277529 0.3662471622228623 28.815082550048832 3.0270584821701054 1.7332977056503298 5.2875425815582284 3.2571008205413823 67.71884918212892 97.242206573486342 2.4182770252227788 10.384963512420656 79.952724456787124
decision_type=2 2 2 2 2 2 2 2 2 2 2 2 2 2 2 2 2 2 2 2 2
left_child=2 3 7 10 -4 -6 18 11 -3 -9 17 16 -13 -11 -15 -14 20 -2 -7 -10 -1
right_child=1 8 4 -5 5 6 -8 9 19 13 -12 12 15 14 -16 -17 -18 -19 -20 -21 -22
leaf_value=-0.020971862874495345 0.10699561577801596 0.044486187607240421 -0.020920069838723292 0.032836569191376085 0.094266906812695922 -0.013144646927106018 0.061816642596564587 0.024855160182950482 -0.012838839016442657 -0.020926529329786798 0.07481507164462757 -0.019277885372824634 0.019080991098805827 0.020540424601000886 -0.011245872750258795 -0.0058501242814156867 -0.0021212386080789124 0.091403468115622305 0.0068041119224568078 0.0072649862840781128 -0.017952846060869308
leaf_weight=101.99852204322815 8.7254790663719266 6.5902813822031012 6.0623857676982906 7.3421463072299948 4.6883243620395687 4.5032303184270841 4.3570600152015677 7.8511797934770611 4.3914408683776838 4.6845937222242382 6.0114314854145041 21.195935219526294 5.3992362320423108 5.2045843750238401 7.412336453795433 4.7840690165758133 3.8402569442987433 8.6364325881004316 3.8864429295063019 3.831748902797699 48.152870982885361
leaf_count=436 31 25 26 28 17 18 17 31 18 20 22 90 22 21 31 20 16 30 16 16 206
internal_value=0 1.62248 -0.314945 2.16722 0.647318 1.07333 0.511703 -0.422379 0.492503 0.131978 2.56334 -0.497636 -0.293073 -0.11869 0.0509133 0.202476 -0.539276 2.73633 -0.10681 -0.0948705 -0.551527
internal_weight=0 45.529 234.021 30.7155 23.4974 17.4351 12.7467 210.524 14.8135 25.1527 23.3733 185.371 31.3792 17.3015 12.6169 10.1833 153.992 17.3619 8.38967 8.22319 150.151
internal_count=1157 170 987 111 94 68 51 893 59 103 83 790 132 72 52 42 658 61 34 34 642
shrinkage=0.0362726


Tree=23
num_leaves=22
num_cat=0
split_feature=6 6 4 7 0 1 2 4 7 3 4 3 2 2 1 6 0 7 7 4 3
split_gain=43.2733 9.55633 8.77437 7.82715 8.72817 6.2137 7.57929 3.77048 7.09633 3.40311 3.39059 3.25469 3.18756 6.34481 3.0798 2.83289 2.71511 4.58387 3.49212 3.15456 2.67912
threshold=0.88853016495704662 9.909487724304201 45.786293029785163 1.567668676376343 4.158644676208497 3.5626131296157841 2.3580445051193242 4.5305943489074716 11.992438793182375 1.9650908112525942 0.49999800324440008 2.2132859230041508 1.0266793966293337 0.3793936967849732 1.5739927887916567 2.5052274465560918 95.163837432861342 0.72699010372161876 4.7401611804962167 0.45327022671699529 1.3917343616485598
decision_type=2 2 2 2 2 2 2 2 2 2 2 2 2 2 2 2 2 2 2 2 2
left_child=16 5 3 -3 12 6 10 8 -6 -8 -2 20 13 -5 -11 -12 18 -18 -1 -20 -7
right_child=1 2 -4 4 7 11 9 -9 -10 14 15 -13 -14 -15 -16 -17 17 -19 19 -21 -22
leaf_value=-0.017035485557344607 0.066031487935896485 -0.0061243990767669816 0.06592101126629199 0.066909685761464374 0.0023331431914992442 -0.0031816219687209909 0.023153904285277672 -0.0039717989507781779 0.060808194499256951 -0.020793479368139831 0.0063707421569137853 -0.020764181214896212 0.072857292294717574 0.011480351644976036 0.018876067956694328 0.040972015304935376 -0.0094499608955143904 0.035790724074226683 0.022072838720630369 -0.010822497542067891 0.029370622376397017
leaf_weight=108.62510542571545 3.7485795468091991 9.8347418308258039 7.0892000943422309 5.3412247151136416 6.2256717085838336 14.360179096460348 6.5860429257154491 8.5626475065946561 4.8765576630830765 8.7478418201208097 5.3051512241363508 10.666372090578077 5.3975806087255469 5.5558961480855942 3.6432987153530112 7.5992926210165024 12.839665427803995 3.8239645808935157 5.9075507968664196 10.932952284812925 4.3259603381156913
leaf_count=499 16 43 30 21 27 63 29 37 21 39 23 48 22 23 16 32 58 16 26 49 19
internal_value=0 0.465925 0.78161 0.621119 0.837358 0.208913 0.489619 0.38841 0.773034 0.0571884 0.981995 -0.131598 1.37874 1.06614 -0.251149 0.737916 -0.353587 0.0252837 -0.40396 0.0193645 0.119685
internal_weight=0 117.866 52.8835 45.7943 35.9596 64.9827 35.6302 19.6649 11.1022 18.9772 16.653 29.3525 16.2947 10.8971 12.3911 12.9044 142.129 16.6636 125.466 16.8405 18.6861
internal_count=1157 509 224 194 151 285 155 85 48 84 71 130 66 44 55 55 648 74 574 75 82
shrinkage=0.0362726


Tree=24
num_leaves=18
num_cat=0
split_feature=0 0 6 7 6 5 6 4 0 5 0 7 6 0 0 1 2
split_gain=91.2577 11.8283 8.288 7.97206 9.55812 6.34221 5.84947 3.50153 4.97782 8.10161 10.2726 5.32795 2.77899 1.8114 0.512301 0.492072 0.300217
threshold=93.038890838623061 74.73288726806642 1.1535460352897646 0.56315052509307872 0.1277713626623154 0.075432430952787413 2.5712723731994633 2.4848166704177861 8.8089208602905291 0.41994833946228033 0.2932289987802506 14.73313617706299 0.22482345998287204 84.48349761962892 62.461660385131843 0.29190643131732946 2.2025811672210698
decision_type=2 2 2 2 2 2 2 2 2 2 2 2 2 2 2 2 2
left_child=1 6 13 4 5 -2 14 15 9 10 -9 -10 -5 -3 -1 -8 -15
right_child=3 2 -4 12 -6 -7 7 8 11 -11 -12 -13 -14 16 -16 -17 -18
leaf_value=-0.019204439022640258 0.12227508602332239 0.031145851830256539 0.07454787997291526 0.02923498634579343 0.16174007936120727 0.047519998771227714 0.001442270633197934 -0.019118351512922838 0.059359982764579627 -0.019204894079016852 0.080819362823232765 -0.0058694111865074013 0.081245671407253292 0.00067452195370503614 -0 -0.019192639272518668 -0.019205845785010268
leaf_weight=66.577398777008057 2.8005154728889448 2.1521315053105337 3.4620335251092911 2.9762075021862975 2.9905980229377747 3.2320594042539597 1.7412068024277676 2.5430155992507997 4.1332775503396979 12.362237997353075 2.8848455175757408 2.7288118898868561 2.5087189078330994 1.8040121570229533 1.8848848938941944 10.912471473217009 2.1781825125217438
leaf_count=632 16 19 24 24 17 22 16 24 31 116 20 25 16 16 17 103 19
internal_value=0 -0.244796 0.818037 2.41624 2.9949 2.26795 -0.341291 -0.0225214 0.196781 -0.081951 0.936027 0.920385 1.46305 0.118706 -0.514893 -0.450306 -0.279493
internal_weight=0 115.365 9.59636 14.5081 9.02317 6.03257 105.768 37.3059 24.6522 17.7901 5.42786 6.86209 5.48493 6.13433 68.4623 12.6537 3.98219
internal_count=1157 1062 78 95 55 38 984 335 216 160 44 56 40 54 649 119 35
shrinkage=0.0362726


Tree=25
num_leaves=22
num_cat=0
split_feature=1 0 2 0 2 0 4 1 0 6 7 5 1 2 5 5 1 6 1 5 0
split_gain=73.3689 28.8584 23.2573 18.6288 14.9329 10.2747 8.7564 8.38897 5.42848 4.97002 4.78288 3.13742 3.3059 3.04156 2.3302 4.66002 2.02852 1.84134 1.6459 1.97362 1.42318
threshold=5.1324100494384775 11.355014324188234 0.30874931812286383 0.45630086958408361 3.0270584821701054 88.415008544921889 0.017374845221638683 0.50190019607543956 0.03989295847713948 0.22482345998287204 0.0074705071747303018 0.10810978710651399 91.623867034912124 0.77839672565460216 0.049848278984427459 0.16391976922750476 20.207413673400882 33.746500015258796 2.5681726932525639 2.6200869083404545 46.552867889404304
decision_type=2 2 2 2 2 2 2 2 2 2 2 2 2 2 2 2 2 2 2 2 2
left_child=5 2 3 6 13 18 8 -7 10 -9 -2 -5 -13 20 -8 -16 -15 -4 -1 -20 -3
right_child=1 4 17 11 -6 7 14 9 -10 -11 -12 12 -14 16 15 -17 -18 -19 19 -21 -22
leaf_value=-0.019187453150332743 0.045702473045695191 0.090903306586688326 -0.019226849972526886 0.088590413965069933 -0.0040408254292787537 -0.010249486519729286 -0.020895855674315355 0.060012090501632823 0.069390065920922311 0.010647358790815381 -0.0057347811951722651 0.072950419917186232 0.028655065379595158 0.07055202046712529 0.025536928041363972 -0.015681477505236182 0.036107655931492462 0.0084886286205504754 0.016200501635880941 -0.01582874435796949 0.065274829861579245
leaf_weight=134.31157641112804 4.8630725592374784 8.0177409052848869 21.25948236882687 4.5906301140785208 4.281835824251174 17.02911172807217 5.7607625573873547 4.4333164393901807 4.3899895697832099 6.8371415734291077 4.6405621618032455 4.6094109117984754 4.3189554810523987 4.7120934128761274 7.7638369351625425 6.7367127239704132 4.3872282654047012 3.6899366676807395 3.8809218257665616 7.2596641033887863 4.5726072788238517
leaf_count=600 19 27 92 16 18 74 25 16 17 28 18 18 16 17 32 28 16 16 16 32 16
internal_value=0 0.688951 0.365296 0.77473 1.59372 -0.391053 0.381201 0.160069 0.99267 0.829474 0.566823 1.76846 1.42121 1.93064 -0.037763 0.175631 1.48795 -0.416788 -0.498327 -0.128169 2.25005
internal_weight=0 98.5949 72.6234 47.6739 25.9715 173.752 34.1549 28.2996 13.8936 11.2705 9.50363 13.519 8.92837 21.6897 20.2613 14.5005 9.09932 24.9494 145.452 11.1406 12.5903
internal_count=1157 391 297 189 94 766 139 118 54 44 37 50 34 76 85 60 33 108 648 48 43
shrinkage=0.0362726


Tree=26
num_leaves=22
num_cat=0
split_feature=1 0 6 1 4 6 0 5 6 6 1 3 0 7 5 7 3 1 6 4 0
split_gain=123.392 19.2833 14.5263 14.52 8.52328 6.07488 5.16536 4.74151 5.71262 4.53331 8.19725 3.92654 4.78066 3.23108 7.07907 2.56887 4.91898 1.8892 0.354138 0.0376971 0.235687
threshold=79.952724456787124 0.19502614438533786 81.916858673095717 3.5626131296157841 14.096086025238039 1.9687061309814455 0.64224296808242809 0.08994643017649652 0.10105698183178903 17.888429641723636 21.893145561218265 0.012106646317988636 0.014408743940293791 0.41967600584030157 0.075432430952787413 1.4989404082298281 0.81757509708404552 90.91211318969728 3.0650322437286381 66.177059173583999 0.52281665802001964
decision_type=2 2 2 2 2 2 2 2 2 2 2 2 2 2 2 2 2 2 2 2 2
left_child=2 7 3 19 9 13 -4 8 11 15 -11 -2 -13 14 -3 16 -5 -15 -17 -1 -21
right_child=1 5 6 4 -6 -7 -8 -9 -10 10 -12 12 -14 17 -16 18 -18 -19 -20 20 -22
leaf_value=-0.020568127297873655 0.088993480246476186 -0.011325105242385792 0.056484040630526734 -0.02063072862079034 0.045861306266718561 0.05853284367750549 -0.00033559171593775905 0.038242063587922301 0.09724167020233844 -0.012974511195452437 0.057204617449140141 0.07088876266784673 0.020025685302624656 0.014608654832269091 0.05103168150464453 -0.020580951579058798 0.027090785134187206 -0.020798667823665178 -0.010387927083393681 -0.020574616551268996 -0.0098696456277120297
leaf_weight=128.47279933094978 4.588637024164206 3.7694257348775917 5.1221124678850156 5.367647126317026 5.4071777909994116 5.4404531568288794 3.559214860200882 5.4844857901334754 9.7234161496162397 4.597891151905058 4.1737533062696457 5.4821644723415357 4.3985616862773895 4.0826779901981345 6.5440965443849564 12.839879959821703 6.0348618924617767 3.850724846124649 7.0830306559801093 15.533359393477442 3.3949137032032004
leaf_count=616 17 16 20 25 22 21 16 22 33 20 18 20 18 18 28 61 26 17 33 74 16
internal_value=0 1.35912 -0.350949 -0.40792 0.0857329 0.685828 0.914204 1.8963 2.0869 -0.0730375 0.562142 1.68729 1.33079 0.408806 0.777928 -0.251115 0.126947 -0.0702021 -0.467831 -0.560361 -0.514648
internal_weight=0 53.3646 201.587 192.905 45.5042 23.6874 8.68133 29.6773 24.1928 40.0971 8.77164 14.4694 9.88073 18.2469 10.3135 31.3254 11.4025 7.9334 19.9229 147.401 18.9283
internal_count=1157 210 947 911 205 100 36 110 88 183 38 55 38 79 44 145 51 35 94 706 90
shrinkage=0.0362726


Tree=27
num_leaves=22
num_cat=0
split_feature=2 5 2 6 1 5 1 6 3 5 2 5 3 5 0 1 4 7 2 6 2
split_gain=85.1821 25.2957 8.3962 12.0606 6.9126 11.2518 6.5541 6.02798 6.73763 5.17254 6.2239 3.2314 2.93737 2.73435 2.51449 1.85807 1.55191 1.38212 2.31395 1.16425 0.528281
threshold=6.1999151706695566 0.63772180676460277 1.0266793966293337 1.0236565470695498 0.072320938110351576 0.10810978710651399 0.59267309308052074 0.88853016495704662 2.6830459833145146 39.284976959228523 3.4540257453918461 8.030497074127199 0.3526280969381333 1.9555703997612002 0.85824915766716015 0.015625727828592065 0.83571740984916698 20.986722946166996 2.3016117811203007 2.4438537359237675 0.45478531718254095
decision_type=2 2 2 2 2 2 2 2 2 2 2 2 2 2 2 2 2 2 2 2 2
left_child=2 4 15 9 5 -2 11 8 -8 10 12 14 -4 -14 -3 -1 -6 -5 -19 -9 -17
right_child=1 6 3 17 16 -7 7 19 -10 -11 -12 -13 13 -15 -16 20 -18 18 -20 -21 -22
leaf_value=0.0027640297726009176 0.073973181178090999 -0.0054735252925973569 0.039512894051564135 -0.017467845108703164 0.099133832617843726 0.0066122285522748373 0.022008196255068321 0.024712181675066766 0.08197543592332876 -0.014650155105214944 0.054915714387409179 -0.020729424102340171 -0.0059631618462572368 0.028600335150435221 0.031888343049908827 -0.01919161820022746 0.071220153107632467 -0.020810332616585037 0.010912848585098911 -9.4892908435189932e-05 -0.014043953536266302
leaf_weight=6.0991322994232169 8.6898179054260272 4.6918362975120527 4.1622031033039191 32.537753194570541 6.2756486833095533 5.2374099045991889 4.9936806559562701 4.7314447909593564 4.8959852755069733 5.7993690222501746 6.1763911694288245 5.9786300361156455 9.6603834778070432 4.3712395578622809 4.7700314372777939 91.017968520522118 4.6640421152114868 5.4366520047187787 6.8126519173383713 5.2109536975622177 37.500799804925919
leaf_count=26 30 20 16 145 21 22 19 19 18 25 24 27 41 18 19 409 16 24 29 22 167
internal_value=0 1.03736 -0.312774 -0.0444373 1.80988 1.34149 0.492546 0.872898 1.42588 0.444193 0.646289 0.0035752 0.351357 0.131968 0.367656 -0.462137 2.40555 -0.373741 -0.0867569 0.322164 -0.487737
internal_weight=0 60.1395 209.575 74.9566 24.8669 13.9272 35.2726 19.8321 9.88967 30.1696 24.3702 15.4405 18.1938 14.0316 9.46187 134.618 10.9397 44.7871 12.2493 9.9424 128.519
internal_count=1157 233 924 322 89 52 144 78 37 124 99 66 75 59 39 602 37 198 53 41 576
shrinkage=0.0362726


Tree=28
num_leaves=22
num_cat=0
split_feature=3 2 0 7 5 1 6 5 7 3 3 4 4 6 4 3 3 1 7 1 1
split_gain=98.2193 14.9634 7.94061 9.34528 6.21161 5.69536 6.71726 4.86004 4.25576 4.24524 3.90395 3.34956 2.27585 2.00325 1.91505 3.82668 1.24529 2.41769 2.02657 1.90533 1.12347
threshold=7.1717832088470468 0.69108062982559215 13.114885330200197 24.195921897888187 30.730147361755375 0.30992542207241064 0.097397349774837508 45.92039871215821 78.19944000244142 3.3714138269424443 14.245955467224123 1.428401052951813 0.21653757244348529 85.50901031494142 3.3334169387817387 52.980607986450202 0.43800203502178198 0.22926306724548343 2.6996929645538335 85.593006134033217 0.29190643131732946
decision_type=2 2 2 2 2 2 2 2 2 2 2 2 2 2 2 2 2 2 2 2 2
left_child=2 7 8 5 10 6 -4 -2 13 -7 -3 -11 -8 16 15 -12 -1 18 -18 -19 -15
right_child=1 4 3 -5 -6 9 12 -9 -10 11 14 -13 -14 20 -16 -17 17 19 -20 -21 -22
leaf_value=-0.019952564706061056 0.091801287968973314 0.022850845244055552 -0.0090018625522682357 0.049681924822906176 -0.0012559590418416919 -0.014465512730561869 0.018686498503866496 0.047340516135612305 0.020784890730308404 0.034944181542657618 0.08228325709444928 -0.0075149218680543436 0.054102766613458572 0.015872390997603601 0.033799443084114804 0.036713610622417847 -0.009008546166567457 -0.019411902793021997 0.021345307013292906 -0.0013389752286876761 -0.011679079610138306
leaf_weight=75.754928335547447 10.478891074657438 9.0132782161235863 9.0540954023599642 4.575769215822219 5.4627379775047293 44.550373017787933 5.4225619137287122 4.7198962271213523 4.3031880706548682 4.4930918812751752 5.5593157708644849 5.3462188094854355 4.3079324811697006 3.9118551015853873 4.578547775745391 4.3463253676891327 9.0582946836948377 47.55635504424572 4.2517866790294638 9.1871175765991193 3.8719302713871002
leaf_count=329 34 35 38 17 22 190 21 17 17 17 19 22 16 16 17 16 38 205 17 38 16
internal_value=0 1.34681 -0.278315 -0.0166273 0.924691 -0.103409 0.371161 2.15067 -0.40713 -0.267436 1.148 0.326663 0.948139 -0.434635 1.4699 1.71792 -0.461027 -0.364638 0.0184507 -0.454617 0.0588802
internal_weight=0 44.159 235.645 77.75 28.9602 73.1743 18.7846 15.1988 157.895 54.3897 23.4975 9.83931 9.73049 153.592 14.4842 9.90564 145.808 70.0536 13.3101 56.7435 7.78379
internal_count=1157 160 997 321 109 304 75 51 676 229 87 39 37 659 52 35 627 298 55 243 32
shrinkage=0.0362726


Tree=29
num_leaves=22
num_cat=0
split_feature=4 4 7 2 7 4 4 7 1 7 3 0 5 3 5 2 4 1 4 4 1
split_gain=54.422 13.0572 11.1226 7.04679 5.42592 3.28597 6.52607 4.15549 4.09723 3.2692 5.65239 2.73912 2.73083 4.77014 2.69432 1.86623 1.82407 1.68206 1.77266 1.23244 1.11532
threshold=13.536460876464846 95.392303466796889 3.6158258914947514 81.908840179443374 0.25689670443534857 6.4326422214508066 4.0771198272705087 7.9697439670562753 1.3628806471824648 4.8833239078521737 1.0595647096633913 0.78896260261535656 0.96592223644256603 0.097465004771947875 2.6200869083404545 1.7332977056503298 59.380928039550788 12.210138320922853 0.31726771593093878 1.2358268499374392 0.99439677596092235
decision_type=2 2 2 2 2 2 2 2 2 2 2 2 2 2 2 2 2 2 2 2 2
left_child=2 9 3 -1 -5 6 7 8 19 11 -11 12 13 -2 -12 -10 -15 18 -9 -4 -8
right_child=1 -3 5 4 -6 -7 20 17 15 10 14 -13 -14 16 -16 -17 -18 -19 -20 -21 -22
leaf_value=-0.016675454707882051 0.0076867528851200231 0.074687275307172771 0.020780553490691488 -0.010834987524912377 0.034724560199494436 -0.016614515709008258 0.051056725376962403 0.012350692309691221 0.015009272193835788 0.066363685538299869 0.0015453348564429025 -0.0039151667226485411 0.00041036169529221945 0.066881120743019121 0.037054780338517931 -0.020655261438749507 0.032386058788495382 0.016848111364204176 -0.012867461762373312 0.048607847320050468 0.023841361296239375
leaf_weight=134.31157094240189 6.2868158072233262 8.2590720653533918 4.3264072388410586 7.3211773782968503 6.4776315540075302 8.818559452891348 4.0091555714607221 4.3561571538448396 4.0204021483659735 5.7879595160484341 4.7951113879680616 6.3739790171384803 5.0398147851228705 4.10499759018421 6.8469791263341904 3.710411474108696 4.0452842712402344 3.8212534785270682 22.923818960785866 4.1410711407661438 4.015045553445816
leaf_count=614 26 29 18 33 26 40 16 19 17 23 20 27 21 16 28 17 16 16 103 16 16
internal_value=0 0.906425 -0.239137 -0.389792 0.290423 0.108634 0.199085 0.0574702 0.468286 0.686318 1.02134 0.460166 0.64643 0.867672 0.618935 -0.0572378 1.37267 -0.156275 -0.243477 0.94889 1.033
internal_weight=0 51.54 212.253 148.11 13.7988 64.1423 55.3237 47.2995 16.1983 43.2809 17.4301 25.8509 19.4769 14.4371 11.6421 7.73081 8.15028 31.1012 27.28 8.46748 8.0242
internal_count=1157 206 951 673 59 278 238 206 68 177 71 106 79 58 48 34 32 138 122 34 32
shrinkage=0.0362726


Tree=30
num_leaves=22
num_cat=0
split_feature=5 1 2 3 5 3 5 5 3 7 7 1 1 4 2 7 7 4 7 7 3
split_gain=132.087 23.8864 23.3043 12.6119 11.4021 12.8134 8.63055 8.56471 5.85281 3.3627 3.08787 1.78721 1.57619 1.57214 3.62551 1.13069 0.899046 0.669798 0.638919 0.616842 0.612827
threshold=18.781988143920902 0.96884888410568248 47.54944038391114 8.9153852462768572 0.11258206889033319 0.21063710749149325 5.5073544979095468 3.5855128765106206 3.987642884254456 2.0939404964447026 13.103933811187746 1.6684556007385256 0.3662471622228623 28.815082550048832 3.0270584821701054 3.2571008205413823 67.71884918212892 7.9527931213378915 0.20965644717216494 2.4182770252227788 10.384963512420656
decision_type=2 2 2 2 2 2 2 2 2 2 2 2 2 2 2 2 2 2 2 2 2
left_child=2 3 6 12 -4 -6 13 19 -3 -8 17 -12 18 16 -15 -16 -1 -11 -2 -7 -10
right_child=1 8 4 -5 5 7 9 -9 20 10 11 -13 -14 14 15 -17 -18 -19 -20 -21 -22
leaf_value=-0.019923657740811795 0.082510753032410108 0.042017288278121984 -0.020849781988015296 0.031297185333913034 0.086278709252077354 -0.013042215911860352 0.032198283465948024 0.057962336104594635 -0.012745573340769888 -0.021096317850770204 0.031607361916313151 -0.00029793277325277219 0.069116299617036234 -0.019184522812547539 0.01839415211388824 -0.0057433700172772979 -0.0020458795939816499 -0.0023471501988088128 0.096362298817477265 0.006675991757527598 0.0070901701084412445
leaf_weight=147.60033343732357 8.2971315085887962 6.8264313936233512 5.9522079378366497 7.5375254750251761 5.0167488455772427 4.4662298709154111 4.7440897971391705 4.5561449229717246 4.3587988168001157 7.263867527246477 4.102729454636572 5.2518639862537384 6.3660077452659598 20.845508977770809 5.4833682626485807 4.7574377059936523 3.8276349753141394 3.8757817000150681 10.386482536792753 3.9018566906452179 3.8523743599653244
leaf_count=642 27 25 26 28 17 18 19 17 18 30 16 22 22 90 22 20 16 16 34 16 16
internal_value=0 1.51721 -0.311374 1.99836 0.623792 1.02183 -0.418959 0.494638 0.474077 0.128934 -0.046372 0.376835 2.33978 -0.494759 -0.289445 0.197309 -0.536863 -0.402372 2.48739 -0.105277 -0.0939953
internal_weight=0 47.6248 231.646 32.5871 23.8932 17.941 207.753 12.9242 15.0376 25.2383 20.4942 9.35459 25.0496 182.514 31.0863 10.2408 151.428 11.1396 18.6836 8.36809 8.21117
internal_count=1157 170 987 111 94 68 893 51 59 103 84 38 83 790 132 42 658 46 61 34 34
shrinkage=0.0362726


Tree=31
num_leaves=22
num_cat=0
split_feature=6 6 4 7 0 1 2 5 4 3 7 4 3 6 1 0 7 7 4 3 1
split_gain=41.2606 8.77884 7.66728 7.23431 7.80732 5.85589 6.96345 5.55862 3.6021 3.24532 3.23135 3.26714 3.18978 2.9857 2.9756 2.65861 4.30628 3.45073 3.01034 2.5083 3.32635
threshold=0.88853016495704662 9.909487724304201 45.786293029785163 1.567668676376343 1.7984432578086855 3.5626131296157841 2.3580445051193242 6.7686319351196298 4.5305943489074716 1.9650908112525942 1.2205008864402773 0.70092925429344188 2.2132859230041508 58.214517593383796 1.5739927887916567 95.163837432861342 0.72699010372161876 4.7401611804962167 0.45327022671699529 1.3917343616485598 95.772968292236342
decision_type=2 2 2 2 2 2 2 2 2 2 2 2 2 2 2 2 2 2 2 2 2
left_child=15 5 3 -3 13 6 10 8 -6 -8 -2 -12 19 -5 -11 17 -17 -1 -19 20 -7
right_child=1 2 -4 4 7 12 9 -9 -10 14 11 -13 -14 -15 -16 16 -18 18 -20 -21 -22
leaf_value=-0.016924519232443085 0.0087467214449283882 -0.0060474484295883046 0.061244789073820763 0.037987057319756649 0.023878376110622712 -0.013853253115884411 0.022325666431924931 0.053080033453747504 -0.0053813377202837614 -0.020739122940899128 0.068719785838228978 0.029681815585871615 -0.020710111788892708 0.081098443731100117 0.018093397909775658 -0.0093358468253148946 0.034076063705697379 0.021359886294981662 -0.010676689545276782 0.02811441854328553 0.025373282116927711
leaf_weight=106.9295282959938 4.8475989401340511 9.7936170101165754 7.4719918966293326 4.2783428281545621 13.700153216719633 10.400562107563024 6.7020793110132244 5.3695576190948477 9.2695230394601804 8.6162298470735532 4.43458443880081 7.8578672260046005 10.502958312630652 4.239072173833847 3.7098330855369559 12.740891486406328 3.9344221204519263 5.9989368915557888 10.815549463033674 4.4286682605743399 3.9129247218370429
leaf_count=499 20 43 30 17 57 46 29 22 39 39 18 33 48 16 16 58 16 26 49 19 17
internal_value=0 0.449525 0.747502 0.596643 0.79967 0.202878 0.471964 0.54699 0.332477 0.0551418 0.934307 1.20711 -0.129676 1.63959 -0.248992 -0.349856 0.0245956 -0.400371 0.0203582 0.117253 -0.0858112
internal_weight=0 119.536 54.1223 46.6503 36.8566 65.4133 36.1682 28.3392 22.9697 19.0281 17.1401 12.2925 29.2451 8.51742 12.3261 140.419 16.6753 123.744 16.8145 18.7422 14.3135
internal_count=1157 509 224 194 151 285 155 118 96 84 71 51 130 33 55 648 74 574 75 82 63
shrinkage=0.0362726


Tree=32
num_leaves=19
num_cat=0
split_feature=0 0 6 2 5 6 2 4 0 5 0 7 1 4 3 4 5 0
split_gain=81.564 14.4441 7.60489 6.96919 9.20309 6.30009 6.1553 3.82574 5.54802 7.70573 9.11364 5.2977 4.76235 2.60187 1.37966 0.498225 0.495272 0.465942
threshold=77.434932708740249 97.466785430908217 1.1535460352897646 1.8695998191833498 0.26018685102462774 2.5712723731994633 1.1496552228927615 2.4848166704177861 8.8089208602905291 0.41994833946228033 0.2932289987802506 14.73313617706299 2.0982754230499272 0.02283483371138573 1.5606763362884524 0.012576426379382612 0.082347780466079726 63.918333053588874
decision_type=2 2 2 2 2 2 2 2 2 2 2 2 2 2 2 2 2 2
left_child=5 2 3 4 -2 17 -6 16 9 10 -9 12 -10 15 -5 -3 -7 -1
right_child=1 13 -4 14 6 7 -8 8 11 -11 -12 -13 -14 -15 -16 -17 -18 -19
leaf_value=-0.019181683694389967 0.099290278269832638 0.096174065214316207 0.090440463339678409 -0.019371295658253424 -0.019455450648693508 0.0015416613531203719 0.06326389523868664 -0.019098994898897711 0.090031166386995778 -0.019183617799724689 0.073913488184438089 -0.0057849978812700908 0.016034159660010594 0.12962506177181088 0.020142200501595202 0.074180845913619203 -0.01918755830001341 -0.001477153062568214
leaf_weight=65.514743998646736 3.0392894670367294 3.1097474694251996 3.2868700176477423 3.1699914336204529 2.5785097777843475 1.7333372235298146 2.1832522749900818 2.5052176192402902 2.6391962170600882 12.146722324192522 3.0932411551475525 2.7131115645170212 2.0365447103977203 2.6641986966133118 1.8321455493569372 2.6909027248620987 11.019987016916273 2.0470445007085791
leaf_count=634 19 16 21 26 20 16 16 24 17 116 20 25 16 16 16 16 105 18
internal_value=0 1.69256 1.13554 0.786434 1.3773 -0.33109 0.507807 -0.0045062 0.221669 -0.0811495 0.889048 0.949839 1.59498 2.75053 -0.133695 2.37132 -0.450779 -0.514132
internal_weight=0 24.5549 16.0901 12.8032 7.80105 105.449 4.76176 37.8874 25.134 17.7452 5.59846 7.38885 4.67574 8.46485 5.00214 5.80065 12.7533 67.5618
internal_count=1157 166 118 97 55 991 36 339 218 160 44 58 33 48 42 32 121 652
shrinkage=0.0362726


Tree=33
num_leaves=22
num_cat=0
split_feature=1 0 5 2 0 0 1 6 6 5 0 2 2 6 6 1 4 7 1 6 5
split_gain=69.6869 23.9658 23.1614 15.4417 14.8499 9.36894 7.28087 5.93103 4.93453 4.62364 4.56926 5.46219 3.10859 1.94711 1.54617 1.38166 1.14098 1.13443 1.02593 0.861936 0.854
threshold=4.1082911491394052 11.355014324188234 0.9750821888446809 3.0270584821701054 1.1642867326736452 88.415008544921889 0.50190019607543956 0.063966054469347014 0.22482345998287204 0.010545275639742615 0.22637886554002765 0.076506566256284728 1.3846724033355715 1.0236565470695498 0.51680052280426036 3.2017902135849003 0.14061346650123599 1.0527426004409792 0.25219871103763586 0.029386754147708419 2.3305487632751469
decision_type=2 2 2 2 2 2 2 2 2 2 2 2 2 2 2 2 2 2 2 2 2
left_child=5 2 4 12 7 15 18 9 -8 -2 16 -12 13 17 -6 -1 -9 -3 -7 -11 -4
right_child=1 3 20 -5 14 6 8 10 -10 19 11 -13 -14 -15 -16 -17 -18 -19 -20 -21 -22
leaf_value=-0.018878892645235613 0.0077228240788432797 0.068701447749574013 -0.0059315002247281 -0.0063515130049837743 0.079081992656677438 -0.017283661166158447 0.056246624282742776 -0.013595109550452506 0.0070607808632579807 0.063348416608645167 0.053183817746442624 0.0018670508812771399 0.039503753406258071 0.055961330656073324 0.050798213754962226 0.00028910443498480554 0.0075145856743335732 0.092031206620004469 0.0010062860063634294 0.040531819657170474 -0.020811047905050215
leaf_weight=135.64633700251579 4.9597509354352942 5.5677028000354856 7.2957393974065807 4.962455838918685 5.350904315710066 10.325015738606458 4.6324833929538709 10.005008891224863 6.4109455198049545 4.2671618610620481 4.8280484378337842 6.3009434342384338 5.3182727396488181 6.9717191010713568 4.9940720051527023 5.1088012158870688 5.0626114904880515 5.6937149167060852 6.5834236443042746 4.6577321141958237 17.071255743503571
leaf_count=616 19 18 32 21 17 46 16 44 26 16 17 26 19 24 18 22 21 18 28 17 76
internal_value=0 0.646673 0.349163 1.42682 0.736047 -0.396219 0.132406 0.460125 0.764089 0.988618 0.179757 0.665839 1.76465 1.96132 1.80444 -0.501245 -0.178815 2.21982 -0.279765 1.41893 -0.451196
internal_weight=0 103.307 74.7932 28.5139 50.4262 168.707 27.9519 40.0813 11.0434 13.8846 26.1966 11.129 23.5514 18.2331 10.345 140.755 15.0676 11.2614 16.9084 8.92489 24.367
internal_count=1157 403 303 100 195 754 116 160 42 52 108 43 79 60 35 638 65 36 74 33 108
shrinkage=0.0362726


Tree=34
num_leaves=21
num_cat=0
split_feature=1 0 6 1 4 0 6 6 4 2 0 6 4 2 7 3 7 6 4 0
split_gain=114.661 16.8587 13.8581 14.3311 7.93891 6.48627 5.05097 4.80261 4.84878 5.40013 4.63684 4.33069 3.08333 2.63205 1.89105 4.79106 1.53566 0.950922 0.0379332 0.237302
threshold=79.952724456787124 0.97758322954177868 81.916858673095717 3.5626131296157841 14.096086025238039 0.04709919914603234 0.031369300559163101 0.48596106469631201 0.067703772336244597 0.02744968514889479 0.52281665802001964 31.714530944824222 0.1242213509976864 0.13459480553865436 1.4989404082298281 0.81757509708404552 0.024815167300403122 3.0650322437286381 66.177059173583999 0.52281665802001964
decision_type=2 2 2 2 2 2 2 2 2 2 2 2 2 2 2 2 2 2 2 2
left_child=2 5 3 18 11 6 -2 8 9 -7 -4 14 -3 -9 15 -5 -8 -16 -1 -20
right_child=1 12 10 4 -6 7 16 13 -10 -11 -12 -13 -14 -15 17 -17 -18 -19 19 -21
leaf_value=-0.020509253760232622 0.046083269362460627 -0.0094287510658433039 0.056810249426732719 -0.020575593147353945 0.043562956503980788 0.017263707397933196 0.095424929577438061 0.047524502297796506 -0.0036140934928827833 0.074122203011103588 0.0044014015056892787 0.025046244331890666 0.028285543902138933 0.082891111493137576 -0.020525104241806782 0.02601970060372993 0.069143720862491653 -0.0052581499965488696 -0.020522655675025928 -0.0097197279983044192
leaf_weight=126.05677534639835 6.4070711880922344 6.4127553105354291 4.6199802756309492 5.4872752726078016 5.5866960138082495 4.6764393001794833 8.015576243400572 7.3307067304849607 4.0893916189670554 4.1701806634664536 4.298629492521286 6.2813364267349234 5.1284292787313461 4.5110777765512466 12.614398822188379 6.1616196185350418 4.7592236250638953 9.4337537139654142 15.280328139662744 3.3588800579309455
leaf_count=616 23 29 17 26 22 18 27 27 16 16 19 26 21 17 61 26 16 44 74 16
internal_value=0 1.2778 -0.347498 -0.404631 0.0843162 1.56022 1.99735 1.22154 0.799315 1.21563 0.870563 -0.0715614 0.201492 1.68221 -0.213816 0.111645 2.36138 -0.386076 -0.558648 -0.512484
internal_weight=0 55.5009 199.18 190.261 45.5651 43.9597 19.1819 24.7778 12.936 8.84662 8.91861 39.9784 11.5412 11.8418 33.697 11.6489 12.7748 22.0482 144.696 18.6392
internal_count=1157 210 947 911 205 160 66 94 50 34 36 183 50 44 157 52 43 105 706 90
shrinkage=0.0362726


Tree=35
num_leaves=22
num_cat=0
split_feature=2 5 2 6 1 0 7 4 6 4 5 2 5 3 5 4 1 7 2 4 7
split_gain=80.1322 22.2125 8.24801 11.5657 6.52869 5.43229 5.60648 6.81513 5.40763 5.87139 4.86007 5.63394 2.73517 2.70387 2.57201 2.09866 1.83467 1.36534 2.24678 1.27443 1.10721
threshold=6.1999151706695566 0.64694771170616161 1.0266793966293337 1.0236565470695498 0.59267309308052074 0.57711765170097362 0.12135123088955881 0.34755946695804601 0.88853016495704662 2.1122466325759892 39.284976959228523 3.4540257453918461 8.030497074127199 0.3526280969381333 1.9555703997612002 5.733513832092286 0.015625727828592065 20.986722946166996 2.3016117811203007 0.64835175871849071 7.9697439670562753
decision_type=2 2 2 2 2 2 2 2 2 2 2 2 2 2 2 2 2 2 2 2 2
left_child=2 5 16 10 12 6 7 -2 9 -6 11 13 15 -4 -15 -3 -1 -5 -19 -7 -10
right_child=1 4 3 17 8 19 -8 -9 20 -11 -12 -13 -14 14 -16 -17 -18 18 -20 -21 -22
leaf_value=0.0027354514167329739 0.027957821188470244 0.029591866294912755 0.037522986367431864 -0.017366790334544059 0.018147791119124818 0.087808811989355959 0.011012665119957427 0.090630965075153266 -0.00020830973433575662 0.073389873543421261 -0.014520080512012926 0.051789930852292394 -0.020663026868990783 -0.005915994551526714 0.027351648239743939 -0.0055007871516979494 -0.017587987697186079 -0.020747432459171836 0.010604688366755651 0.064767929242683459 0.023848276071695391
leaf_weight=6.1053683161735526 4.3673460483551043 4.2730780094861966 4.2917083799839117 32.062824681401253 4.586637884378435 7.2269860655069333 4.407909780740737 4.8162525296211243 5.2343075424432737 5.6884357035160065 5.7256023436784735 6.4232985973358145 5.8658339232206336 9.6358545720577222 4.4744378924369803 4.6977800577878952 126.52073426544666 5.3429284244775754 6.8715308308601379 5.8409453481435776 4.8136879801750183
leaf_count=26 16 17 16 145 18 23 16 16 22 19 25 24 27 41 18 20 576 24 29 20 19
internal_value=0 0.987849 -0.309262 -0.0437044 0.465619 1.67634 1.23253 1.67766 0.833817 1.34412 0.429488 0.621141 -0.0382764 0.339205 0.127256 0.308427 -0.45904 -0.370356 -0.0851728 2.1374 0.31131
internal_weight=0 61.8192 207.454 74.8282 35.1598 26.6594 13.5915 9.1836 20.3231 10.2751 30.5509 24.8253 14.8367 18.402 14.1103 8.97086 132.626 44.2773 12.2145 13.0679 10.048
internal_count=1157 233 924 322 142 91 48 32 78 37 124 99 64 75 59 37 602 198 53 43 41
shrinkage=0.0362726


Tree=36
num_leaves=22
num_cat=0
split_feature=3 2 0 7 5 1 6 7 3 5 3 2 2 6 7 7 3 1 0 1 3
split_gain=91.6798 12.8377 7.7798 8.66371 5.68503 5.47038 6.3085 4.12546 4.11094 4.02531 3.46367 3.25873 2.10976 1.97003 1.75332 1.27363 1.24321 2.39079 1.9663 1.87785 1.13252
threshold=7.1717832088470468 0.69108062982559215 13.114885330200197 24.195921897888187 30.730147361755375 0.30992542207241064 0.097397349774837508 78.19944000244142 3.3714138269424443 45.92039871215821 14.245955467224123 3.8656542301177983 4.7978270053863534 85.50901031494142 5.1439342498779306 11.812865257263185 0.43800203502178198 0.22926306724548343 0.64224296808242809 85.593006134033217 0.27066151797771459
decision_type=2 2 2 2 2 2 2 2 2 2 2 2 2 2 2 2 2 2 2 2 2
left_child=2 9 7 5 10 6 -4 13 -7 -2 -3 -10 -8 16 -12 -16 -1 18 -18 -19 -15
right_child=1 4 3 -5 -6 8 12 -9 11 -11 14 -13 -14 20 15 -17 17 19 -20 -21 -22
leaf_value=-0.019870214072479794 0.08440067149409268 0.021986460366774738 -0.0089145917333587239 0.046880189989180157 -0.0012969218752078248 -0.014336866534585128 0.047153381750893973 0.020084106333326624 0.029389889670636233 0.044789128405252489 0.066111766124630517 -0.012606229721999008 0.013225368955678028 -0.011740647871139084 0.026524524572902032 0.05357772374864625 -0.0089001489996176214 -0.019328351411518799 0.020945811033356562 -0.0013732160555339134 0.015895872363768524
leaf_weight=74.426306903362274 11.156047344207765 9.1747498661279732 9.0044757425785082 4.7491717338562003 5.4717834889888755 44.000295400619507 5.7879547178745252 4.3687063157558432 5.7036935240030271 4.8862480521202079 5.7607750296592704 4.2270737588405609 4.1751133799552917 3.8887554705142966 4.4940660893917066 4.7820780873298645 8.9966391623020154 46.807955324649811 4.287848323583602 9.1999113261699659 3.9095092266798019
leaf_count=329 34 35 38 17 22 190 21 17 22 17 20 17 16 16 16 16 38 205 17 38 16
internal_value=0 1.27356 -0.274851 -0.0161483 0.883617 -0.101493 0.360272 -0.403669 -0.264021 1.99465 1.09167 0.316749 0.908682 -0.431318 1.38747 1.11648 -0.457884 -0.361206 0.0197053 -0.451675 0.0574227
internal_weight=0 45.7257 233.533 77.6478 29.6835 72.8986 18.9675 155.886 53.9311 16.0423 24.2117 9.93077 9.96307 151.517 15.0369 9.27614 143.719 69.2924 13.2845 56.0079 7.79826
internal_count=1157 160 997 321 109 304 75 676 229 51 87 39 37 659 52 32 627 298 55 243 32
shrinkage=0.0362726


Tree=37
num_leaves=22
num_cat=0
split_feature=4 4 7 2 7 4 4 7 7 7 2 6 5 4 5 4 1 4 1 0 3
split_gain=51.1262 11.2422 10.8485 6.89034 5.0841 3.19233 6.01473 3.96864 3.93766 2.97838 5.17201 4.26329 2.50779 2.75374 2.34288 2.24396 1.61365 1.72212 1.02799 1.01858 0.853381
threshold=13.536460876464846 95.392303466796889 3.6158258914947514 81.908840179443374 0.25689670443534857 6.4326422214508066 4.0771198272705087 7.9697439670562753 5.5879058837890634 4.0973839759826669 3.2102639675140385 4.6535067558288583 0.96592223644256603 44.293245315551765 2.0726145505905156 86.624885559082045 12.210138320922853 0.31726771593093878 0.20249233394861224 15.544957637786867 0.18456514179706576
decision_type=2 2 2 2 2 2 2 2 2 2 2 2 2 2 2 2 2 2 2 2 2
left_child=2 9 3 20 -5 6 7 8 14 12 -11 -12 13 -2 -4 18 17 -9 -15 -8 -1
right_child=1 -3 5 4 -6 -7 19 16 -10 10 11 -13 -14 15 -16 -17 -18 -19 -20 -21 -22
leaf_value=-0.020658625027584164 0.046564905292470898 0.068913189607463232 0.025522315969844767 -0.010702887685010232 0.033206157282508357 -0.016530074447730407 0.04833643705968077 0.012060108394575926 0.040220605644356075 0.057335452314128059 0.038006619636503827 -0.0063280835837448103 -0.0018566841333778059 -0.011346879077753901 -0.0099936589795690933 0.034289123891014177 0.016323645019558967 -0.012736692804158706 0.015059130637069399 0.022702840211420806 -0.014475566955324475
leaf_weight=44.648578554391861 4.7850398570299211 8.7500427663326246 3.8801653981208819 7.2494604438543302 6.6442641466856003 8.7203653603792173 4.1557514965534192 4.3904975950717988 5.9007340371608725 7.8201174736022976 6.709406375885008 4.9514056146144867 7.5697030723094931 3.7723876535892469 6.5924039334058762 4.5594587028026581 3.8694279640913001 22.662701427936554 3.9861481636762619 4.1092617362737656 87.665837466716766
leaf_count=208 18 29 16 33 26 40 16 19 24 30 26 21 32 16 28 18 16 103 16 16 406
internal_value=0 0.863933 -0.235743 -0.386284 0.283344 0.106557 0.194929 0.0572358 0.455428 0.658485 0.951057 0.528228 0.427204 0.639333 0.0866166 0.388453 -0.153385 -0.239942 0.0603268 0.98205 -0.45665
internal_weight=0 52.9037 210.489 146.208 13.8937 64.2813 55.5609 47.2959 16.3733 44.1537 19.4809 11.6608 24.6727 17.103 10.4726 12.318 30.9226 27.0532 7.75854 8.26501 132.314
internal_count=1157 206 951 673 59 278 238 206 68 177 77 47 100 68 44 50 138 122 32 32 614
shrinkage=0.0362726


Tree=38
num_leaves=22
num_cat=0
split_feature=5 2 1 5 3 3 5 5 3 1 4 2 2 3 1 7 7 6 4 5 1
split_gain=122.501 22.4513 20.5568 10.6161 11.132 10.5525 8.49806 7.81435 5.35896 3.16473 1.56898 3.54956 1.34355 2.21647 1.2805 1.06675 0.894736 0.607001 0.604472 0.5381 0.224884
threshold=18.781988143920902 47.54944038391114 0.96884888410568248 0.11258206889033319 0.21063710749149325 8.9153852462768572 5.5073544979095468 3.5855128765106206 3.987642884254456 1.1745240092277529 28.815082550048832 3.0270584821701054 1.7332977056503298 5.2875425815582284 0.3662471622228623 3.2571008205413823 67.71884918212892 0.20755830407142642 0.99267163872718822 97.242206573486342 79.952724456787124
decision_type=2 2 2 2 2 2 2 2 2 2 2 2 2 2 2 2 2 2 2 2 2
left_child=1 6 5 -3 -5 14 10 17 -4 -8 16 -12 -11 -14 19 -13 20 -6 -10 -2 -1
right_child=2 3 8 4 7 -7 9 -9 18 12 11 15 13 -15 -16 -17 -18 -19 -20 -21 -22
leaf_value=-0.020840982794595949 0.08881011045884897 -0.020778462396867682 0.039792523864883994 0.079547347577425168 -0.012971146401694444 0.029890066602656327 0.023308235542204389 0.054466177881378253 -0.012652222110035027 -0.020887198050080887 -0.019098359679246529 0.017770051914608162 0.019858189938692559 -0.011001287481368064 0.064223509296025522 -0.0056333986275331586 -0.0019803367494048659 0.0066037488996964168 0.0070805924876046773 0.076548423626568732 -0.017733045444912113
leaf_weight=98.47939969599247 10.072273910045629 5.8387572765350368 7.0521804541349402 5.3276327550411251 4.4408311694860441 7.7240356206893912 8.0961101800203341 4.7514325380325309 4.3282625973224622 4.6333330273628262 20.52205649018288 5.561694070696829 5.281409874558447 7.2822182923555374 6.701679438352584 4.7302169352769852 3.8166618943214408 3.9103591591119766 3.8523887395858765 9.8481738567352277 46.621015161275864
leaf_count=436 31 26 25 17 18 28 31 17 18 20 90 22 21 31 22 20 16 16 16 30 206
internal_value=0 -0.307893 1.42562 0.60149 0.97389 1.85451 -0.415571 0.477654 0.458142 0.126927 -0.491953 -0.286081 -0.115445 0.0538048 2.15324 0.192703 -0.534506 -0.1041 -0.0917967 2.28163 -0.547083
internal_weight=0 229.293 49.579 24.269 18.4303 34.3462 205.024 13.1026 15.2328 25.2931 179.731 30.814 17.197 12.5636 26.6221 10.2919 148.917 8.35119 8.18065 19.9204 145.1
internal_count=1157 987 170 94 68 111 893 51 59 103 790 132 72 52 83 42 658 34 34 61 642
shrinkage=0.0362726


Tree=39
num_leaves=22
num_cat=0
split_feature=6 6 4 7 0 1 2 4 7 3 3 1 3 1 2 2 0 7 7 4 7
split_gain=39.3841 8.08984 6.75862 6.69406 7.14669 5.52703 6.39846 3.36528 6.12752 3.12694 3.10506 2.95234 4.29919 2.88055 2.76151 5.0512 2.59931 4.04239 3.4138 2.87617 2.45808
threshold=0.88853016495704662 9.909487724304201 45.786293029785163 1.567668676376343 4.158644676208497 3.5626131296157841 2.3580445051193242 4.5305943489074716 11.992438793182375 2.2132859230041508 1.9650908112525942 0.45645876228809362 0.43800203502178198 1.5739927887916567 1.0266793966293337 0.3793936967849732 95.163837432861342 0.72699010372161876 4.7401611804962167 0.45327022671699529 1.4671588540077212
decision_type=2 2 2 2 2 2 2 2 2 2 2 2 2 2 2 2 2 2 2 2 2
left_child=16 5 3 -3 14 6 11 8 -6 20 -8 12 -2 -12 15 -5 18 -18 -1 -20 -7
